tree
version=v4
num_class=1
num_tree_per_iteration=1
label_index=0
max_feature_idx=16
objective=binary sigmoid:1
feature_names=sentence_count mean_words_per_sentence std_words_per_sentence neighbor_sentences_diff neighbor_sentences_diff_std abbrev_per_sentence captials_per_sentence avg_dash_quest_semicolon_per_sentence double_quest_excl_count avg_excl_per_sentence human_fillers ai_fillers ai_fillers2 woke fake_news ai_words1 ai_words2
feature_infos=[0:136] [0:716] [0:699] [-614:1398] [0:1092] [0:2] [0:262.5] [0:198] [0:2] [0:1] [0:2] [0:1] [0:0.5] [0:0.5] [0:0.14285714285714279] [0:0.61538461538461542] [0:0.14285714285714279]
tree_sizes=952 946 945 941 946 950 950 953 948 946 948 947 956 952 955 953 955 752 960 753 934 952 952 748 748 950 849 959 754 954 833 949 957 560 960 956 954 649 738 854 755 863 655 957 956 956 651 758 954 956 957 659 953 966 962 741 954 963 654 961 953 655 964 955 960 962 963 955 850 754 960 955 968 956 657 955 960 844 958 960 659 764 946 840 963 961 959 967 928 961 969 961 966 969 973 767 968 656 558 959 965 951 962 863 959 962 953 972 960 746 662 962 969 982 967 659 948 932 975 970 845 962 957 660 976 966 968 972 970 966 969 971 971 974 959 964 973 764 944 660 868 560 959 662 979 967 968 971 951 968 965 964 967 973 970 973 948 849 665 948 948 981 976 872 970 958 869 966 964 974 870 662 971 953 670

Tree=0
num_leaves=8
num_cat=0
split_feature=6 0 2 1 15 6 2
split_gain=607.925 361.67 221.973 79.3002 38.3336 16.259 6.50138
threshold=2.588989441930619 6.5000000000000009 10.031816307721522 1.5000000000000002 0.05131578947368421 3.3416666666666672 9.4006604747744547
decision_type=2 2 2 2 2 2 2
left_child=1 3 -3 -1 5 -2 -6
right_child=4 2 -4 -5 6 -7 -8
leaf_value=0.33463438295520626 -0.21010031955051486 0.36091107954830792 -0.20728439213048794 -0.27317740499478144 0.41093129287301289 -0.35170729318251781 -0.32580399358271017
leaf_weight=9.7485878169536573 46.993192553520203 226.46719390153885 31.245473772287369 68.99000608921051 3.4994930624961849 110.98392283916473 0.49992758035659779
leaf_count=39 188 906 125 276 14 444 2
internal_value=0.0240734 0.177327 0.291952 -0.197648 -0.294207 -0.309734 0.313187
internal_weight=0 336.451 257.713 78.7386 161.977 157.977 3.99942
internal_count=1994 1346 1031 315 648 632 16
is_linear=0
shrinkage=1


Tree=1
num_leaves=8
num_cat=0
split_feature=6 0 2 1 15 2 2
split_gain=401.35 250.178 153.132 61.9135 25.2651 12.4597 4.48371
threshold=2.588989441930619 4.5000000000000009 9.5746644507569822 1.5000000000000002 0.05131578947368421 9.8546111844511692 9.4006604747744547
decision_type=2 2 2 2 2 2 2
left_child=1 3 -3 -1 5 -2 -6
right_child=4 2 -4 -5 6 -7 -8
leaf_value=0.25634374331353499 -0.21558509480750485 0.28015592839671921 -0.14973575117028323 -0.29330621469540857 0.32478853189110413 -0.33035507577077061 -0.2936977977763322
leaf_weight=9.4820629656314832 75.441419169306755 220.83780974149704 38.930669724941254 58.15820999443531 3.3563047051429744 78.680631771683693 0.48696273565292347
leaf_count=39 309 912 158 237 14 323 2
internal_value=0 0.126449 0.215675 -0.215974 -0.261654 -0.274329 0.241089
internal_weight=0 327.409 259.768 67.6403 157.965 154.122 3.84327
internal_count=1994 1346 1070 276 648 632 16
is_linear=0
shrinkage=0.2


Tree=2
num_leaves=8
num_cat=0
split_feature=6 0 2 1 15 6 2
split_gain=283.474 167.448 141.102 48.8296 12.707 5.93011 3.07743
threshold=2.8918128654970769 3.5000000000000004 8.7712642308241282 1.5000000000000002 0.05131578947368421 3.759615384615385 9.4006604747744547
decision_type=2 2 2 2 2 2 2
left_child=1 3 -3 -1 5 -2 -6
right_child=4 2 -4 -5 6 -7 -8
leaf_value=0.21898882534793729 -0.19475999428374427 0.24986604455420069 -0.091404722371983979 -0.28822815705977334 0.28476457160897328 -0.28504166100779282 -0.25737457941449138
leaf_weight=8.9458994865417463 46.666105389595032 202.58826944231987 63.61491023004055 48.280646100640297 2.1900315582752223 84.700783923268318 0.45493683218955983
leaf_count=39 200 892 268 209 10 374 2
internal_value=0 0.10153 0.168273 -0.208641 -0.24435 -0.253133 0.184761
internal_weight=0 323.43 266.203 57.2265 134.012 131.367 2.64497
internal_count=1994 1408 1160 248 586 574 12
is_linear=0
shrinkage=0.2


Tree=3
num_leaves=8
num_cat=0
split_feature=6 0 2 1 15 2 2
split_gain=211.389 131.297 81.8167 24.8194 21.8372 14.7479 2.74835
threshold=2.3198051948051956 7.5000000000000009 11.068433316255009 1.5000000000000002 0.05131578947368421 8.117878087959463 9.4006604747744547
decision_type=2 2 2 2 2 2 2
left_child=1 3 -3 -1 5 -2 -6
right_child=4 2 -4 -5 6 -7 -8
leaf_value=0.19036535570725549 -0.12067189316193981 0.22794115283593688 -0.20955011600144313 -0.17691031373158755 0.27501691271106976 -0.25093769027477547 -0.23125561160021799
leaf_weight=8.3107692897319776 56.857608020305634 183.78593015670776 18.789495125412941 60.519926592707634 4.4290194958448401 91.682442650198936 0.41498413681983937
leaf_count=39 261 874 79 279 22 438 2
internal_value=0 0.106176 0.187271 -0.132313 -0.18752 -0.2012 0.227682
internal_weight=0 271.406 202.575 68.8307 153.384 148.54 4.844
internal_count=1994 1271 953 318 723 699 24
is_linear=0
shrinkage=0.2


Tree=4
num_leaves=8
num_cat=0
split_feature=6 0 0 2 0 1 1
split_gain=150.505 95.198 49.0689 34.1079 48.4081 27.0967 2.61428
threshold=1.9843750000000002 3.5000000000000004 38.500000000000007 9.8546111844511692 7.5000000000000009 1.5000000000000002 18.743421052631586
decision_type=2 2 2 2 2 2 2
left_child=1 5 -3 4 -2 -1 -5
right_child=3 2 -4 6 -6 -7 -8
leaf_value=0.16681167457514065 -0.22641309479939931 0.20006243631070833 -0.3262672593096404 -0.14642217166869412 0.042262507818809386 -0.25132473702959607 -0.26244954948526578
leaf_weight=7.6666877120733252 44.933608904480934 166.07080087065697 7.3430401980876914 9.703877776861189 66.301896467804909 31.189209967851639 58.348570108413696
leaf_count=39 218 849 34 51 330 161 312
internal_value=0 0.114207 0.17763 -0.134637 -0.0662322 -0.168457 -0.246171
internal_weight=0 212.27 173.414 179.288 111.236 38.8559 68.0524
internal_count=1994 1083 883 911 548 200 363
is_linear=0
shrinkage=0.2


Tree=5
num_leaves=8
num_cat=0
split_feature=15 6 0 0 9 2 2
split_gain=116.716 65.8226 50.6394 16.4358 6.46274 5.34748 0.279435
threshold=0.037749287749287708 2.9344086021505382 8.5000000000000018 41.500000000000007 0.13484848484848483 14.581783662259577 9.5746644507569822
decision_type=2 2 2 2 2 2 2
left_child=1 2 -1 5 -3 -2 -5
right_child=3 4 -4 6 -6 -7 -8
leaf_value=-0.13372961906423858 0.25543191963560391 -0.19685808067335231 0.083420310695319175 -0.58113763230362392 0.12292466159598864 -0.23312878814352561 -0.28718141677088593
leaf_weight=63.84221039712429 66.185003206133842 95.749441668391228 130.999421402812 0.64352671802043804 2.525893658399581 0.85032813251018424 0.64604960381984711
leaf_count=341 375 549 704 3 14 5 3
internal_value=0 -0.0550688 0.0122012 0.235111 -0.188479 0.248916 -0.457553
internal_weight=0 293.117 194.842 68.3249 98.2753 67.0353 1.28958
internal_count=1994 1608 1045 386 563 380 6
is_linear=0
shrinkage=0.2


Tree=6
num_leaves=8
num_cat=0
split_feature=15 2 0 5 0 4 4
split_gain=86.5727 62.5874 92.941 12.4459 12.0954 4.39136 3.93265
threshold=0.037749287749287708 8.8247327383137151 8.5000000000000018 0.57321428571428579 33.500000000000007 17.947990251641066 10.708766335153081
decision_type=2 2 2 2 2 2 2
left_child=1 2 -1 -3 5 -2 -6
right_child=4 3 -4 -5 6 -7 -8
leaf_value=-0.14401351564501297 0.24404035376231567 -0.056315061778516841 0.14604591892638125 -0.21976007212450224 0.20998368987115221 -0.075260341366741146 -0.41879956040827238
leaf_weight=76.990377634763718 56.26431205868721 25.511620566248894 103.53938367962837 71.401220768690109 0.47650840878486533 1.7070227861404408 1.5041349381208418
leaf_count=441 367 150 604 413 3 9 7
internal_value=0 -0.0472722 0.0222835 -0.176889 0.217666 0.234409 -0.261155
internal_weight=0 277.443 180.53 96.9128 59.952 57.9713 1.98064
internal_count=1994 1608 1045 563 386 376 10
is_linear=0
shrinkage=0.2


Tree=7
num_leaves=8
num_cat=0
split_feature=6 0 2 1 7 0 9
split_gain=73.3666 44.0444 47.2111 23.9214 20.1055 29.2799 10.0614
threshold=2.2875939849624065 3.5000000000000004 8.7712642308241282 1.5000000000000002 0.075498575498575457 7.5000000000000009 0.10172413793103446
decision_type=2 2 2 2 2 2 2
left_child=1 3 -3 -1 5 -2 -6
right_child=4 2 -4 -5 6 -7 -8
leaf_value=0.18044158931374599 -0.18403903469459693 0.1847790463012467 -0.057290091962522688 -0.20790297619701037 -0.19416752490188893 0.21649812321835579 0.095261494540263961
leaf_weight=8.0502453446388227 14.583258323371412 117.52542359381914 44.292490974068642 28.986328229308128 79.963970817625523 14.510845258831976 5.0346122011542311
leaf_count=39 96 812 209 200 528 83 27
internal_value=0 0.0734019 0.118461 -0.123094 -0.127756 0.0154167 -0.176861
internal_weight=0 198.854 161.818 37.0366 114.093 29.0941 84.9986
internal_count=1994 1260 1021 239 734 179 555
is_linear=0
shrinkage=0.2


Tree=8
num_leaves=8
num_cat=0
split_feature=6 1 2 1 2 6 5
split_gain=56.5001 38.1241 48.684 22.7859 3.64446 9.3784 0.993636
threshold=3.3416666666666672 13.52777777777778 9.9403773188421134 1.5000000000000002 7.9366416907112614 4.5634920634920642 0.36038961038961043
decision_type=2 2 2 2 2 2 2
left_child=1 3 -3 -1 5 -2 -6
right_child=4 2 -4 -5 6 -7 -8
leaf_value=0.15834087981220346 0.03198371229519225 0.12804741275169071 -0.11836486840712845 -0.23600639880897789 -0.099737794064426677 -0.24297562362236214 -0.22732140579873428
leaf_weight=7.417293280363082 9.5967320874333399 156.76278278976679 40.234947569668293 26.936496011912823 3.0665289089083663 10.079019024968146 33.61615252494812
leaf_count=39 61 1106 217 183 25 71 292
internal_value=0 0.0437099 0.077652 -0.150466 -0.17952 -0.108618 -0.217078
internal_weight=0 231.352 196.998 34.3538 56.3584 19.6758 36.6827
internal_count=1994 1545 1323 222 449 132 317
is_linear=0
shrinkage=0.2


Tree=9
num_leaves=8
num_cat=0
split_feature=15 2 0 0 6 2 4
split_gain=49.7096 29.2025 37.4441 10.3467 8.89387 2.66659 2.49666
threshold=0.037749287749287708 11.59363085944336 11.500000000000002 33.500000000000007 1.1270161290322582 14.581783662259577 10.708766335153081
decision_type=2 2 2 2 2 2 2
left_child=1 2 -1 5 -3 -2 -5
right_child=3 4 -4 6 -6 -7 -8
leaf_value=-0.10239818066916623 0.22064270389639928 0.727331110971563 0.075424686742604621 0.17600859944714389 -0.21839326989022645 -0.19723710271067213 -0.39000331500257879
leaf_weight=88.942931719124317 41.375764019787312 0.35014570504426856 101.19101994484663 0.33729706704616447 34.220293685793877 0.55822825431823631 1.4146818667650221
leaf_count=631 371 2 682 3 293 5 7
internal_value=0 -0.038531 -0.0077117 0.194514 -0.207489 0.214613 -0.273623
internal_weight=0 224.704 190.134 43.686 34.5704 41.934 1.75198
internal_count=1994 1608 1313 386 295 376 10
is_linear=0
shrinkage=0.2


Tree=10
num_leaves=8
num_cat=0
split_feature=6 0 0 2 1 5 1
split_gain=39.28 23.0757 26.371 15.0289 31.8497 9.40899 9.16996
threshold=1.939338235294118 8.5000000000000018 28.500000000000004 8.117878087959463 17.211111111111112 0.60737812911725964 1.5000000000000002
decision_type=2 2 2 2 2 2 2
left_child=1 6 -3 4 -2 -5 -1
right_child=3 2 -4 5 -6 -7 -8
leaf_value=0.15152918199487331 -0.18809925592969423 0.16760705604147536 -0.15580178250699883 -0.031193340489843041 0.10694205770678547 -0.208425541791111 -0.09595652145392615
leaf_weight=7.2128271907567969 24.790949061512947 82.397184692323208 11.419121176004408 17.107619106769562 35.553825281560421 41.233666181564331 33.610679753124714
leaf_count=39 173 720 74 149 239 358 242
internal_value=0 0.0734457 0.128074 -0.084345 -0.0141571 -0.156698 -0.0518534
internal_weight=0 134.64 93.8163 118.686 60.3448 58.3413 40.8235
internal_count=1994 1075 794 919 412 507 281
is_linear=0
shrinkage=0.2


Tree=11
num_leaves=8
num_cat=0
split_feature=15 2 0 5 0 0 4
split_gain=33.1733 21.6626 41.5528 12.0833 6.6085 2.48826 1.83494
threshold=0.037749287749287708 7.9366416907112614 3.5000000000000004 0.6014705882352942 33.500000000000007 3.5000000000000004 10.708766335153081
decision_type=2 2 2 2 2 2 2
left_child=1 2 -1 -3 5 -2 -6
right_child=4 3 -4 -5 6 -7 -8
leaf_value=-0.14594701146352104 -0.24473210525039862 -0.00206752169601314 0.10651531335450588 -0.16273423798893599 0.17474492643468748 0.20583688144382115 -0.31515262466723803
leaf_weight=38.722632810473442 0.4375547468662252 28.321525871753693 79.529297359287739 55.950151335448027 0.33235429227352042 32.763588689267635 1.2905096262693403
leaf_count=339 2 216 593 460 3 374 7
internal_value=0 -0.0314164 0.023733 -0.10889 0.179769 0.199239 -0.206622
internal_weight=0 202.524 118.252 84.2717 34.824 33.2011 1.62286
internal_count=1994 1608 932 676 386 376 10
is_linear=0
shrinkage=0.2


Tree=12
num_leaves=8
num_cat=0
split_feature=6 1 0 5 7 6 3
split_gain=28.4021 20.9946 32.3423 13.7659 2.74857 4.75546 1.25496
threshold=3.759615384615385 16.345238095238098 25.500000000000004 0.65571120689655182 0.16904761904761903 4.7836257309941539 8.1250000000000018
decision_type=2 2 2 2 2 2 2
left_child=1 3 -3 -1 5 -2 -6
right_child=4 2 -4 -5 6 -7 -8
leaf_value=-0.002633215051648854 0.041046757571725934 0.10926390943901231 -0.18236075377682193 -0.21258408094110415 -0.22389045525017115 -0.22151176024860042 0.019032830646456261
leaf_weight=36.994379203766584 5.4743612632155401 118.06788142398 17.392263222485781 18.887983690947294 20.857582353055481 5.3834039159119129 0.80015087872743507
leaf_count=297 50 1048 135 138 251 63 12
internal_value=0 0.0291118 0.0716938 -0.073901 -0.172933 -0.0886346 -0.214432
internal_weight=0 191.343 135.46 55.8824 32.5155 10.8578 21.6577
internal_count=1994 1618 1183 435 376 113 263
is_linear=0
shrinkage=0.2


Tree=13
num_leaves=8
num_cat=0
split_feature=15 2 0 6 0 0 2
split_gain=22.8561 17.2564 20.2994 4.69957 2.88512 1.94175 0.831438
threshold=0.05131578947368421 11.59363085944336 11.500000000000002 1.1270161290322582 33.500000000000007 3.5000000000000004 7.409751709243463
decision_type=2 2 2 2 2 2 2
left_child=1 2 -1 -3 5 -2 -6
right_child=4 3 -4 -5 6 -7 -8
leaf_value=-0.077060009239603905 -0.21861676085687023 0.40016879695517704 0.062560997871070598 -0.1960910284586159 0.1380453486316349 0.20185307858831678 -0.27694192482605245
leaf_weight=76.633385509252548 0.38600869476795807 0.48509905114770191 91.122645195573568 23.401265721768141 0.19521164149045844 23.310309302061796 0.65281707048416138
leaf_count=631 2 3 733 297 2 323 3
internal_value=0 -0.0238915 -0.00116427 -0.182753 0.180905 0.194137 -0.167911
internal_weight=0 191.642 167.756 23.8864 24.5443 23.6963 0.848029
internal_count=1994 1664 1364 300 330 325 5
is_linear=0
shrinkage=0.2


Tree=14
num_leaves=8
num_cat=0
split_feature=6 0 0 1 7 0 9
split_gain=19.9014 13.4668 15.4806 10.4893 9.05194 18.9339 11.3293
threshold=1.9309523809523812 12.500000000000002 29.500000000000004 17.78711484593838 0.062895569620253167 3.5000000000000004 0.10172413793103446
decision_type=2 2 2 2 2 2 2
left_child=1 3 -3 -1 5 -2 -6
right_child=4 2 -4 -5 6 -7 -8
leaf_value=-0.1058362087914716 -0.20389380949887165 0.16681208605400255 -0.12829848955235176 0.078285154356928663 -0.13094589980084997 0.13703212304381249 0.14285328669298225
leaf_weight=25.724862057715654 9.5545356310904044 49.633736561983824 8.2207703255116922 23.722688723355532 62.828077908605337 20.170838929712772 6.6128021515905848
leaf_count=211 104 586 61 210 629 151 42
internal_value=0 0.0591498 0.124631 -0.0173113 -0.0651025 0.0269551 -0.104644
internal_weight=0 107.302 57.8545 49.4476 99.1663 29.7254 69.4409
internal_count=1994 1068 647 421 926 255 671
is_linear=0
shrinkage=0.2


Tree=15
num_leaves=8
num_cat=0
split_feature=2 0 1 1 7 9 2
split_gain=16.6792 25.3553 29.5146 19.794 11.1336 11.4899 5.62703
threshold=7.9366416907112614 3.5000000000000004 12.947368421052634 1.5000000000000002 0.075498575498575457 0.044466403162055308 11.349185477814112
decision_type=2 2 2 2 2 2 2
left_child=1 3 -3 -1 6 -6 -2
right_child=4 2 -4 -5 5 -7 -8
leaf_value=0.17348247404575867 0.10800078133121958 -0.29152412049113263 0.14161086558880343 -0.18965903479731319 -0.16536729526110194 0.03352875310187272 -0.16600113015245233
leaf_weight=7.8576375246047965 16.450043212622408 6.7928151860833159 76.984190504997969 24.693553473800421 44.523548660799861 15.588297657668589 3.5939012058079234
leaf_count=39 124 39 855 302 487 110 38
internal_value=0 0.0479732 0.106219 -0.101561 -0.0705628 -0.113638 0.0580835
internal_weight=0 116.328 83.777 32.5512 80.1558 60.1118 20.0439
internal_count=1994 1235 894 341 759 597 162
is_linear=0
shrinkage=0.2


Tree=16
num_leaves=8
num_cat=0
split_feature=6 15 2 7 6 3 0
split_gain=14.2992 10.8737 9.36986 2.69103 3.62159 1.64102 1.42653
threshold=3.759615384615385 0.04880952380952381 6.8734097591145176 0.16904761904761903 4.7836257309941539 8.1250000000000018 33.500000000000007
decision_type=2 2 2 2 2 2 2
left_child=1 2 -1 4 -2 -5 -3
right_child=3 6 -4 5 -6 -7 -8
leaf_value=0.056490002875838885 0.047798889166633052 0.17628381400454901 -0.046354057569212792 -0.2162434366533672 -0.213286415246707 0.11205377853899903 -0.069938418223808599
leaf_weight=66.284929409623146 5.1063479408621806 17.781991083174947 76.008262947201729 13.657284939661618 3.5228433851152658 0.56705605983734209 0.90816905349492927
leaf_count=676 50 335 601 251 63 12 6
internal_value=0 0.0204189 0.00148691 -0.148472 -0.058251 -0.202109 0.163631
internal_weight=0 160.983 142.293 22.8535 8.62919 14.2243 18.6902
internal_count=1994 1618 1277 376 113 263 341
is_linear=0
shrinkage=0.2


Tree=17
num_leaves=6
num_cat=0
split_feature=2 1 4 0 6
split_gain=12.8985 13.1814 14.6548 14.1455 3.26711
threshold=12.908111047031321 17.612040133779271 19.128407256096029 3.5000000000000004 1.1270161290322582
decision_type=2 2 2 2 2
left_child=1 2 -1 -3 -2
right_child=4 3 -4 -5 -6
leaf_value=-0.061506641089297126 0.48311684160194085 -0.16396572731403489 0.89922475027874749 0.087005149278536878 -0.22272616697600151
leaf_weight=69.449368150904775 0.21439982950687309 9.9442554749548417 0.58993653208017249 87.165737411007285 11.137035513296722
leaf_count=648 1 111 5 1015 214
internal_value=0 0.0133988 -0.0526361 0.0611312 -0.206457
internal_weight=0 167.149 70.0393 97.11 11.3514
internal_count=1994 1779 653 1126 215
is_linear=0
shrinkage=0.2


Tree=18
num_leaves=8
num_cat=0
split_feature=7 0 9 3 3 2 1
split_gain=10.9481 13.5627 11.9588 14.8208 14.0258 11.8065 9.78556
threshold=0.1188235294117647 7.5000000000000009 0.042572463768115909 0.27429467084639497 -0.50757575757575746 9.4934164902525708 1.5000000000000002
decision_type=2 2 2 2 2 2 2
left_child=1 6 3 -2 -4 -3 -1
right_child=2 5 4 -5 -6 -7 -8
leaf_value=0.15292793571593782 -0.14615383925871073 0.16040005557456749 0.20207136302971707 0.098144276528777774 -0.11528810986614842 -0.057780993555156007 -0.10826326212361062
leaf_weight=7.2550189197063437 49.900783192366362 42.280679438263178 13.463132822886111 12.310352738946674 9.3932822532951814 12.850725412368773 26.405824949964881
leaf_count=39 610 607 122 130 73 108 305
internal_value=0 0.0482583 -0.0521101 -0.0976115 0.0712429 0.109356 -0.051528
internal_weight=0 88.7922 85.0676 62.2111 22.8564 55.1314 33.6608
internal_count=1994 1059 935 740 195 715 344
is_linear=0
shrinkage=0.2


Tree=19
num_leaves=6
num_cat=0
split_feature=2 1 0 9 6
split_gain=9.52742 8.88782 13.245 11.6193 2.27312
threshold=12.908111047031321 17.612040133779271 25.500000000000004 0.057189542483660101 1.1270161290322582
decision_type=2 2 2 2 2
left_child=1 3 -3 -1 -2
right_child=4 2 -4 -5 -6
leaf_value=-0.087704145968936276 0.33848230240746768 0.07874477813563352 -0.17100925250237864 0.11558944551578819 -0.21764391123867632
leaf_weight=52.423997338861227 0.24719373881816764 80.21364825963974 9.4304554052650911 14.232596412301062 8.7887621680274588
leaf_count=527 1 1033 93 126 214
internal_value=0 0.0111149 0.0522788 -0.0440926 -0.199551
internal_weight=0 156.301 89.6441 66.6566 9.03596
internal_count=1994 1779 1126 653 215
is_linear=0
shrinkage=0.2


Tree=20
num_leaves=8
num_cat=0
split_feature=6 2 0 5 3 6 11
split_gain=9.10096 8.50884 15.1668 11.75 1.71045 4.63706 0.975073
threshold=4.5400641025641031 6.8734097591145176 3.5000000000000004 0.63060428849902539 8.1250000000000018 6.9615384615384626 0.21583850931677012
decision_type=2 2 2 2 2 2 2
left_child=1 2 -1 -3 6 -6 -2
right_child=4 3 -4 -5 5 -7 -8
leaf_value=-0.068972118745584093 -0.21607859642378965 0.070907099256332248 0.13027926062339817 -0.087132585314419753 1.1173085935007934 -0.16238629636088164 0
leaf_weight=22.78000421449542 9.2660916829481668 28.99782489053905 45.91603228636086 53.196076198481023 0.10100043937563974 0.38480097614228725 0.90673527680337507
leaf_count=293 228 254 625 560 3 11 20
internal_value=0 0.0120844 0.0640588 -0.0312457 -0.178718 0.164442 -0.196808
internal_weight=0 150.89 68.696 82.1939 10.6586 0.485801 10.1728
internal_count=1994 1732 918 814 262 14 248
is_linear=0
shrinkage=0.2


Tree=21
num_leaves=8
num_cat=0
split_feature=6 0 0 1 7 4 9
split_gain=8.17454 7.58089 9.1019 6.43287 5.86455 5.19758 4.96794
threshold=2.0217391304347831 12.500000000000002 43.500000000000007 1.5000000000000002 0.12060606060606062 5.7016510477832165 0.15587044534412953
decision_type=2 2 2 2 2 2 2
left_child=1 3 -3 -1 5 -2 -6
right_child=4 2 -4 -5 6 -7 -8
leaf_value=0.15338445073029619 -0.17492507061348669 0.11764364013031195 -0.3142413233230702 -0.051028804874650197 -0.11602432487778902 0.066220544478172647 0.1743385710440894
leaf_weight=7.2687693983316413 4.2740525137633112 42.316755762323737 1.9874590635299672 38.451062332838774 39.736300001852214 20.340100451372564 2.435445822775363
leaf_count=39 76 663 21 446 543 191 15
internal_value=0 0.0387664 0.0977117 -0.0181796 -0.0535492 0.0236723 -0.0988322
internal_weight=0 90.024 44.3042 45.7198 66.7859 24.6142 42.1717
internal_count=1994 1169 684 485 825 267 558
is_linear=0
shrinkage=0.2


Tree=22
num_leaves=8
num_cat=0
split_feature=15 2 1 5 2 15 0
split_gain=7.7564 5.77482 10.4983 9.2637 1.61547 1.47328 1.14492
threshold=0.04880952380952381 6.8734097591145176 16.658333333333335 0.63060428849902539 9.4006604747744547 0.15587044534412953 3.5000000000000004
decision_type=2 2 2 2 2 2 2
left_child=1 2 -1 -3 6 -6 -2
right_child=4 3 -4 -5 5 -7 -8
leaf_value=-0.059078932797171115 -0.175239744408548 0.036289759258167541 0.1100282690671298 -0.10458409597884502 -0.050674461921052218 0.22671895480965706 0.19711547850367508
leaf_weight=27.003812700510025 0.27656368911266227 30.227545628324151 31.967112176120281 48.360333112068474 2.6304180230945344 1.0095602497458456 9.6867604320868832
leaf_count=342 2 318 422 567 22 8 313
internal_value=0 -0.0147498 0.0324373 -0.0502835 0.143294 0.0255811 0.184957
internal_weight=0 137.559 58.9709 78.5879 13.6033 3.63998 9.96332
internal_count=1994 1649 764 885 345 30 315
is_linear=0
shrinkage=0.2


Tree=23
num_leaves=6
num_cat=0
split_feature=0 0 6 1 2
split_gain=6.52396 7.75265 7.84928 6.23987 1.14435
threshold=43.500000000000007 13.500000000000002 1.6273148148148151 1.5000000000000002 7.409751709243463
decision_type=2 2 2 2 2
left_child=1 3 -3 -1 -2
right_child=4 2 -4 -5 -6
leaf_value=0.14186568707982791 -0.61633926369884318 0.14559197414978062 0.0043671632219101598 -0.056368802900096694 -0.23161564648951108
leaf_weight=6.9197660833597174 0.3973014354705805 24.324918874539435 44.894257553853095 69.377521059475839 2.412079120054841
leaf_count=39 2 465 502 948 38
internal_value=0 0.0057039 0.0542098 -0.0381779 -0.299346
internal_weight=0 145.516 69.2192 76.2973 2.80938
internal_count=1994 1954 967 987 40
is_linear=0
shrinkage=0.2


Tree=24
num_leaves=6
num_cat=0
split_feature=2 4 6 5 6
split_gain=6.40573 6.20571 6.35425 5.84678 1.80035
threshold=12.908111047031321 18.893980470630911 4.7836257309941539 0.57793522267206487 1.1270161290322582
decision_type=2 2 2 2 2
left_child=1 2 -1 -3 -2
right_child=4 3 -4 -5 -6
leaf_value=0.012938079390952394 0.28001397859522376 0.64091706037255514 -0.20991354291995987 -0.08041059838014103 -0.21517931634919149
leaf_weight=131.08774594124407 0.24901683628559013 1.134930932894348 5.273943565785884 0.67143848259001959 6.280568459071219
leaf_count=1618 1 9 139 13 214
internal_value=0 0.00919224 0.00417195 0.372464 -0.19279
internal_weight=0 138.168 136.362 1.80637 6.52959
internal_count=1994 1779 1757 22 215
is_linear=0
shrinkage=0.2


Tree=25
num_leaves=8
num_cat=0
split_feature=15 2 1 0 0 2 2
split_gain=5.5382 4.75239 6.70476 3.50123 1.54537 1.00594 0.332695
threshold=0.05131578947368421 10.667613552308099 17.612040133779271 5.5000000000000009 33.500000000000007 11.758115730882299 7.409751709243463
decision_type=2 2 2 2 2 2 2
left_child=1 2 -1 -3 5 -2 -6
right_child=4 3 -4 -5 6 -7 -8
leaf_value=-0.046388345896328516 0.17363803641343334 0.15212374531285544 0.051028714963535074 -0.13242283744115763 0.079838457781460231 -0.059264690874962514 -0.2264241926306173
leaf_weight=54.65223025623709 9.4691633982583827 1.849000150803479 58.3783656982705 17.201585843227804 0.10593573376536447 0.71335954591631967 0.50076606869697571
leaf_count=595 320 50 688 331 2 5 3
internal_value=0 -0.0116675 0.00383778 -0.103956 0.137039 0.156134 -0.155713
internal_weight=0 132.081 113.031 19.0506 10.7892 10.1825 0.606702
internal_count=1994 1664 1283 381 330 325 5
is_linear=0
shrinkage=0.2


Tree=26
num_leaves=7
num_cat=0
split_feature=6 0 0 3 6 4
split_gain=4.82573 4.90897 4.72091 1.38861 0.976165 0.26615
threshold=4.7836257309941539 43.500000000000007 13.500000000000002 8.1250000000000018 6.9615384615384626 10.749250255972305
decision_type=2 2 2 2 2 2
left_child=1 2 -1 -2 -5 -3
right_child=3 5 -4 4 -6 -7
leaf_value=-0.0235510117026787 -0.2067006120558364 -0.40102748724110704 0.052125658966228519 0.35407978461006417 -0.13683183926186696 -0.20633993931170044
leaf_weight=68.487316289450973 5.4133350057527414 0.70792061090469305 63.334175166208297 0.27773128077387799 0.24446890689432621 1.6251214798539875
leaf_count=797 227 3 917 3 11 36
internal_value=0 0.00752752 0.0127383 -0.176012 0.114908 -0.276785
internal_weight=0 134.155 131.821 5.93554 0.5222 2.33304
internal_count=1994 1753 1714 241 14 39
is_linear=0
shrinkage=0.2


Tree=27
num_leaves=8
num_cat=0
split_feature=7 9 3 3 0 4 1
split_gain=5.0396 5.50838 9.87534 9.35421 5.45544 6.80162 5.70925
threshold=0.1188235294117647 0.039230769230769208 0.27429467084639497 -0.041241496598639397 7.5000000000000009 9.2210583222688456 1.5000000000000002
decision_type=2 2 2 2 2 2 2
left_child=4 2 -2 -3 6 -6 -1
right_child=1 3 -4 -5 5 -7 -8
leaf_value=0.13138758425685917 -0.11995158074799842 0.12261947712622412 0.096993850475938365 -0.21045104043805735 0.19121010476479949 0.021292233976827276 -0.080641244151296809
leaf_weight=6.6021852940320995 39.370703130960464 15.576158192940058 10.571845273021607 4.238258257508277 15.076665929518638 25.448081296402961 21.222272530663759
leaf_count=39 606 166 130 33 367 348 305
internal_value=0 -0.0383159 -0.0737774 0.0505226 0.0380688 0.084912 -0.0298269
internal_weight=0 69.757 49.9425 19.8144 68.3492 40.5247 27.8245
internal_count=1994 935 736 199 1059 715 344
is_linear=0
shrinkage=0.2


Tree=28
num_leaves=6
num_cat=0
split_feature=2 1 6 4 6
split_gain=4.43728 4.02771 6.86722 5.51005 1.23375
threshold=12.908111047031321 18.177115987460819 1.8153409090909092 15.171288588452486 1.1270161290322582
decision_type=2 2 2 2 2
left_child=1 3 -3 -1 -2
right_child=4 2 -4 -5 -6
leaf_value=-0.048478278786595989 0.21487691019666275 0.11283145764686296 -0.015431773388269249 0.16823767685808566 -0.21092986406195188
leaf_weight=55.910255377646536 0.22666618227958579 29.583233728539199 37.965297919232398 5.0581846674904218 4.6218970047775656
leaf_count=708 1 555 484 32 214
internal_value=0 0.00694929 0.0406358 -0.0302116 -0.186992
internal_weight=0 128.517 67.5485 60.9684 4.84856
internal_count=1994 1779 1039 740 215
is_linear=0
shrinkage=0.2


Tree=29
num_leaves=8
num_cat=0
split_feature=2 5 1 1 5 1 0
split_gain=4.30031 9.21052 7.36581 7.24376 5.69975 10.902 5.07219
threshold=6.8734097591145176 0.55777777777777793 10.986842105263159 1.5000000000000002 0.63060428849902539 17.612040133779271 13.500000000000002
decision_type=2 2 2 2 2 2 2
left_child=1 3 -3 -1 6 -6 -2
right_child=4 2 -4 -5 5 -7 -8
leaf_value=0.12097419430634354 -0.047558769600789308 -0.28621804880286672 0.12955514532812587 -0.13199430732114986 -0.2204932770639686 -0.010728868443146022 0.12036608099222755
leaf_weight=6.2911638915538814 13.799393957015129 1.7397287264466275 32.077147578354925 15.593558088876305 14.143222630955277 33.23470761696808 14.815853256033732
leaf_count=39 176 23 622 291 114 556 173
internal_value=0 0.0420121 0.107479 -0.058708 -0.031113 -0.0737249 0.0390956
internal_weight=0 55.7016 33.8169 21.8847 75.9932 47.3779 28.6152
internal_count=1994 975 645 330 1019 670 349
is_linear=0
shrinkage=0.2


Tree=30
num_leaves=7
num_cat=0
split_feature=2 6 3 6 1 3
split_gain=4.12791 5.37822 7.23804 4.83422 4.68378 2.12616
threshold=9.7448743196070247 1.3603896103896107 -0.50757575757575746 4.5400641025641031 16.418831168831172 0.31534090909090912
decision_type=2 2 2 2 2 2
left_child=3 2 -2 4 -1 -3
right_child=1 5 -4 -5 -6 -7
leaf_value=-0.031023768229632032 0.28597028972100408 -0.15116976148511052 -0.13694232118294838 -0.21095253542136835 0.060150140470688 0
leaf_weight=35.227734982967377 3.4542837031185627 16.47899625077844 2.9313901159912374 3.4834297811612478 61.89764841645956 4.6860905596986404
leaf_count=434 25 347 29 106 976 77
internal_value=0 -0.0687657 0.0907197 0.0185411 0.0269792 -0.117456
internal_weight=0 27.5508 6.38567 100.609 97.1254 21.1651
internal_count=1994 478 54 1516 1410 424
is_linear=0
shrinkage=0.2


Tree=31
num_leaves=8
num_cat=0
split_feature=11 0 2 1 15 0 2
split_gain=3.6693 3.82281 3.30041 2.99958 2.23535 0.944436 0.102248
threshold=0.2264957264957265 43.500000000000007 12.908111047031321 19.488095238095241 0.059411764705882351 4.5000000000000009 7.409751709243463
decision_type=2 2 2 2 2 2 2
left_child=1 2 -1 5 -5 -2 -3
right_child=3 6 -4 4 -6 -7 -8
leaf_value=0.016013562663297159 -0.18951989446685233 -0.39430770919226987 -0.17590185228004684 -0.43334287437947627 0.14885830220162682 0.14073351239336609 -0.21164054078995187
leaf_weight=116.09393969830126 0.482164986431598 0.4598856121301641 3.642797111766412 1.7899468340910973 0.25457600038498629 0.91373883094638586 1.4947903319261966
leaf_count=1703 6 2 196 30 7 12 38
internal_value=0 0.00535821 0.0100204 -0.202616 -0.354252 0.0171343 -0.268369
internal_weight=0 121.691 119.737 3.44043 2.04452 1.3959 1.95468
internal_count=1994 1939 1899 55 37 18 40
is_linear=0
shrinkage=0.2


Tree=32
num_leaves=8
num_cat=0
split_feature=9 3 3 7 7 4 1
split_gain=3.43492 11.4266 7.73406 6.14841 4.1474 2.92312 2.65862
threshold=0.057189542483660101 0.31534090909090912 0.30217391304347829 0.075498575498575457 0.55777777777777793 1.8498365855987977 26.665789473684214
decision_type=2 2 2 2 2 2 2
left_child=2 4 3 -1 -2 -4 -3
right_child=1 6 5 -5 -6 -7 -8
leaf_value=0.01717777490935778 0.16353993188421767 -0.21078984930169048 -0.19906288149214035 -0.093080290932155807 -0.18954613714571825 0.11183049000310195 -1.0711394367448555
leaf_weight=36.334929337259382 16.791666522156454 3.3904250673949714 1.2225102214142705 45.189658483490348 1.3778892634436477 19.561264825519174 0.11210306175053109
leaf_count=630 225 29 26 763 12 307 2
internal_value=0 0.0715766 -0.0159838 -0.0438361 0.135768 0.0926298 -0.25583
internal_weight=0 21.6721 102.308 81.5246 18.1696 20.7838 3.50253
internal_count=1994 268 1726 1393 237 333 31
is_linear=0
shrinkage=0.2


Tree=33
num_leaves=4
num_cat=0
split_feature=0 0 15
split_gain=2.94838 2.87422 2.95805
threshold=1.0000000180025095e-35 43.500000000000007 0.04880952380952381
decision_type=2 2 2
left_child=-1 2 -2
right_child=1 -3 -4
leaf_value=-0.76868594046835692 -0.0039612821341005744 -0.25111682653408035 0.11951438233328181
leaf_weight=0.14954669773578544 112.03268986637704 1.7354155434295524 8.2812642022035998
leaf_count=1 1610 40 343
internal_value=0 0.000682779 0.00450064
internal_weight=0 122.049 120.314
internal_count=1994 1993 1953
is_linear=0
shrinkage=0.2


Tree=34
num_leaves=8
num_cat=0
split_feature=1 5 6 14 3 15 2
split_gain=2.80182 4.4984 4.39297 4.37773 1.57241 0.942709 0.586456
threshold=28.802389705882359 0.93541666666666667 1.1455026455026456 0.080128205128205107 1.1937500000000003 0.23833671399594322 14.285247180080903
decision_type=2 2 2 2 2 2 2
left_child=1 3 -3 -1 5 -2 -6
right_child=4 2 -4 -5 6 -7 -8
leaf_value=-0.0028965300199630469 -0.24348398489163925 -0.082186238468790959 0.26337718308344299 -1.056867754160693 0.22098038336718556 0.14856974761753999 -0.12961896271566026
leaf_weight=110.18623795651365 3.2699654538882892 2.0131295588798812 4.8906157733872533 0.10794152365997334 0.48411170579493035 0.19989351555705059 0.21830014931038022
leaf_count=1747 94 42 86 4 4 2 15
internal_value=0 0.00524921 0.161307 -0.00449707 -0.160572 -0.216268 0.0973555
internal_weight=0 117.198 6.90375 110.294 4.17227 3.46986 0.702412
internal_count=1994 1879 128 1751 115 96 19
is_linear=0
shrinkage=0.2


Tree=35
num_leaves=8
num_cat=0
split_feature=9 3 4 3 7 4 9
split_gain=2.64965 7.1994 3.64845 3.31361 3.84732 1.94927 1.88638
threshold=0.10620300751879695 0.38895068594734894 15.958723408288973 0.34523809523809529 0.075498575498575457 1.8498365855987977 0.13714733542319749
decision_type=2 2 2 2 2 2 2
left_child=3 2 -2 4 -1 -5 -3
right_child=1 6 -4 5 -6 -7 -8
leaf_value=0.020934599270504457 0.20670102253608502 0.1493848357873421 -0.14972005838199162 -0.19390468295499855 -0.063152023242033437 0.078616483730963499 -0.2938588105474958
leaf_weight=37.744068768108264 8.8792181205935758 0.40441673528402988 1.2484927373006929 1.0460571967996681 50.872283085016534 18.690742522710934 2.0616554245352745
leaf_count=672 119 7 12 26 848 299 11
internal_value=0 0.0860994 0.161261 -0.010644 -0.0272329 0.0632139 -0.215672
internal_weight=0 12.5938 10.1277 108.353 88.6164 19.7368 2.46607
internal_count=1994 149 131 1845 1520 325 18
is_linear=0
shrinkage=0.2


Tree=36
num_leaves=8
num_cat=0
split_feature=11 4 4 6 1 15 1
split_gain=2.47081 2.60747 6.50124 4.27782 1.87951 1.44214 0.70451
threshold=0.2264957264957265 9.6293543722627692 5.8697565649361794 1.3603896103896107 19.488095238095241 0.059411764705882351 18.348913043478266
decision_type=2 2 2 2 2 2 2
left_child=1 2 -1 -3 6 -6 -2
right_child=4 3 -4 -5 5 -7 -8
leaf_value=-0.042789565265532278 -0.096777018458327285 0.077429498142792264 0.096241301591587419 -0.05123924890811038 -0.36027434352327986 0.13580940531451 0.19867014949027395
leaf_weight=23.521761830896139 0.78962148539721899 13.0376636586152 31.106667351443321 48.495644423761405 1.6800863582175223 0.21280397986993183 0.46731111779808998
leaf_count=435 13 203 612 689 30 7 5
internal_value=0 0.00435293 0.0362105 -0.0237738 -0.17379 -0.297296 0.00881317
internal_weight=0 116.162 54.6284 61.5333 3.14982 1.89289 1.25693
internal_count=1994 1939 1047 892 55 37 18
is_linear=0
shrinkage=0.2


Tree=37
num_leaves=5
num_cat=0
split_feature=0 0 1 5
split_gain=2.3516 2.80429 5.00953 3.42969
threshold=43.500000000000007 13.500000000000002 11.845238095238097 0.8973684210526317
decision_type=2 2 2 2
left_child=1 3 -3 -1
right_child=-2 2 -4 -5
leaf_value=-0.0456813463926104 -0.24537804005453998 -0.27430097450815633 0.048446378337880097 0.087292411672220363
leaf_weight=52.664663682226092 1.4953813599422563 1.9407827164977778 51.902480549179018 9.0096525044646096
leaf_count=825 40 15 952 162
internal_value=0 0.00297313 0.0363837 -0.026039
internal_weight=0 115.518 53.8433 61.6743
internal_count=1994 1954 967 987
is_linear=0
shrinkage=0.2


Tree=38
num_leaves=6
num_cat=0
split_feature=1 5 2 0 0
split_gain=2.31288 7.21733 4.22361 2.30841 0.119173
threshold=1.5000000000000002 0.15476190476190474 6.2213522257744165 1.0000000180025095e-35 8.5000000000000018
decision_type=2 2 2 2 2
left_child=3 4 -3 -1 -2
right_child=1 2 -4 -5 -6
leaf_value=-0.44275360891291787 -0.21133193063752176 0.075970194747149514 -0.017338435722107269 0.1445779469990226 0
leaf_weight=0.2248748391866674 6.5641728828195474 25.799949305364862 77.555833885329776 5.9521730840206146 0.10458973050117482
leaf_count=1 189 549 1213 38 4
internal_value=0 -0.0070781 0.00588228 0.118207 -0.207982
internal_weight=0 110.025 103.356 6.17705 6.66876
internal_count=1994 1955 1762 39 193
is_linear=0
shrinkage=0.2


Tree=39
num_leaves=7
num_cat=0
split_feature=6 1 1 11 1 4
split_gain=2.2208 2.84928 2.68798 2.56008 2.37077 3.30862
threshold=3.4058823529411768 26.665789473684214 26.937500000000004 0.084523809523809515 17.211111111111112 10.184196855309885
decision_type=2 2 2 2 2 2
left_child=1 3 -3 -1 -2 -6
right_child=4 2 -4 -5 5 -7
leaf_value=0.031668827768829004 -0.21906270654360852 -0.54030366121889417 -0.078946056314349283 -0.061178379811551442 0.104512747071764 -0.11925058076170383
leaf_weight=81.193443604395725 3.4027994363568714 0.53605254925787349 4.686739893630147 13.808220711303873 4.4020359901478496 6.3941221481654793
leaf_count=1275 98 4 73 205 80 259
internal_value=0 0.0100172 -0.132869 0.0180435 -0.0743599 -0.0270299
internal_weight=0 100.224 5.22279 95.0017 14.199 10.7962
internal_count=1994 1557 77 1480 437 339
is_linear=0
shrinkage=0.2


Tree=40
num_leaves=6
num_cat=0
split_feature=2 4 9 5 6
split_gain=2.01173 3.82431 2.80768 2.24356 1.07875
threshold=12.908111047031321 18.893980470630911 0.057189542483660101 0.57793522267206487 1.1270161290322582
decision_type=2 2 2 2 2
left_child=1 2 -1 -3 -2
right_child=4 3 -4 -5 -6
leaf_value=-0.015598315227436613 0.20581317624319803 0.41618589991420613 0.070712055587326905 -0.062781810508400523 -0.2037726636327688
leaf_weight=90.576253237668425 0.22056263685226385 1.346865297295152 18.029582895571366 0.47970959125086654 2.6165945003740489
leaf_count=1508 1 9 249 13 214
internal_value=0 0.00364698 -0.00115201 0.286746 -0.165455
internal_weight=0 110.432 108.606 1.82657 2.83716
internal_count=1994 1779 1757 22 215
is_linear=0
shrinkage=0.2


Tree=41
num_leaves=7
num_cat=0
split_feature=15 14 2 0 0 1
split_gain=1.87023 2.60358 2.12939 1.06097 1.21107 0.221334
threshold=0.08514492753623186 0.080128205128205107 9.7448743196070247 33.500000000000007 3.5000000000000004 18.804761904761907
decision_type=2 2 2 2 2 2
left_child=1 2 -1 4 -2 -5
right_child=3 -3 -4 5 -6 -7
leaf_value=0.0093409534499920097 -0.20710442200717663 -0.69022416548131127 -0.061110533226724488 0.038318862050061797 0.17967959726946467 -0.23695469012267589
leaf_weight=86.277093067066744 0.28630413860082526 0.17223375011235376 21.339870101364795 0.070291236042976268 4.1293206419795752 0.32535189390182495
leaf_count=1302 2 2 464 2 220 2
internal_value=0 -0.00606607 -0.00455821 0.120741 0.150324 -0.166797
internal_weight=0 107.789 107.617 4.81127 4.41562 0.395643
internal_count=1994 1768 1766 226 222 4
is_linear=0
shrinkage=0.2


Tree=42
num_leaves=5
num_cat=0
split_feature=0 0 5 1
split_gain=1.81633 2.02451 4.02957 2.49351
threshold=43.500000000000007 13.500000000000002 0.6014705882352942 19.633971291866036
decision_type=2 2 2 2
left_child=1 3 -3 -1
right_child=-2 2 -4 -5
leaf_value=-0.058025195269368612 -0.23679369920695695 0.12913858155563826 -0.00050458426011164813 0.024977706537058497
leaf_weight=34.143643875839189 1.2360489239217702 12.64916230086237 38.550256778369658 24.868936477869283
leaf_count=518 40 189 778 469
internal_value=0 0.00225644 0.0314243 -0.0228855
internal_weight=0 110.212 51.1994 59.0126
internal_count=1994 1954 967 987
is_linear=0
shrinkage=0.2


Tree=43
num_leaves=8
num_cat=0
split_feature=6 6 1 1 1 7 0
split_gain=1.8797 1.85427 1.79578 2.16845 1.63146 0.417364 0.0713742
threshold=3.759615384615385 3.7236363636363641 21.97727272727273 22.522727272727277 1.5000000000000002 0.14087301587301587 7.5000000000000009
decision_type=2 2 2 2 2 2 2
left_child=1 4 5 -4 -1 -2 -3
right_child=2 6 3 -5 -6 -7 -8
leaf_value=0.10776825164348491 -0.083820984589845673 0.52189774796144717 0.30411930726750924 -0.062656916572051691 -0.00097987963558748186 -0.21239716443800216 0.18074026377383981
leaf_weight=5.7958318442106238 2.1196878836490196 0.20433689653873344 0.78001473541371558 2.7853832389228046 95.687261080136523 3.097934604040347 0.26638642628677189
leaf_count=39 47 1 19 177 1575 133 3
internal_value=0 0.00721645 -0.0889515 0.0179142 0.00518239 -0.163352 0.383931
internal_weight=0 101.954 8.78302 3.5654 101.483 5.21762 0.470723
internal_count=1994 1618 376 196 1614 180 4
is_linear=0
shrinkage=0.2


Tree=44
num_leaves=8
num_cat=0
split_feature=1 0 2 2 7 5 1
split_gain=1.68715 5.83662 5.34024 7.9376 4.86549 2.85636 0.184026
threshold=13.013888888888891 1.5000000000000002 2.5538404810405302 6.2213522257744165 0.97058823529411764 0.55363984674329514 24.975000000000005
decision_type=2 2 2 2 2 2 2
left_child=1 4 6 -4 -1 -3 -2
right_child=2 5 3 -5 -6 -7 -8
leaf_value=0.017150920783520988 -0.20899939450672034 -0.037142972696580435 0.14112732158237237 -0.0079568134606750537 0.70329641055262349 -0.29598510328946509 -0.11756992338886174
leaf_weight=7.2852414455264789 3.426999991759657 3.0126301841810346 17.795191272161901 71.09221130842343 0.39117480441927899 4.250548932235688 2.492831336800009
leaf_count=129 78 45 432 1191 27 46 46
internal_value=0 -0.0627482 0.00945344 0.0218398 0.0577348 -0.190978 -0.173481
internal_weight=0 14.9396 94.8072 88.8874 7.67642 7.26318 5.91983
internal_count=1994 247 1747 1623 156 91 124
is_linear=0
shrinkage=0.2


Tree=45
num_leaves=8
num_cat=0
split_feature=7 1 9 0 5 1 5
split_gain=1.65466 2.38789 4.61452 3.85125 2.2768 11.5351 3.26018
threshold=0.25320512820512825 18.177115987460819 0.020484949832775903 3.5000000000000004 0.90550595238095244 12.947368421052634 0.54772727272727284
decision_type=2 2 2 2 2 2 2
left_child=1 2 -1 -3 6 -6 -2
right_child=4 3 -4 -5 5 -7 -8
leaf_value=-0.060167801261092495 0.031043736833593839 -0.12756312373933718 0.11614355353328187 0.068456794771190238 1.4692762632852454 -0.0015643776313063727 -0.1077629440739804
leaf_weight=28.205958974547684 10.739567532902589 4.4135168977081767 7.4451683862134805 37.336487064370885 0.18847361020743791 1.8922064465587025 17.758764902304392
leaf_count=418 190 77 135 794 5 47 328
internal_value=0 0.0148532 -0.0229568 0.0473679 -0.0400545 0.158328 -0.0551407
internal_weight=0 77.4011 35.6511 41.75 30.579 2.08068 28.4983
internal_count=1994 1424 553 871 570 52 518
is_linear=0
shrinkage=0.2


Tree=46
num_leaves=5
num_cat=0
split_feature=2 4 6 5
split_gain=1.50506 1.57581 2.11641 1.99229
threshold=14.062944615962129 18.893980470630911 4.7836257309941539 0.57793522267206487
decision_type=2 2 2 2
left_child=1 2 -1 -3
right_child=-2 3 -4 -5
leaf_value=0.0025077506725869683 -0.197436253289382 0.29462414472155496 -0.1982736691509176 -0.10747732097028335
leaf_weight=101.0410022410797 1.4865818077232678 1.5030670646228821 2.0936820054776026 0.64637483161641274
leaf_count=1636 167 15 146 30
internal_value=0 0.00191013 -0.00156539 0.169464
internal_weight=0 105.284 103.135 2.14944
internal_count=1994 1827 1782 45
is_linear=0
shrinkage=0.2


Tree=47
num_leaves=6
num_cat=0
split_feature=1 1 5 0 5
split_gain=1.47139 5.3582 3.35283 1.58662 1.1932
threshold=1.5000000000000002 11.845238095238097 0.15476190476190474 1.0000000180025095e-35 0.98750000000000016
decision_type=2 2 2 2 2
left_child=3 4 -3 -1 -2
right_child=1 2 -4 -5 -6
leaf_value=-0.34561568660944592 -0.21930305316705523 -0.20311743675543958 0.012072086098444297 0.12428269023849536 0.044750142407661023
leaf_weight=0.24617835879325767 5.4034426782745859 2.9383672794792792 91.569491433037911 5.3088886141777039 0.69564449414610852
leaf_count=1 148 95 1697 38 15
internal_value=0 -0.00649275 0.00517195 0.0987773 -0.187441
internal_weight=0 100.607 94.5079 5.55507 6.09909
internal_count=1994 1955 1792 39 163
is_linear=0
shrinkage=0.2


Tree=48
num_leaves=8
num_cat=0
split_feature=2 0 16 1 1 0 1
split_gain=1.52262 2.75766 2.51291 3.2485 2.1479 1.67817 1.17071
threshold=10.667613552308099 5.5000000000000009 0.021123693379790903 24.975000000000005 17.612040133779271 13.500000000000002 18.245000000000001
decision_type=2 2 2 2 2 2 2
left_child=2 6 4 -4 -1 -3 -2
right_child=1 5 3 -5 -6 -7 -8
leaf_value=-0.029850442920452053 -0.1558061149542152 -0.2275573354779509 0.29337094001602682 -0.42633877431558154 0.032341820185501829 -0.051117227895586106 0.28168400262378296
leaf_weight=42.287724969908595 0.24132330401334812 2.9187696645967653 2.1023339596576984 0.22903065383434285 46.618194966576993 8.9480697023100202 1.1449233751045538
leaf_count=624 7 126 46 1 933 214 43
internal_value=0 -0.0642197 0.00819397 0.211001 0.00264777 -0.0961263 0.195789
internal_weight=0 13.2531 91.2373 2.33136 88.9059 11.8668 1.38625
internal_count=1994 390 1604 47 1557 340 50
is_linear=0
shrinkage=0.2


Tree=49
num_leaves=8
num_cat=0
split_feature=11 1 4 4 11 15 0
split_gain=1.57515 1.56985 1.49715 3.50229 3.34871 1.08468 0.509043
threshold=0.2264957264957265 19.488095238095241 9.6293543722627692 8.1677058390472919 0.2124060150375939 0.059411764705882351 4.5000000000000009
decision_type=2 2 2 2 2 2 2
left_child=2 6 3 -1 -4 -3 -2
right_child=1 5 4 -5 -6 -7 -8
leaf_value=-0.0039603370714695304 -0.15727784177515391 -0.33197086381480151 -0.024747322183295978 0.11994644904326966 0.3941589667524133 0.1248841512972647 0.13067003575116673
leaf_weight=32.782579628168605 0.29375037923455172 1.4333111191517671 54.878999033244327 12.517009323695673 0.72196658718166773 0.18053076416254032 0.71646299585700035
leaf_count=759 6 30 881 288 11 7 12
internal_value=0 -0.152404 0.00309332 0.0301511 -0.018779 -0.272638 0.0340398
internal_weight=0 2.62406 100.901 45.2996 55.601 1.61384 1.01021
internal_count=1994 55 1939 1047 892 37 18
is_linear=0
shrinkage=0.2


Tree=50
num_leaves=8
num_cat=0
split_feature=9 3 6 3 6 2 3
split_gain=1.42634 7.30447 3.0203 2.83274 5.38883 3.59673 0.922621
threshold=0.074175824175824162 -0.35038363171355486 3.1081871345029244 -1.464102564102564 1.3717105263157896 9.6829577050412414 2.0454545454545459
decision_type=2 2 2 2 2 2 2
left_child=3 2 -2 4 -1 -5 -3
right_child=1 6 -4 5 -6 -7 -8
leaf_value=0.14484493474223745 0.21759938951422786 -0.08038394343639739 -0.13540328078702563 0.027766461506288434 -0.14983729460068371 -0.083383150168091988 -0.29422863806300736
leaf_weight=3.0538751150015733 7.4288009279407543 3.7460550162941209 1.0431807632558046 59.981928281369619 11.956592437636571 14.382942855765576 1.1018319774884728
leaf_count=48 131 59 16 1176 260 297 7
internal_value=0 0.0602338 0.17242 -0.00979638 -0.0889385 0.006093 -0.133536
internal_weight=0 13.3199 8.47198 89.3753 15.0105 74.3649 4.84789
internal_count=1994 213 147 1781 308 1473 66
is_linear=0
shrinkage=0.2


Tree=51
num_leaves=5
num_cat=0
split_feature=0 0 3 15
split_gain=1.38163 1.59738 2.51452 1.50639
threshold=43.500000000000007 40.500000000000007 -0.20294117647058818 0.026709401709401653
decision_type=2 2 2 2
left_child=1 3 -3 -1
right_child=-2 2 -4 -5
leaf_value=-0.0078058352902098914 -0.23212488447442012 -0.13886913870805204 0.51469761234349221 0.085101593127039799
leaf_weight=91.153446673764847 0.97049832757329468 0.32850183232221752 0.54433654434978862 7.5074901639600276
leaf_count=1549 40 5 4 396
internal_value=0 0.00175306 0.263688 -0.00059532
internal_weight=0 99.5338 0.872838 98.6609
internal_count=1994 1954 9 1945
is_linear=0
shrinkage=0.2


Tree=52
num_leaves=8
num_cat=0
split_feature=13 13 10 1 2 2 4
split_gain=1.33822 1.56288 1.45608 0.736602 0.444446 0.145135 0.0827054
threshold=0.037749287749287708 1.0000000180025095e-35 0.048003072196620554 25.898989898989903 7.9366416907112614 11.859033839089536 10.586300856290434
decision_type=2 2 2 2 2 2 2
left_child=1 2 -1 5 -3 -2 -5
right_child=3 4 -4 6 -6 -7 -8
leaf_value=-0.016583944480549295 0.2001137222900663 0.059359877084780799 0.038573905931959702 0 -0.30444543570507065 -0.0003365436901900108 -0.15718265468864595
leaf_weight=70.569202008162392 2.0171128117945045 0.089548886287956431 26.194071150035597 0.04579360969364632 0.82683603675104678 0.04937074752524484 0.25954461330547929
leaf_count=1365 86 7 506 2 15 6 7
internal_value=0 -0.0041694 -0.00153707 0.146318 -0.257315 0.190705 -0.110509
internal_weight=0 97.6797 96.7633 2.37182 0.916385 2.06648 0.305338
internal_count=1994 1893 1871 101 22 92 9
is_linear=0
shrinkage=0.2


Tree=53
num_leaves=8
num_cat=0
split_feature=10 1 10 3 7 4 10
split_gain=1.38271 2.79755 2.78007 6.93998 2.4181 1.8936 1.86613
threshold=0.13961038961038957 18.452272727272732 0.051597363083164254 -0.37268518518518506 0.4264069264069264 12.783419053211817 0.031754032258064509
decision_type=2 2 2 2 2 2 2
left_child=2 4 6 -4 -2 -3 -1
right_child=1 5 3 -5 -6 -7 -8
leaf_value=-0.0014074659876600029 -0.24477632534422678 0.13763197236454314 0.18481043032177064 -0.061633579285254182 0.16950788147767487 -0.19162550874701589 -0.12113790545304071
leaf_weight=67.415904019348091 3.8286670598899937 2.6263983703684066 10.294950521842113 8.0736835254938324 0.59354455210268486 0.88036766793811683 5.6106546652736133
leaf_count=1336 48 64 234 144 9 25 134
internal_value=0 -0.0802414 0.00656664 0.0760731 -0.185662 0.0506291 -0.0108198
internal_weight=0 7.92898 91.3952 18.3686 4.42221 3.50677 73.0266
internal_count=1994 146 1848 378 57 89 1470
is_linear=0
shrinkage=0.2


Tree=54
num_leaves=8
num_cat=0
split_feature=1 5 6 13 3 15 2
split_gain=1.24463 1.57856 2.61731 1.40219 0.929759 0.669435 0.202708
threshold=28.802389705882359 0.93541666666666667 1.1455026455026456 0.037749287749287708 1.1937500000000003 0.23833671399594322 14.285247180080903
decision_type=2 2 2 2 2 2 2
left_child=1 3 -3 -1 5 -2 -6
right_child=4 2 -4 -5 6 -7 -8
leaf_value=-0.0069883966612019864 -0.21894922598337613 -0.09095328316859462 0.18069060789069247 0.17079814319031023 0.17808101989813474 0.1323564348713713 -0.066433269561973887
leaf_weight=87.372275819740025 2.0984989683784079 1.9518039801623661 4.5921034998027608 1.7590576558141027 0.3627545041963457 0.17155489325523365 0.098186153220012784
leaf_count=1658 94 42 86 93 4 2 15
internal_value=0 0.00360152 0.0980775 -0.00327376 -0.132121 -0.185809 0.105021
internal_weight=0 95.6752 6.54391 89.1313 2.73099 2.27005 0.460941
internal_count=1994 1879 128 1751 115 96 19
is_linear=0
shrinkage=0.2


Tree=55
num_leaves=6
num_cat=0
split_feature=1 5 1 0 0
split_gain=1.17473 4.19925 2.34647 1.12289 0.0822134
threshold=1.5000000000000002 0.15476190476190474 11.845238095238097 1.0000000180025095e-35 8.5000000000000018
decision_type=2 2 2 2 2
left_child=3 4 -3 -1 -2
right_child=1 2 -4 -5 -6
leaf_value=-0.27845347395368675 -0.20588941020057608 -0.15527776161393078 0.010422279527674589 0.11417670974072305 0
leaf_weight=0.2488493025302877 4.0272582860197863 3.5088078001281238 84.940877993183676 5.0109388828277588 0.070372145564760902
leaf_count=1 189 65 1697 38 4
internal_value=0 -0.00545793 0.00365193 0.0912703 -0.202184
internal_weight=0 92.5473 88.4497 5.25979 4.09763
internal_count=1994 1955 1762 39 193
is_linear=0
shrinkage=0.2


Tree=56
num_leaves=8
num_cat=0
split_feature=2 0 1 5 1 0 1
split_gain=1.19116 4.10935 4.14589 2.71496 6.37884 3.02251 1.75992
threshold=5.7722587935066789 5.5000000000000009 13.878676470588237 0.62731481481481499 17.575187969924816 18.500000000000004 18.743421052631586
decision_type=2 2 2 2 2 2 2
left_child=1 6 -3 5 -5 -2 -1
right_child=3 2 -4 4 -6 -7 -8
leaf_value=0.024673640446556035 -0.011160732404534109 -0.152703027289503 0.22319408275415681 -0.1473926595132834 0.0093085757255054156 0.13411716412916994 -0.11481949203031305
leaf_weight=11.552787219523458 16.071360159694454 1.3596064615994681 6.506214086082764 15.345523179275913 31.628862241224851 8.7538195507950132 5.1691000142600378
leaf_count=258 304 16 267 178 747 129 95
internal_value=0 0.0375476 0.156403 -0.0134098 -0.041772 0.0398316 -0.0180642
internal_weight=0 24.5877 7.86582 71.7996 46.9744 24.8252 16.7219
internal_count=1994 636 283 1358 925 433 353
is_linear=0
shrinkage=0.2


Tree=57
num_leaves=8
num_cat=0
split_feature=11 6 11 1 1 15 1
split_gain=1.18904 1.21246 2.58009 1.38779 1.08035 0.645287 0.349171
threshold=0.2264957264957265 3.4058823529411768 0.21583850931677012 26.665789473684214 19.488095238095241 0.059411764705882351 18.348913043478266
decision_type=2 2 2 2 2 2 2
left_child=1 3 -3 -1 6 -6 -2
right_child=4 2 -4 -5 5 -7 -8
leaf_value=0.017320391874314816 -0.068010004864082055 -0.082920525766510073 0.38532853477912787 -0.10836078506110179 -0.29740088117698632 0.094213922419926488 0.17527095253726405
leaf_weight=78.493413107469678 0.49024949688464348 10.001250647910634 0.43864221649710167 3.6132469812291665 1.2326401855680158 0.12772777979262162 0.34078927803784609
leaf_count=1453 13 408 6 72 30 7 5
internal_value=0 0.00332932 -0.0605504 0.0116053 -0.144089 -0.251505 0.0246886
internal_weight=0 92.5466 10.4399 82.1067 2.19141 1.36037 0.831039
internal_count=1994 1939 414 1525 55 37 18
is_linear=0
shrinkage=0.2


Tree=58
num_leaves=5
num_cat=0
split_feature=0 0 3 2
split_gain=1.05096 1.18945 1.69299 1.32735
threshold=43.500000000000007 40.500000000000007 -0.20294117647058818 8.117878087959463
decision_type=2 2 2 2
left_child=1 3 -3 -1
right_child=-2 2 -4 -5
leaf_value=0.020212096569158011 -0.22152176281676655 -0.11524763706096836 0.42763791557215375 -0.028275047925754911
leaf_weight=53.008988442132249 0.80039367222343472 0.30299467034637928 0.55647686496376891 39.25915034294303
leaf_count=1254 40 5 4 691
internal_value=0 0.00182057 0.229442 -0.000314507
internal_weight=0 93.1276 0.859472 92.2681
internal_count=1994 1954 9 1945
is_linear=0
shrinkage=0.2


Tree=59
num_leaves=8
num_cat=0
split_feature=9 3 3 2 4 9 3
split_gain=0.98682 4.59388 2.1777 2.10611 1.92834 1.75687 0.777485
threshold=0.074175824175824162 -0.35038363171355486 0.27429467084639497 5.9208701546492906 15.958723408288973 0.060661764705882353 2.0454545454545459
decision_type=2 2 2 2 2 2 2
left_child=2 4 3 -1 -2 -4 -3
right_child=1 6 5 -5 -6 -7 -8
leaf_value=0.03017223840303776 0.19537104441102915 -0.052991321991856445 0.063850292747067688 -0.048374059209471895 -0.11398540642154893 -0.42564336691571447 -0.26082300935624336
leaf_weight=19.294178268231917 6.1633454096736386 3.5926293964730558 16.93360162363388 45.514949607619201 0.8499475938733666 0.24433108977973361 0.9379121511010452
leaf_count=527 136 59 347 903 11 4 7
internal_value=0 0.0543935 -0.00794003 -0.0248308 0.155923 0.0550924 -0.100577
internal_weight=0 11.5438 81.9871 64.8091 7.01329 17.1779 4.53054
internal_count=1994 213 1781 1430 147 351 66
is_linear=0
shrinkage=0.2


Tree=60
num_leaves=8
num_cat=0
split_feature=0 11 7 7 0 2 5
split_gain=1.04875 2.73635 3.79439 3.72586 2.54786 3.8971 1.78356
threshold=12.500000000000002 1.0000000180025095e-35 0.19677419354838713 0.76871657754010703 10.500000000000002 5.9558185650164512 0.59729729729729741
decision_type=2 2 2 2 2 2 2
left_child=4 2 -2 -3 6 -6 -1
right_child=1 3 -4 -5 5 -7 -8
leaf_value=-0.046568243117749708 0.1496909641290784 -0.034857977175271906 -0.018158440898345497 0.45210346440341748 0.1958430531775977 -0.18527598702033479 0.041067915881646766
leaf_weight=17.451885041227797 11.761668256716804 25.573608524195155 9.7114345948211831 0.59238751936936651 1.2097315774299193 6.6901926558930427 19.74622332668514
leaf_count=390 370 559 147 10 47 106 365
internal_value=0 0.0205096 0.0734489 -0.0226107 -0.0220193 -0.124792 0
internal_weight=0 47.6391 21.4731 26.166 45.098 7.89992 37.1981
internal_count=1994 1086 517 569 908 153 755
is_linear=0
shrinkage=0.2


Tree=61
num_leaves=5
num_cat=0
split_feature=2 4 6 5
split_gain=0.960724 1.54727 1.42049 1.24917
threshold=14.062944615962129 18.893980470630911 4.7836257309941539 0.57793522267206487
decision_type=2 2 2 2
left_child=1 2 -1 -3
right_child=-2 3 -4 -5
leaf_value=0.0018267567639014396 -0.18894423905724012 0.27380999157629826 -0.19262028645699164 -0.083433165666303502
leaf_weight=87.353741776838433 1.0128730869182607 1.3989770822809067 1.478273346700006 0.45774473299388763
leaf_count=1636 167 15 146 30
internal_value=0 0.00231071 -0.00140311 0.180615
internal_weight=0 90.6887 88.832 1.85672
internal_count=1994 1827 1782 45
is_linear=0
shrinkage=0.2


Tree=62
num_leaves=8
num_cat=0
split_feature=10 10 3 7 7 10 3
split_gain=0.96899 1.91633 5.02523 1.896 3.26467 1.66516 1.43399
threshold=0.13961038961038957 0.051597363083164254 -0.37268518518518506 0.13188405797101446 0.41885964912280704 0.30384615384615393 -0.41885964912280693
decision_type=2 2 2 2 2 2 2
left_child=1 6 -3 5 -5 -2 -1
right_child=3 2 -4 4 -6 -7 -8
leaf_value=-0.043223177065392131 0.13471952975582957 0.16881826251711982 -0.050266009082180957 -0.26988520602072025 0.13465740680863011 -0.18269466075461133 0.015681915812178423
leaf_weight=28.372344836068805 2.264923344366252 8.9183924306416902 7.7252788584737564 2.9301771438913424 1.0178185164404565 0.86022368073463429 39.173535073088715
leaf_count=612 69 234 144 37 23 17 858
internal_value=0 0.00593299 0.0666837 -0.0708878 -0.162711 0.042698 -0.00892664
internal_weight=0 84.1896 16.6437 7.07314 3.948 3.12515 67.5459
internal_count=1994 1848 378 146 60 86 1470
is_linear=0
shrinkage=0.2


Tree=63
num_leaves=8
num_cat=0
split_feature=1 0 0 5 5 2 2
split_gain=0.907106 6.02555 5.90573 3.27185 3.20724 2.50145 1.39751
threshold=16.345238095238098 26.500000000000004 25.500000000000004 0.65301003344481623 0.46291208791208799 1.2500000000000002 6.2948909167412941
decision_type=2 2 2 2 2 2 2
left_child=1 4 5 -3 -1 -2 -4
right_child=2 3 6 -5 -6 -7 -8
leaf_value=0.020517461793501491 -0.13989915818530582 0.28346244730755416 0.17119099225463252 -0.1175997347435031 -0.12611460161657678 0.046799410765252458 -0.18042463940797282
leaf_weight=9.7527918499545247 2.968777216738089 3.2973244627355589 0.41712240874767204 1.0034059609752146 14.859859672316814 51.444550363870803 6.6561943176202476
leaf_count=216 86 28 18 21 234 1253 138
internal_value=0 -0.0291493 0.0137738 0.187316 -0.0676822 0.0363105 -0.15723
internal_weight=0 28.9134 61.4866 4.30073 24.6127 54.4133 7.07332
internal_count=1994 499 1495 49 450 1339 156
is_linear=0
shrinkage=0.2


Tree=64
num_leaves=8
num_cat=0
split_feature=2 6 15 1 0 3 0
split_gain=0.95257 2.10475 1.47437 1.77718 1.24993 1.23153 1.07687
threshold=11.068433316255009 1.2015625000000003 0.026709401709401653 26.665789473684214 29.500000000000004 0.31534090909090912 33.500000000000007
decision_type=2 2 2 2 2 2 2
left_child=2 4 3 -1 -2 -3 -4
right_child=1 5 6 -5 -6 -7 -8
leaf_value=0.0058389307372003763 0.24672373567257977 -0.16122758312004684 0.14331336973178083 -0.14591323492813499 -0.16616313349641149 0.033014982547365471 -0.11358295682250408
leaf_weight=71.937752180441748 1.1359796514734606 5.0987201597745297 4.6300682658911674 3.1746217062463975 0.32058039621915657 1.6227862085797822 0.67632075957953919
leaf_count=1200 9 274 371 61 11 59 9
internal_value=0 -0.0648823 0.00656199 -0.000534622 0.146713 -0.112957 0.107949
internal_weight=0 8.17807 80.4188 75.1124 1.45656 6.72151 5.30639
internal_count=1994 353 1641 1261 20 333 380
is_linear=0
shrinkage=0.2


Tree=65
num_leaves=8
num_cat=0
split_feature=11 1 0 3 1 15 1
split_gain=0.869858 1.15782 2.56083 1.65601 0.789509 0.422355 0.246889
threshold=0.2264957264957265 20.513157894736846 24.500000000000004 -13.749999999999998 19.488095238095241 0.059411764705882351 18.348913043478266
decision_type=2 2 2 2 2 2 2
left_child=1 3 -3 -1 6 -6 -2
right_child=4 2 -4 -5 5 -7 -8
leaf_value=0.45219773819565873 -0.059853676477683505 0.052261076622506557 -0.18197881781186556 -0.016119318986243719 -0.27127172227639873 0.068159895929240766 0.15850707501088451
leaf_weight=0.25243303924798866 0.42410829709842701 26.717663285264283 1.9431057607143873 56.713777294236934 1.0584528513136318 0.096918192575685569 0.2873800084926188
leaf_count=9 13 673 78 1179 30 7 5
internal_value=0 0.00289424 0.0357428 -0.013474 -0.133332 -0.232856 0.0198296
internal_weight=0 85.627 28.6608 56.9662 1.86686 1.15537 0.711488
internal_count=1994 1939 751 1188 55 37 18
is_linear=0
shrinkage=0.2


Tree=66
num_leaves=8
num_cat=0
split_feature=9 3 4 10 1 3 6
split_gain=0.90683 3.80627 2.18906 1.75015 3.16557 1.73714 1.23147
threshold=0.057189542483660101 1.0000000180025095e-35 16.715319079238302 0.10566188197767142 18.074175824175828 0.27429467084639497 2.1143790849673203
decision_type=2 2 2 2 2 2 2
left_child=3 2 -2 5 -5 -1 -3
right_child=1 6 -4 4 -6 -7 -8
leaf_value=-0.016145005377684384 0.13838230758952852 -0.03479479166749691 -0.18869758504229872 -0.23328215192819377 0.039910859322098494 0.061680057345691902 -0.28903972578740816
leaf_weight=52.510285387972544 9.2524015709059277 2.1808017937000836 0.82956088817445639 3.5784839843399814 3.063275812426582 14.621674169378819 1.2350921230390666
leaf_count=1256 207 29 19 33 119 318 13
internal_value=0 0.0474063 0.109684 -0.00888391 -0.10643 0.00069012 -0.132452
internal_weight=0 13.4979 10.082 73.7737 6.64176 67.132 3.41589
internal_count=1994 268 226 1726 152 1574 42
is_linear=0
shrinkage=0.2


Tree=67
num_leaves=8
num_cat=0
split_feature=6 0 4 3 2 2 5
split_gain=0.895254 2.35653 1.79438 1.6601 2.73446 2.11251 0.665928
threshold=2.8918128654970769 31.500000000000004 9.6293543722627692 4.2222222222222223 8.5979399322335031 8.117878087959463 0.6478537360890303
decision_type=2 2 2 2 2 2 2
left_child=3 2 -2 5 -5 -1 -3
right_child=1 6 -4 4 -6 -7 -8
leaf_value=0.047104874223376274 0.011981480271546944 0.28883160655082291 -0.11658318884094115 -0.30379437807473675 0.22299204084846169 -0.025132383444426733 -0.028610346891188843
leaf_weight=37.554273082583677 7.6358630466857056 1.0101606368552882 9.6145090845311625 1.4724063966423262 0.46910873427987088 28.208897722302936 0.26798540988238517
leaf_count=1040 197 10 352 15 5 348 27
internal_value=0 -0.0391593 -0.059226 0.0103962 -0.169088 0.0159714 0.216174
internal_weight=0 18.5285 17.2504 67.7047 1.94152 65.7632 1.27815
internal_count=1994 586 549 1408 20 1388 37
is_linear=0
shrinkage=0.2


Tree=68
num_leaves=7
num_cat=0
split_feature=14 1 0 2 3 0
split_gain=0.878059 0.902112 2.59677 2.06674 0.439228 0.000364129
threshold=0.080128205128205107 13.013888888888891 1.5000000000000002 2.5538404810405302 -1.5773809523809521 8.5000000000000018
decision_type=2 2 2 2 2 2
left_child=1 2 -1 -3 -2 -6
right_child=4 3 -4 -5 5 -7
leaf_value=0.030322205173151165 -0.43601841874761099 -0.14139622820467815 -0.15663111741752384 0.017064208699184277 0 0.019485073964773888
leaf_weight=6.7734678126871568 0.22659212350845337 3.3977254851488388 5.136689608625602 69.519881860156602 0.0019875487778325809 0.059616128331981599
leaf_count=156 1 124 91 1616 1 5
internal_value=0 0.000991605 -0.0497898 0.00945159 -0.32189 0.0155692
internal_weight=0 84.8278 11.9102 72.9176 0.288196 0.0616037
internal_count=1994 1987 247 1740 7 6
is_linear=0
shrinkage=0.2


Tree=69
num_leaves=6
num_cat=0
split_feature=2 4 3 3 6
split_gain=0.78492 1.31989 1.11699 0.496802 0.404527
threshold=12.908111047031321 18.893980470630911 4.5576923076923084 -6.4166666666666652 1.1270161290322582
decision_type=2 2 2 2 2
left_child=1 2 -1 -3 -2
right_child=4 3 -4 -5 -6
leaf_value=0.0019380834845297232 0.11280992469013529 -0.11322452358810574 -0.16428954447489458 0.22296441249003945 -0.19056137712902688
leaf_weight=79.912120563851204 0.1276373565196981 0.12806333601474751 1.5993170398287464 1.3700930018676434 1.1885173808259422
leaf_count=1733 1 1 24 21 214
internal_value=0 0.00205246 -0.00129954 0.185039 -0.150769
internal_weight=0 83.0096 81.5114 1.49816 1.31615
internal_count=1994 1779 1757 22 215
is_linear=0
shrinkage=0.2


Tree=70
num_leaves=8
num_cat=0
split_feature=5 11 5 0 4 7 1
split_gain=0.8104 1.42593 3.01074 1.57287 1.12043 1.48534 1.11518
threshold=0.89181286549707617 0.094494047619047616 0.4777667984189724 12.500000000000002 4.4039321266374047 0.97058823529411764 15.837719298245617
decision_type=2 2 2 2 2 2 2
left_child=1 3 -3 -1 5 -2 -6
right_child=4 2 -4 -5 6 -7 -8
leaf_value=-0.029465772372858391 -0.1020863364237181 0.16232032157436249 -0.12473781055196216 0.032617193985105986 -0.12535468967605817 0.18883510422234126 0.16053324597839991
leaf_weight=30.180293643730693 2.6135820916388171 1.6877628430447646 8.5800610631122236 35.337062969003455 0.55090779083548103 0.89311518892645825 4.0961732208234025
leaf_count=633 64 30 258 836 10 16 147
internal_value=0 -0.00686954 -0.0760258 0.00386576 0.0592958 -0.0235674 0.123539
internal_weight=0 75.7852 10.2678 65.5174 8.15378 3.5067 4.64708
internal_count=1994 1757 288 1469 237 80 157
is_linear=0
shrinkage=0.2


Tree=71
num_leaves=8
num_cat=0
split_feature=6 5 2 1 1 2 5
split_gain=0.882054 2.32744 4.32486 2.16179 1.95267 3.0157 1.68917
threshold=2.0217391304347831 0.60737812911725964 7.2619617356114805 15.510869565217392 21.447222222222226 9.7097402482100197 0.6858552631578948
decision_type=2 2 2 2 2 2 2
left_child=4 2 -2 -3 5 -1 -6
right_child=1 3 -4 -5 6 -7 -8
leaf_value=0.018537814288573925 -0.12954183184217422 -0.22693197650094787 0.14008570440213813 -0.036516861726840787 0.002943178211567414 -0.14473298557709446 0.15904100655832498
leaf_weight=30.896156706323382 3.4310728754498978 2.6633464019687407 7.3446273112203926 22.42248859146639 5.1949662716360745 5.2448767934110938 6.2490360970841721
leaf_count=854 113 50 155 507 101 56 158
internal_value=0 -0.0239876 0.0531085 -0.0575421 0.0175201 -0.00504736 0.089372
internal_weight=0 35.8615 10.7757 25.0858 47.585 36.141 11.444
internal_count=1994 825 268 557 1169 910 259
is_linear=0
shrinkage=0.2


Tree=72
num_leaves=8
num_cat=0
split_feature=2 6 9 9 3 3 0
split_gain=0.831504 1.58118 1.15159 1.06816 2.42578 1.88896 0.729892
threshold=11.068433316255009 1.2015625000000003 0.064583333333333312 0.074175824175824162 1.0000000180025095e-35 -1.4880952380952379 29.500000000000004
decision_type=2 2 2 2 2 2 2
left_child=3 6 -3 5 -5 -1 -2
right_child=1 2 -4 4 -6 -7 -8
leaf_value=-0.076354102321953055 0.21088529850715756 -0.15833868461178197 0.047376975184836703 0.14883642408829414 -0.080364528643662614 0.012630768967506348 -0.14301379375051659
leaf_weight=11.459150036418576 0.99061150196939596 4.5083273868804099 1.3154071700409984 5.5646098529105057 2.6518814865266904 55.566435637127142 0.2270782093401067
leaf_count=196 9 305 28 155 29 1261 11
internal_value=0 -0.065889 -0.110163 0.00574072 0.0736132 -0.00247918 0.133963
internal_weight=0 7.04142 5.82373 75.2421 8.21649 67.0256 1.21769
internal_count=1994 353 333 1641 184 1457 20
is_linear=0
shrinkage=0.2


Tree=73
num_leaves=8
num_cat=0
split_feature=2 5 1 3 4 1 6
split_gain=0.730326 3.15202 2.6802 2.12197 1.44611 2.95722 1.58632
threshold=5.5307305986715312 0.59729729729729741 1.5000000000000002 -3.3484848484848482 8.3274671372232323 17.11688311688312 1.3603896103896107
decision_type=2 2 2 2 2 2 2
left_child=1 2 -1 -3 5 -2 -6
right_child=4 3 -4 -5 6 -7 -8
leaf_value=0.058047282915643719 -0.20904951975845823 0.75679180866995721 -0.15865610359956184 0.097129786707278398 0.072824059960361592 0.013184354496477728 -0.014760065318283194
leaf_weight=4.4240222722291964 4.119631492183542 0.15588061744347115 4.5330287252145354 9.6783182130311598 10.201011122204362 5.433510836752248 42.647083281706728
leaf_count=39 79 3 239 299 305 168 862
internal_value=0 0.034143 -0.0507847 0.112373 -0.0107773 -0.0821984 0.00200969
internal_weight=0 18.7912 8.95705 9.8342 62.4012 9.55314 52.8481
internal_count=1994 580 278 302 1414 247 1167
is_linear=0
shrinkage=0.2


Tree=74
num_leaves=5
num_cat=0
split_feature=0 2 5 3
split_gain=0.719096 0.749931 2.46285 2.43821
threshold=43.500000000000007 8.117878087959463 0.80196078431372564 -13.749999999999998
decision_type=2 2 2 2
left_child=1 3 -3 -1
right_child=-2 2 -4 -5
leaf_value=0.67983616162442484 -0.20841672485414314 0.0037615506147591644 -0.13653085214363514 0.01465829737156236
leaf_weight=0.17234504409134288 0.60886053694412012 27.798775922987261 6.0217063889576812 45.796932086814195
leaf_count=4 40 543 153 1254
internal_value=0 0.00136493 -0.0210868 0.0181054
internal_weight=0 79.7898 33.8205 45.9693
internal_count=1994 1954 696 1258
is_linear=0
shrinkage=0.2


Tree=75
num_leaves=8
num_cat=0
split_feature=11 11 7 6 1 15 5
split_gain=0.586763 0.775219 1.05107 0.983457 0.564908 0.367375 0.221973
threshold=0.2264957264957265 0.2124060150375939 0.14087301587301587 3.4058823529411768 19.488095238095241 0.059411764705882351 0.57793522267206487
decision_type=2 2 2 2 2 2 2
left_child=1 3 -3 -1 6 -6 -2
right_child=4 2 -4 -5 5 -7 -8
leaf_value=0.0076752133891723005 -0.08474245600267255 0.33529784513297417 -0.12777579940179518 -0.066607009731403669 -0.247407453514808 0.068512644040006773 0.13076318564992909
leaf_weight=69.694672385659942 0.28830051585100491 0.56401134841143985 0.21836002237978391 7.8908841322991057 0.92196002094715346 0.096375069115310907 0.34039416210725904
leaf_count=1516 9 8 9 406 30 7 9
internal_value=0 0.00214203 0.194128 0 -0.11671 -0.206341 0.018242
internal_weight=0 78.3679 0.782371 77.5856 1.64703 1.01834 0.628695
internal_count=1994 1939 17 1922 55 37 18
is_linear=0
shrinkage=0.2


Tree=76
num_leaves=8
num_cat=0
split_feature=0 2 1 1 2 1 0
split_gain=0.572842 2.52294 1.37254 1.16364 1.00699 0.923552 0.821493
threshold=3.5000000000000004 3.2583388619490776 11.845238095238097 1.5000000000000002 7.9766670428956097 13.712462462462463 1.0000000180025095e-35
decision_type=2 2 2 2 2 2 2
left_child=3 5 -3 6 -5 -2 -1
right_child=1 2 -4 4 -6 -7 -8
leaf_value=-0.26965501568106903 -0.11298590157392924 -0.17461723205376234 0.0060596064132365009 -0.10991949060138434 0.087101068076292476 0.32997182940344261 0.07052125977983939
leaf_weight=0.24762660264968772 0.15871819574385782 1.6764810214517627 63.864082990181487 7.3174987158272398 1.1122261934215201 1.2213900904171167 3.9320057183504105
leaf_count=1 4 30 1572 302 36 11 38
internal_value=0 0.0070443 0.00115597 -0.0393417 -0.0823848 0.269868 0.0450535
internal_weight=0 66.9207 65.5406 12.6094 8.42972 1.38011 4.17963
internal_count=1994 1617 1602 377 338 15 39
is_linear=0
shrinkage=0.2


Tree=77
num_leaves=7
num_cat=0
split_feature=7 5 1 7 9 0
split_gain=0.644615 2.31699 1.74551 1.6104 1.09508 0.956729
threshold=0.76871657754010703 0.51925925925925942 18.743421052631586 0.56385869565217395 0.057189542483660101 5.5000000000000009
decision_type=2 2 2 2 2 2
left_child=3 -2 -3 4 -1 -5
right_child=1 2 -4 5 -6 -7
leaf_value=-0.0084688306033648998 -0.18645877621293649 0.35473730062085546 0 0.065195761453115911 0.060386134668439145 -0.20979266546087738
leaf_weight=61.809208644623141 0.80311681597959195 1.2010417213896292 0.98202598233183369 0.55868059559725169 10.801374043046961 2.2469130497120204
leaf_count=1527 68 16 49 13 254 67
internal_value=0 0.0899936 0.198072 -0.00398582 0.00167075 -0.151349
internal_weight=0 2.98618 2.18307 75.4162 72.6106 2.80559
internal_count=1994 133 65 1861 1781 80
is_linear=0
shrinkage=0.2


Tree=78
num_leaves=8
num_cat=0
split_feature=1 0 0 0 4 3 15
split_gain=0.613247 2.06447 1.92007 1.45165 3.33879 2.13976 1.14693
threshold=20.513157894736846 24.500000000000004 3.5000000000000004 13.500000000000002 9.3308312944869005 1.2071428571428573 0.026709401709401653
decision_type=2 2 2 2 2 2 2
left_child=3 2 -2 4 -1 -5 -3
right_child=1 6 -4 5 -6 -7 -8
leaf_value=0.0055879976860735703 -0.10543973923370871 -0.27538379201339791 0.060547720731600557 0.027296486440975504 -0.14303839079217309 -0.52076088957844402 0.1044064429893274
leaf_weight=17.146011264296252 3.1137105620873688 1.2918916420676385 21.69267236415908 25.129617768616303 9.1863387246557959 0.23686288646422227 0.34343401680234809
leaf_count=410 105 63 598 636 158 6 18
internal_value=0 0.0243257 0.0391404 -0.013085 -0.0460558 0.0207711 -0.188959
internal_weight=0 26.4417 24.8064 51.6988 26.3323 25.3665 1.63533
internal_count=1994 784 703 1210 568 642 81
is_linear=0
shrinkage=0.2


Tree=79
num_leaves=8
num_cat=0
split_feature=2 5 3 0 5 2 1
split_gain=0.632067 2.15487 1.54317 1.4866 1.40405 1.15595 1.06809
threshold=9.7448743196070247 0.39318181818181824 -1.9019138755980858 3.5000000000000004 0.24404761904761904 5.3473159049013903 17.547727272727276
decision_type=2 2 2 2 2 2 2
left_child=2 4 5 -4 -2 -1 -3
right_child=1 6 3 -5 -6 -7 -8
leaf_value=0.077801278170807217 -0.18082303916372452 0.051847012285620678 -0.050779773045291778 0.035296789640691509 0.24060063278305963 -0.11624539533986694 -0.094267303214455145
leaf_weight=1.4414501797873516 0.32781453794450399 2.3330899222783037 9.6221553499344719 45.374015938170487 1.5443677133589515 5.95860823901603 10.639811563643887
leaf_count=28 13 43 311 1083 24 94 398
internal_value=0 -0.0375194 0.00832293 0.0200227 0.158824 -0.0768365 -0.0671236
internal_weight=0 14.8451 62.3962 54.9962 1.87218 7.40006 12.9729
internal_count=1994 478 1516 1394 37 122 441
is_linear=0
shrinkage=0.2


Tree=80
num_leaves=5
num_cat=0
split_feature=0 0 5 6
split_gain=0.607749 0.568555 0.829905 0.768432
threshold=43.500000000000007 40.500000000000007 0.67054263565891481 2.0217391304347831
decision_type=2 2 2 2
left_child=1 3 -3 -1
right_child=-2 2 -4 -5
leaf_value=0.016870740952039939 -0.20172503363116281 0.29551865839847596 -0.10981395590668619 -0.023991815585591585
leaf_weight=42.696243541926378 0.54535169759037572 0.55292221112176676 0.22788990374829154 32.257653975582798
leaf_count=1144 40 5 4 801
internal_value=0 0.00110445 0.165692 -0.000586083
internal_weight=0 75.7347 0.780812 74.9539
internal_count=1994 1954 9 1945
is_linear=0
shrinkage=0.2


Tree=81
num_leaves=6
num_cat=0
split_feature=2 4 6 5 6
split_gain=0.553474 0.886317 0.839592 0.475933 0.197055
threshold=12.908111047031321 18.893980470630911 4.7836257309941539 0.57793522267206487 1.1270161290322582
decision_type=2 2 2 2 2
left_child=1 2 -1 -3 -2
right_child=4 3 -4 -5 -6
leaf_value=0.00098822195718952996 0.050770873234076024 0.21410782519908977 -0.1846249970974212 -0.059578870420538589 -0.18316990641324793
leaf_weight=72.725623845486552 0.075065657496451332 1.1173496404662717 0.93717375300184258 0.23416099126916368 0.83033005352990585
leaf_count=1618 1 9 139 13 214
internal_value=0 0.00150098 -0.00136121 0.15912 -0.151665
internal_weight=0 75.0143 73.6628 1.35151 0.905396
internal_count=1994 1779 1757 22 215
is_linear=0
shrinkage=0.2


Tree=82
num_leaves=8
num_cat=0
split_feature=1 0 1 11 5 6 3
split_gain=0.583983 2.20448 2.76243 1.3852 3.86739 1.21254 0.573969
threshold=21.514705882352946 22.500000000000004 22.944272445820438 0.084523809523809515 0.62731481481481499 3.759615384615385 -0.55363984674329492
decision_type=2 2 2 2 2 2 2
left_child=3 2 -2 5 -5 -1 -3
right_child=1 6 -4 4 -6 -7 -8
leaf_value=0.00865316644313191 0.16506797438006676 0 -0.0035786528337918792 0.08306280407456855 -0.2018869300232444 -0.14597595348480993 -0.28792347148305886
leaf_weight=46.578484526704415 5.5758101570245406 0.36961644151597284 12.193661141522169 3.0709117436781517 4.7302075317311392 2.0690882769195005 0.97711183011779101
leaf_count=1050 144 26 391 68 128 127 60
internal_value=0 0.0297453 0.0490938 -0.0106495 -0.0886281 0.00172797 -0.211008
internal_weight=0 19.1162 17.7695 56.4487 7.80112 48.6476 1.34673
internal_count=1994 621 535 1373 196 1177 86
is_linear=0
shrinkage=0.2


Tree=83
num_leaves=7
num_cat=0
split_feature=2 3 2 5 5 3
split_gain=0.601968 1.92929 1.80625 1.76302 1.4456 0.682096
threshold=8.117878087959463 4.5576923076923084 8.2308144864232577 0.6858552631578948 0.7898981324278439 -0.28869047619047611
decision_type=2 2 2 2 2 2
left_child=1 3 5 -1 -4 -2
right_child=2 -3 4 -5 -6 -7
leaf_value=-0.020871424907605015 0 -0.26018230699238326 0.010655284036272382 0.060695776251622938 -0.096275862415493352 -0.33946073900668905
leaf_weight=20.064156658219872 0.34000004571862519 0.94064363464712997 24.362699052482643 22.08290271696751 6.2979402835771898 0.90600526670459902
leaf_count=583 13 17 514 663 196 8
internal_value=0 0.014971 -0.0212403 0.0216499 -0.0111046 -0.252884
internal_weight=0 43.0877 31.9066 42.1471 30.6606 1.24601
internal_count=1994 1263 731 1246 710 21
is_linear=0
shrinkage=0.2


Tree=84
num_leaves=8
num_cat=0
split_feature=1 0 0 5 10 4 6
split_gain=0.507699 3.42998 3.39418 1.93365 1.66495 1.03424 0.846179
threshold=16.345238095238098 30.500000000000004 25.500000000000004 0.53950103950103967 0.13961038961038957 11.748933487108788 3.1726190476190479
decision_type=2 2 2 2 2 2 2
left_child=1 3 4 -1 -2 -3 -4
right_child=2 5 6 -5 -6 -7 -8
leaf_value=0.013979166163732069 0.041094123679924072 -0.043934739342878865 -0.17546158306265788 -0.10497053798421188 -0.089906909297046214 0.26313011272107789 0.042066855441262471
leaf_weight=9.9275267182092701 40.989469326697872 0.47879676194861476 4.4029163596715071 11.741069964889901 4.1981622126768334 1.9346056630747623 0.74779085394766287
leaf_count=263 1220 12 116 204 119 20 40
internal_value=0 -0.0244182 0.0108515 -0.0501063 0.0286165 0.198497 -0.141857
internal_weight=0 24.082 50.3383 21.6686 45.1876 2.4134 5.15071
internal_count=1994 499 1495 467 1339 32 156
is_linear=0
shrinkage=0.2


Tree=85
num_leaves=8
num_cat=0
split_feature=2 1 6 3 3 3 9
split_gain=0.553319 1.86553 1.93765 1.83344 1.28918 2.65807 2.34059
threshold=9.7448743196070247 24.267857142857146 1.8480769230769234 -0.82085561497326187 -1.4880952380952379 -1.3060200668896318 0.074175824175824162
decision_type=2 2 2 2 2 2 2
left_child=4 3 -3 -2 6 -6 -1
right_child=1 2 -4 -5 5 -7 -8
leaf_value=-0.10124356450245449 0.035951393537006042 0.21041339673258408 -0.11451672294666056 -0.1358461815846069 0.30999707765354045 0.013803634969389859 0.14111447947138273
leaf_weight=8.4886241865169705 3.6678618264704701 2.05707937191255 1.0438039342643604 7.0729245075272038 1.1985481607844111 48.208472922939109 1.8849980616942037
leaf_count=157 117 27 172 162 39 1282 38
internal_value=0 -0.0364147 0.0977818 -0.0763577 0.00788499 0.0214972 -0.0557795
internal_weight=0 13.8417 3.10088 10.7408 59.7806 49.407 10.3736
internal_count=1994 478 199 279 1516 1321 195
is_linear=0
shrinkage=0.2


Tree=86
num_leaves=8
num_cat=0
split_feature=1 4 1 3 2 6 0
split_gain=0.508835 1.41449 1.07595 1.9842 0.959468 0.731318 0.361937
threshold=26.665789473684214 16.715319079238302 24.672619047619051 -1.211111111111111 9.7448743196070247 2.8208556149732629 5.5000000000000009
decision_type=2 2 2 2 2 2 2
left_child=2 5 4 -4 -1 -2 -3
right_child=1 6 3 -5 -6 -7 -8
leaf_value=0.0084350600432740452 -0.19397190276045143 0.24623051998075499 -0.080029482181082093 0.21943608223930322 -0.056933339651003778 0.0059042637473414915 -0.072013307261432777
leaf_weight=54.603516886330908 2.140154741699007 0.5520964633215043 1.3168460898741616 2.3230300635568701 10.683117457385377 0.95350722019793455 0.10519386113810469
leaf_count=1407 35 19 36 74 289 54 80
internal_value=0 -0.071515 0.00364289 0.108768 -0.00214377 -0.130072 0.17967
internal_weight=0 3.75095 68.9265 3.63988 65.2866 3.09366 0.65729
internal_count=1994 188 1806 110 1696 89 99
is_linear=0
shrinkage=0.2


Tree=87
num_leaves=8
num_cat=0
split_feature=6 3 0 7 6 11 6
split_gain=0.553813 1.30891 2.62661 2.37004 1.24369 1.6786 1.49928
threshold=2.8918128654970769 -0.20294117647058818 14.500000000000002 0.19082633053221285 2.4696691176470593 0.03637566137566136 2.3198051948051956
decision_type=2 2 2 2 2 2 2
left_child=4 3 -3 -2 6 -6 -1
right_child=1 2 -4 -5 5 -7 -8
leaf_value=0.0057368740230695995 0.0070426330872733652 -0.093047677409538662 0.16424402051753545 -0.20377091701835848 0.15040547804699397 -0.063595898095599609 -0.14984510010566146
leaf_weight=48.059595677128527 4.6564198886408104 3.1263861638508379 3.0845924683198973 3.7503109149256488 4.9363096588131148 1.9669547040466566 2.5600983876502132
leaf_count=1271 110 173 59 244 61 39 37
internal_value=0 -0.0349042 0.0334265 -0.0864693 0.00862534 0.0879728 -0.00207445
internal_weight=0 14.6177 6.21098 8.40673 57.523 6.90326 50.6197
internal_count=1994 586 232 354 1408 100 1308
is_linear=0
shrinkage=0.2


Tree=88
num_leaves=8
num_cat=0
split_feature=9 3 11 2 4 2 1
split_gain=0.498761 3.19208 1.49257 1.16554 0.930251 1.65497 1.43513
threshold=0.039230769230769208 -0.50757575757575746 0.094494047619047616 8.9571921906483478 15.171288588452486 8.7712642308241282 16.345238095238098
decision_type=2 2 2 2 2 2 2
left_child=4 2 -2 -3 5 -1 -6
right_child=1 3 -4 -5 6 -7 -8
leaf_value=0.00064179798705843937 0.17099718263999289 0 -0.06536282576082679 -0.16652852877416158 0.19486915269754254 -0.08685984602353887 0
leaf_weight=39.586139174498385 5.8216037070669699 4.515772884275064 1.2100051090819759 2.5681894023728091 2.114992837960016 10.933922554104354 4.7013664187525137
leaf_count=1127 176 95 30 39 24 208 295
internal_value=0 0.0332578 0.128738 -0.0603529 -0.00864139 -0.0181654 0.0601082
internal_weight=0 14.1156 7.03161 7.08396 57.3364 50.5201 6.81636
internal_count=1994 340 206 134 1654 1335 319
is_linear=0
shrinkage=0.2


Tree=89
num_leaves=8
num_cat=0
split_feature=1 0 11 0 4 5 2
split_gain=0.519923 2.51497 2.2387 2.09886 1.56766 1.15592 0.747267
threshold=16.345238095238098 23.500000000000004 0.053342816500711203 25.500000000000004 11.748933487108788 0.64400921658986188 6.2948909167412941
decision_type=2 2 2 2 2 2 2
left_child=1 2 -1 5 -3 -2 -5
right_child=3 4 -4 6 -6 -7 -8
leaf_value=-0.025056359422815817 -0.021850714345150672 -0.063601780347429165 -0.21350653329107724 0.15455720945825213 0.19878067271641631 0.048341250609589208 -0.13561444113724874
leaf_weight=15.941863198619108 13.529723669920712 1.2347341214772303 2.9938505304162382 0.31271365180145849 2.8129525015683612 29.315503212039403 4.4544810111055995
leaf_count=377 418 33 52 18 37 921 138
internal_value=0 -0.0248852 -0.055862 0.0117079 0.116502 0.0259432 -0.113097
internal_weight=0 22.9834 18.9357 47.6124 4.04769 42.8452 4.76719
internal_count=1994 499 429 1495 70 1339 156
is_linear=0
shrinkage=0.2


Tree=90
num_leaves=8
num_cat=0
split_feature=10 3 10 6 6 11 6
split_gain=0.558786 1.48051 1.40875 1.40179 0.849598 1.89016 1.54716
threshold=0.051597363083164254 -0.26253132832080195 0.13961038961038957 3.1465433300876344 2.8619047619047624 0.065591397849462316 2.4907407407407409
decision_type=2 2 2 2 2 2 2
left_child=4 2 -2 -3 6 -6 -1
right_child=1 3 -4 -5 5 -7 -8
leaf_value=-0.010933292802408337 0.12997652100056029 -0.074769652313737667 -0.024833951095478562 0.18406223806761068 -0.10748119979036026 0.07564187262465831 0.1113438276480283
leaf_weight=36.421213511610404 7.0107134810841689 6.1198054342821697 3.3571221220263396 0.90411394796319644 8.4177816761766717 2.9672605964315144 4.6142203134404545
leaf_count=900 253 146 97 28 346 154 70
internal_value=0 0.0308121 0.0790101 -0.0389738 -0.0105071 -0.0587576 0.00269151
internal_weight=0 17.3918 10.3678 7.02392 52.4205 11.385 41.0354
internal_count=1994 524 350 174 1470 500 970
is_linear=0
shrinkage=0.2


Tree=91
num_leaves=8
num_cat=0
split_feature=6 5 5 2 0 2 6
split_gain=0.539495 1.9861 2.13138 2.00803 1.47441 2.14601 1.91308
threshold=2.0217391304347831 0.60737812911725964 0.70185185185185195 7.2619617356114805 11.500000000000002 8.3374051921243115 1.7182539682539686
decision_type=2 2 2 2 2 2 2
left_child=4 3 -3 -2 6 -6 -1
right_child=1 2 -4 -5 5 -7 -8
leaf_value=-0.050596949915671541 -0.091158973683354044 -0.15556471478263284 -0.012637809445017044 0.12123162612907444 0.13717347699306554 -0.00181807750865408 0.087903563224591502
leaf_weight=17.45754575368483 2.4149824500200356 5.9345266968084642 14.429110839639177 6.0793146714568138 7.6932620481820804 10.097686582470486 5.0848766620620145
leaf_count=349 113 160 397 155 557 171 92
internal_value=0 -0.0209494 -0.0550595 0.0594972 0.0148394 0.0579409 -0.0187875
internal_weight=0 28.8579 20.3636 8.4943 40.3334 17.7909 22.5424
internal_count=1994 825 557 268 1169 728 441
is_linear=0
shrinkage=0.2


Tree=92
num_leaves=8
num_cat=0
split_feature=2 0 1 7 7 3 1
split_gain=0.522857 1.79344 1.66567 1.10178 1.48691 1.10977 1.0464
threshold=5.5307305986715312 5.5000000000000009 13.878676470588237 0.76871657754010703 0.49137931034482768 -0.049450549450549393 17.981481481481485
decision_type=2 2 2 2 2 2 2
left_child=1 6 -3 4 -2 -5 -1
right_child=3 2 -4 5 -6 -7 -8
leaf_value=0.031573898694230378 -0.0046868701257899168 -0.11754562786594513 0.21952332349147985 -0.069139943215710487 -0.13731882843665918 0.31654379767231117 -0.09578798779644454
leaf_weight=9.0564352797810006 47.337827366607598 0.65345145773608182 2.9464081625192193 0.39118962921929779 3.6103185434549223 0.75596969926846103 3.5409606471657744
leaf_count=249 1220 14 219 45 127 22 98
internal_value=0 0.0313067 0.154826 -0.00978248 -0.014407 0.179275 -0.00367232
internal_weight=0 16.1973 3.59986 52.0953 50.9481 1.14716 12.5974
internal_count=1994 580 233 1414 1347 67 347
is_linear=0
shrinkage=0.2


Tree=93
num_leaves=8
num_cat=0
split_feature=9 3 4 3 6 2 6
split_gain=0.448622 1.66649 1.50416 0.876294 1.26941 0.929196 0.0523941
threshold=0.057189542483660101 1.2071428571428573 16.652475995000675 0.34523809523809529 1.5240274599542338 5.9208701546492906 1.648529411764706
decision_type=2 2 2 2 2 2 2
left_child=3 2 -2 5 -5 -1 -3
right_child=1 6 -4 4 -6 -7 -8
leaf_value=0.023029608141901498 0.094316767053059664 -0.053693391477985054 -0.18781240356323817 -0.05250460455278913 0.093101417904742162 -0.037323095954342959 -0.24877287936707715
leaf_weight=14.583569131820694 8.0032604378357011 0.25520068965852338 0.76695977486088018 3.4487268256780208 7.1741054869780783 32.623118561403317 0.64462364760402124
leaf_count=537 234 4 23 132 181 876 7
internal_value=0 0.0398076 0.0675859 -0.00662724 0.0448686 -0.0184621 -0.209713
internal_weight=0 9.67004 8.77022 57.8295 10.6228 47.2067 0.899824
internal_count=1994 268 257 1726 313 1413 11
is_linear=0
shrinkage=0.2


Tree=94
num_leaves=8
num_cat=0
split_feature=1 7 1 11 5 3 0
split_gain=0.472348 1.29685 1.36623 0.969849 1.86161 0.849563 0.657785
threshold=21.514705882352946 0.39208074534161491 22.828431372549023 0.084523809523809515 0.62731481481481499 -4.208333333333333 16.500000000000004
decision_type=2 2 2 2 2 2 2
left_child=3 2 -2 5 -5 -1 -3
right_child=1 6 -4 4 -6 -7 -8
leaf_value=0.14857393404959104 0.13893219513902591 -0.023182106318015473 0.007363222421191422 0.047864270243325374 -0.16538734472362562 -0.0041875473817881278 -0.25048940948725357
leaf_weight=1.4575533307215653 4.7948371072579929 1.6602340090030332 9.5922959861763939 2.6007400992675676 4.0441027676770318 42.004787756268342 0.77775923432636762
leaf_count=46 144 128 317 68 128 1131 32
internal_value=0 0.0288656 0.0522335 -0.00981635 -0.0806945 0.000870482 -0.103293
internal_weight=0 16.8251 14.3871 50.1072 6.64484 43.4623 2.43799
internal_count=1994 621 461 1373 196 1177 160
is_linear=0
shrinkage=0.2


Tree=95
num_leaves=6
num_cat=0
split_feature=13 14 1 2 6
split_gain=0.406394 0.439831 0.442632 0.258844 0.0673482
threshold=0.030330882352941155 0.080128205128205107 18.177115987460819 9.6193776298968867 1.8480769230769234
decision_type=2 2 2 2 2
left_child=1 2 -1 -2 -5
right_child=3 -3 -4 4 -6
leaf_value=-0.017387630723870433 0.1834470338421689 -0.23452964970658419 0.01544917783598225 0.050253231810441924 -0.10820276434201725
leaf_weight=32.631664943415672 0.73026034270878781 0.27423991321120311 32.889183862798745 0.0977480104775168 0.15446759929182008
leaf_count=729 90 5 1146 6 18
internal_value=0 -0.0020566 -0.000752978 0.124397 -0.015549
internal_weight=0 65.7951 65.5208 0.982476 0.252216
internal_count=1994 1880 1875 114 24
is_linear=0
shrinkage=0.2


Tree=96
num_leaves=8
num_cat=0
split_feature=2 6 15 0 1 3 2
split_gain=0.423568 0.846161 0.698713 0.800716 0.736679 0.653006 0.496942
threshold=11.143263911008328 1.2366946778711487 0.026709401709401653 3.5000000000000004 26.665789473684214 0.31534090909090912 11.491300076327789
decision_type=2 2 2 2 2 2 2
left_child=2 6 4 -4 -1 -3 -2
right_child=1 5 3 -5 -6 -7 -8
leaf_value=0.0035906114767636135 -0.11916254903469206 -0.14548785130980749 -0.22241841981605939 0.11534110560721698 -0.10993840593197218 0.027543552935661714 0.21954796972271728
leaf_weight=55.860032778218738 0.16210914636030693 2.8766118299208761 0.2409013351425523 3.4611494103010045 2.3321066943462929 1.0962084280035922 0.56802108944975771
leaf_count=1203 5 270 2 381 61 59 13
internal_value=0 -0.0576076 0.00434495 0.088026 -0.000877952 -0.0955091 0.128709
internal_weight=0 4.70295 61.8942 3.70205 58.1921 3.97282 0.73013
internal_count=1994 347 1647 383 1264 329 18
is_linear=0
shrinkage=0.2


Tree=97
num_leaves=5
num_cat=0
split_feature=0 0 6 0
split_gain=0.390895 0.434752 1.8991 1.09912
threshold=43.500000000000007 13.500000000000002 1.5857843137254903 10.500000000000002
decision_type=2 2 2 2
left_child=1 3 -3 -1
right_child=-2 2 -4 -5
leaf_value=0.0047085855284133404 -0.18192507729115009 0.10556705766323066 -0.010156216326682012 -0.079465873193199518
leaf_weight=28.404548244550824 0.4195360180001434 7.5586488616972956 21.817070144465106 7.8258232658081388
leaf_count=755 40 450 517 232
internal_value=0 0.00120716 0.0194094 -0.0132821
internal_weight=0 65.6061 29.3757 36.2304
internal_count=1994 1954 967 987
is_linear=0
shrinkage=0.2


Tree=98
num_leaves=4
num_cat=0
split_feature=0 1 5
split_gain=0.370521 0.462778 2.05972
threshold=1.0000000180025095e-35 1.5000000000000002 0.15476190476190474
decision_type=2 2 2
left_child=-1 -2 -3
right_child=1 2 -4
leaf_value=-0.22798336865163807 0.067642421863555 -0.19550921390831799 0.0036229980658001914
leaf_weight=0.2340807318687429 3.8725803792476645 2.1011949647363499 59.408626403052949
leaf_count=1 38 193 1762
internal_value=0 0.000919619 -0.00317025
internal_weight=0 65.3824 61.5098
internal_count=1994 1993 1955
is_linear=0
shrinkage=0.2


Tree=99
num_leaves=8
num_cat=0
split_feature=4 4 4 6 4 0 6
split_gain=0.393122 1.66741 2.21958 1.90378 1.40014 3.74153 1.26152
threshold=9.6293543722627692 8.1677058390472919 8.0565997370419886 2.5694980694980702 9.8081475192300527 13.500000000000002 2.9344086021505382
decision_type=2 2 2 2 2 2 2
left_child=1 2 -1 -3 5 -2 -6
right_child=4 3 -4 -5 6 -7 -8
leaf_value=0.0012772700095421913 -0.50009397748340678 0.025629522629828917 -0.3021488853030263 0.23309757405828957 0.011688692452094586 0.19058638385798429 -0.086050628621956712
leaf_weight=20.322741097337719 0.72082395292818435 5.7749744276516122 0.95927078535896626 2.5998976459377445 27.752199094329626 0.46740038876305334 6.4502152282566376
leaf_count=752 10 257 21 38 528 19 369
internal_value=0 0.0167654 -0.0126068 0.0922241 -0.0144256 -0.223606 -0.00655067
internal_weight=0 29.6569 21.282 8.37487 35.3906 1.18822 34.2024
internal_count=1994 1068 773 295 926 29 897
is_linear=0
shrinkage=0.2


Tree=100
num_leaves=8
num_cat=0
split_feature=7 6 1 7 2 3 0
split_gain=0.389995 1.54796 1.05314 0.634101 0.966409 0.819045 0.24282
threshold=0.76871657754010703 1.648529411764706 18.743421052631586 0.49137931034482768 7.2346162011038855 -13.749999999999998 4.5000000000000009
decision_type=2 2 2 2 2 2 2
left_child=3 6 -3 5 -5 -1 -2
right_child=1 2 -4 4 -6 -7 -8
leaf_value=0.30680617274923228 -0.19139804366343005 0.29130109277135002 -0.011953698913529549 0.044701405034746365 -0.14633130817854653 3.2012856771051415e-05 0.066554319568695855
leaf_weight=0.30066806334070761 0.68543377518653814 1.1402402388339394 0.63938719732323068 1.5473098009824742 2.8117030707744561 57.472686904611692 0.09041258692741394
leaf_count=4 21 35 74 36 113 1708 3
internal_value=0 0.0756339 0.179532 -0.00334381 -0.0765148 0.0020654 -0.14702
internal_weight=0 2.55547 1.77963 62.1324 4.35901 57.7734 0.775846
internal_count=1994 133 109 1861 149 1712 24
is_linear=0
shrinkage=0.2


Tree=101
num_leaves=8
num_cat=0
split_feature=1 0 1 9 0 2 5
split_gain=0.427474 1.0709 1.18678 0.718964 1.68285 0.945039 0.333054
threshold=21.514705882352946 22.500000000000004 22.944272445820438 0.074175824175824162 7.5000000000000009 9.7448743196070247 0.71583850931677029
decision_type=2 2 2 2 2 2 2
left_child=3 2 -2 5 -5 -1 -3
right_child=1 6 -4 4 -6 -7 -8
leaf_value=-0.0073888332912487864 0.12532083858124252 0 0.003167136687975693 -0.20203165026537176 0.099859009969643697 -0.099369398368136463 -0.2330284704522565
leaf_weight=37.652323449612595 4.6745432915777174 0.2676863233791672 10.295647790944711 0.79916131589561601 5.0520897587703075 5.0777941950873346 0.72473139277462906
leaf_count=1040 144 38 391 12 172 149 48
internal_value=0 0.0282115 0.0422664 -0.00946282 0.0555699 -0.0186564 -0.166065
internal_weight=0 15.9626 14.9702 48.5814 5.85125 42.7301 0.992418
internal_count=1994 621 535 1373 184 1189 86
is_linear=0
shrinkage=0.2


Tree=102
num_leaves=8
num_cat=0
split_feature=1 0 10 0 4 10 2
split_gain=0.362289 1.73559 1.79665 1.5009 1.37095 1.0463 1.00761
threshold=16.604347826086961 23.500000000000004 0.053342816500711203 22.500000000000004 12.342510324432594 0.13961038961038957 6.2948909167412941
decision_type=2 2 2 2 2 2 2
left_child=1 2 -1 5 -3 -2 -5
right_child=3 4 -4 6 -6 -7 -8
leaf_value=-0.075669528947293382 0.036085160998472962 -0.071571954674511384 0.090443627565386556 0.17844252939356378 0.18577283167130143 -0.075785424384441039 -0.11929345622370198
leaf_weight=15.033091597644676 33.466676917396398 1.1253831863868975 3.0541321399214203 0.43405273015377943 2.5025979655474657 3.6187273310097217 4.644921283847907
leaf_count=372 1115 36 80 37 38 115 201
internal_value=0 -0.0211577 -0.046897 0.0106059 0.103339 0.0248124 -0.0904075
internal_weight=0 21.7152 18.0872 42.1644 3.62798 37.0854 5.07897
internal_count=1994 526 452 1468 74 1230 238
is_linear=0
shrinkage=0.2


Tree=103
num_leaves=7
num_cat=0
split_feature=2 3 3 5 6 2
split_gain=0.414473 1.47491 1.34417 1.16796 1.3572 0.797732
threshold=8.117878087959463 4.5576923076923084 -1.180194805194805 0.82732919254658399 1.3603896103896107 8.2308144864232577
decision_type=2 2 2 2 2 2
left_child=1 2 -1 5 -5 -2
right_child=3 -3 -4 4 -6 -7
leaf_value=-0.054078887381350874 -0.18657604116148885 -0.24311190241971339 0.039917225521004338 0.20551231411812543 -0.19281197083398302 0.0029697699715170514
leaf_weight=7.6026240040810071 0.87215869064676255 0.81942979339510102 28.667192909146252 0.33019794333085828 2.4886236790316616 22.409144737496717
leaf_count=183 19 17 1063 9 119 584
internal_value=0 0.0134924 0.0198918 -0.0193764 -0.139898 -0.00408697
internal_weight=0 37.0892 36.2698 26.1001 2.81882 23.2813
internal_count=1994 1263 1246 731 128 603
is_linear=0
shrinkage=0.2


Tree=104
num_leaves=8
num_cat=0
split_feature=3 3 6 3 0 3 4
split_gain=0.33658 1.38689 1.31582 0.895077 1.08782 0.630156 0.396609
threshold=2.7750000000000004 4.2222222222222223 1.7445652173913044 1.2071428571428573 21.500000000000004 1.0238095238095239 13.843870559108655
decision_type=2 2 2 2 2 2 2
left_child=3 6 -3 5 -5 -1 -2
right_child=1 2 -4 4 -6 -7 -8
leaf_value=-0.00058980991601325684 0.26604111284224546 -0.21437950967995528 0.11080857236811488 -0.068218821757177459 -0.51010831438304982 0.19417637070594276 -0.064274705718992006
leaf_weight=56.226305487529316 1.0872115970123553 0.88235860527493037 0.98604406919912435 2.4276825898268721 0.21299820509739209 0.6215474163327589 0.093563090493262169
leaf_count=1832 17 14 34 62 4 22 9
internal_value=0 0.0639659 -0.0391346 -0.0036275 -0.116395 0.00153268 0.230194
internal_weight=0 3.04918 1.8684 59.4885 2.64068 56.8479 1.18077
internal_count=1994 74 48 1920 66 1854 26
is_linear=0
shrinkage=0.2


Tree=105
num_leaves=8
num_cat=0
split_feature=11 6 1 0 0 0 0
split_gain=0.323609 0.538449 0.382355 1.38047 1.25078 0.225328 0.103301
threshold=0.2264957264957265 1.648529411764706 16.345238095238098 30.500000000000004 33.500000000000007 14.500000000000002 3.5000000000000004
decision_type=2 2 2 2 2 2 2
left_child=2 6 3 -1 -4 -3 -2
right_child=1 5 4 -5 -6 -7 -8
leaf_value=-0.036492121550839342 -0.04012887312247955 -0.22087781104131207 0.020032905357755214 0.14981879977856263 -0.1687589833400632 0.028329488252727377 0.1355749178591503
leaf_weight=18.700755496014612 0.073130348930134259 0.78432474261171592 39.37792223755423 1.6748337644239644 1.3978035246500429 0.080790261164111143 0.29953180573647842
leaf_count=459 5 31 1386 32 62 8 11
internal_value=0 -0.0994985 0.00179218 -0.0203589 0.0131174 -0.186401 0.0767674
internal_weight=0 1.23778 61.1513 20.3756 40.7757 0.865115 0.372662
internal_count=1994 55 1939 491 1448 39 16
is_linear=0
shrinkage=0.2


Tree=106
num_leaves=8
num_cat=0
split_feature=6 4 2 5 5 6 15
split_gain=0.375387 0.715501 1.5326 0.615781 1.0779 0.956608 0.0220988
threshold=2.8918128654970769 5.8697565649361794 5.0180201650395242 0.85113636363636369 0.78679653679653694 1.1455026455026456 0.12132352941176471
decision_type=2 2 2 2 2 2 2
left_child=3 6 -3 4 -1 -5 -2
right_child=1 2 -4 5 -6 -7 -8
leaf_value=0.012864708766874025 -0.18702476005932836 0.25600564609922177 -0.036646880296877529 -0.054211400032352502 -0.071287119714281352 0.11531802898199595 0
leaf_weight=36.634025215200381 1.0746942837286031 0.71614959230646391 10.079655916932095 1.7595459799922526 7.2461620085286986 4.4778376635003951 0.0080923878704196595
leaf_count=977 129 9 446 84 187 160 2
internal_value=0 -0.0321746 -0.0152208 0.00729256 -0.000869404 0.065853 -0.18425
internal_weight=0 11.8786 10.7958 50.1176 43.8802 6.23738 1.08279
internal_count=1994 586 455 1408 1164 244 131
is_linear=0
shrinkage=0.2


Tree=107
num_leaves=8
num_cat=0
split_feature=2 15 0 1 0 1 4
split_gain=0.331188 0.559652 0.598932 0.573062 0.548729 0.612976 0.213539
threshold=11.143263911008328 0.026709401709401653 3.5000000000000004 26.665789473684214 5.5000000000000009 22.828431372549023 18.056655713926265
decision_type=2 2 2 2 2 2 2
left_child=1 3 -3 -1 6 -6 -2
right_child=4 2 -4 -5 5 -7 -8
leaf_value=0.0030970720851994852 -0.068890681528824438 -0.19244853763449521 0.11076535483471034 -0.10132124568518396 -0.013028155059880321 -0.18571479066017574 0.17362602385626283
leaf_weight=52.01690420108207 0.10063329666445398 0.2177166193723673 2.9800631740072276 2.1387925269227699 2.2153411237068217 1.4136482521716969 0.47685881460529345
leaf_count=1203 22 2 381 61 115 185 25
internal_value=0 0.00372082 0.0843975 -0.000931936 -0.0540905 -0.084625 0.113307
internal_weight=0 57.3535 3.19778 54.1557 4.20648 3.62899 0.577492
internal_count=1994 1647 383 1264 347 300 47
is_linear=0
shrinkage=0.2


Tree=108
num_leaves=8
num_cat=0
split_feature=1 0 2 4 4 4 1
split_gain=0.300904 0.777836 1.63415 0.714281 1.76253 1.31577 0.541792
threshold=21.514705882352946 3.5000000000000004 7.3322064636900057 9.6293543722627692 8.6124357645150216 9.8525980151181241 24.975000000000005
decision_type=2 2 2 2 2 2 2
left_child=3 6 -3 4 -1 -5 -2
right_child=1 2 -4 5 -6 -7 -8
leaf_value=-0.0094863720135318994 -0.18520033860429785 0.16588844816062959 0.00063507311063741925 -0.21361415811997603 0.13132912098387581 -0.020338145340809639 0.002652029574024392
leaf_weight=19.592234551630103 1.0265469874721014 3.2231623199986634 9.370036875965523 1.48274131822109 4.2686138827411915 20.954285840787634 1.1923048172357082
leaf_count=700 30 147 377 34 157 482 67
internal_value=0 0.0244165 0.0442105 -0.00828036 0.0155087 -0.034002 -0.082016
internal_weight=0 14.8121 12.5932 46.2979 23.8608 22.437 2.21885
internal_count=1994 621 524 1373 857 516 97
is_linear=0
shrinkage=0.2


Tree=109
num_leaves=6
num_cat=0
split_feature=14 6 5 1 15
split_gain=0.327055 0.332067 1.41249 1.00955 0.146183
threshold=0.080128205128205107 2.0217391304347831 0.60737812911725964 17.707142857142859 0.13100686498855832
decision_type=2 2 2 2 2
left_child=1 3 -3 -1 -2
right_child=4 2 -4 -5 -6
leaf_value=-0.017068253643151499 -0.25310040707527154 0.056064149179648928 -0.047465937988444368 0.050610250789537653 0
leaf_weight=19.116766117862426 0.24470721464604039 7.3928783207593396 17.670877028495852 16.078465976515872 0.04145860590506345
leaf_count=449 2 268 557 713 5
internal_value=0 0.000916332 -0.0164794 0.013594 -0.196889
internal_weight=0 60.259 25.0638 35.1952 0.286166
internal_count=1994 1987 825 1162 7
is_linear=0
shrinkage=0.2


Tree=110
num_leaves=5
num_cat=0
split_feature=1 1 5 0
split_gain=0.317056 1.61214 0.83328 0.452001
threshold=1.5000000000000002 10.986842105263159 0.15476190476190474 1.0000000180025095e-35
decision_type=2 2 2 2
left_child=3 -2 -3 -1
right_child=1 2 -4 -5
leaf_value=-0.19370146362321847 -0.19723402971268192 -0.18250032837907559 0.0051020617841529151 0.070813081542399667
