tree
version=v4
num_class=1
num_tree_per_iteration=1
label_index=0
max_feature_idx=16
objective=binary sigmoid:1
feature_names=sentence_count mean_words_per_sentence std_words_per_sentence neighbor_sentences_diff neighbor_sentences_diff_std abbrev_per_sentence captials_per_sentence avg_dash_quest_semicolon_per_sentence double_quest_excl_count avg_excl_per_sentence human_fillers ai_fillers ai_fillers2 woke fake_news ai_words1 ai_words2
feature_infos=[1:27] [1:64.5] [0:23.976840677805928] [-34:35] [0:29.377542443165662] [0:1.25] [0:8.5] [0:1.6666666666666667] [0:2] [0:0.66666666666666663] [0:1] [0:1] [0:0.16666666666666666] [0:0.5] [0:0.33333333333333331] [0:0.5] [0:0.25]
tree_sizes=942 939 841 938 836 842 847 938 842 950 845 946 647 847 653 952 652 948 854 848 650 852 636 845 946 651 843 939 865 950 849 930 925 931 932 939 762 854 959 944 659 659 939 754 838 859 865 965 930 862 946 827 966 753 947 951 947 758 961 659 958 965 966 836 955 851 956 740 933 818 739 659 726 968 926

Tree=0
num_leaves=8
num_cat=0
split_feature=0 15 1 1 4 0 0
split_gain=505.725 42.2726 45.9383 12.5383 8.66972 8.66385 5.10963
threshold=7.5000000000000009 0.13484848484848486 1.5000000000000002 15.633333333333335 13.954121676486745 3.5000000000000004 10.500000000000002
decision_type=2 2 2 2 2 2 2
left_child=1 2 -1 6 -5 -3 -2
right_child=3 5 -4 4 -6 -7 -8
leaf_value=0.36200069561280579 -0.31548033726908281 -0.30065412995239627 -0.30831732994684929 0.45156721184002369 0.20298335787321775 0.41151375512595434 0.40870079905127976
leaf_weight=4.2437473088502875 1.2481609731912602 0.74889658391475578 85.12457837164402 79.63267008960247 6.2408048659563056 4.4933795034885406 0.49926438927650441
leaf_count=17 5 3 341 319 25 18 2
internal_value=0.07675 -0.243803 -0.276233 0.422859 0.433702 0.305282 -0.0995296
internal_weight=0 94.6106 89.3683 87.6209 85.8735 5.24228 1.74743
internal_count=730 379 358 351 344 21 7
is_linear=0
shrinkage=1


Tree=1
num_leaves=8
num_cat=0
split_feature=0 15 1 1 7 0 0
split_gain=337.239 27.7161 30.2602 8.50236 6.93792 5.90189 3.48862
threshold=7.5000000000000009 0.13484848484848486 1.5000000000000002 15.633333333333335 0.58571428571428574 3.5000000000000004 10.500000000000002
decision_type=2 2 2 2 2 2 2
left_child=1 2 -1 6 -5 -3 -2
right_child=3 5 -4 4 -6 -7 -8
leaf_value=0.23671353648507695 -0.32438598539360991 -0.31308243557955445 -0.31539781483800639 0.30509983038878991 -0.4154532020555739 0.28060716488876852 0.28259919326807442
leaf_weight=4.1137507110834113 1.2194062769412983 0.73330342769622703 83.255713284015656 81.519708037376404 0.48511882126331229 4.3147392868995667 0.47968825697898854
leaf_count=17 5 3 341 342 2 18 2
internal_value=0 -0.262787 -0.289167 0.29124 0.300465 0.190179 -0.144125
internal_weight=0 92.4175 87.3695 83.7039 82.0048 5.04804 1.69909
internal_count=730 379 358 351 344 21 7
is_linear=0
shrinkage=0.2


Tree=2
num_leaves=7
num_cat=0
split_feature=0 15 1 0 15 0
split_gain=237.689 19.326 21.2226 8.15883 16.0301 4.75485
threshold=7.5000000000000009 0.13484848484848486 1.5000000000000002 11.500000000000002 0.085144927536231887 4.5000000000000009
decision_type=2 2 2 2 2 2
left_child=1 2 -1 4 -2 -3
right_child=3 5 -4 -5 -6 -7
leaf_value=0.2019314340863792 -0.071550211273886791 -0.14322803130658007 -0.27332234597352401 0.29471684542018284 0.29397978058419344 0.29271447572860704
leaf_weight=3.8907877951860419 8.0735218226909655 1.3504768162965763 77.468366160988808 57.15765506029129 11.594400629401205 3.3344730734825134
leaf_count=17 36 6 341 262 53 15
internal_value=0 -0.227561 -0.250362 0.256285 0.143625 0.164753
internal_weight=0 86.0441 81.3592 76.8256 19.6679 4.68495
internal_count=730 379 358 351 89 21
is_linear=0
shrinkage=0.2


Tree=3
num_leaves=8
num_cat=0
split_feature=0 15 1 4 15 1 2
split_gain=172.952 14.0452 15.405 7.78411 10.6939 4.28876 3.6516
threshold=7.5000000000000009 0.13484848484848486 1.5000000000000002 13.538411343955962 0.057189542483660136 15.633333333333335 8.4713475755524446
decision_type=2 2 2 2 2 2 2
left_child=1 2 -1 5 -5 -2 -3
right_child=3 6 -4 4 -6 -7 -8
leaf_value=0.17463153898837017 -0.095002735370208508 0.23806141438928641 -0.24418214618987993 -0.2063024708134622 0.27861392168997079 0.26233223453443322 -0.20782618329506619
leaf_weight=3.6355724632740012 1.3088237643241871 3.4533012062311164 70.163119062781334 3.6212070882320395 3.545770600438118 60.52124397456646 0.86476120352745045
leaf_count=17 6 17 341 16 17 312 4
internal_value=0 -0.202737 -0.22331 0.231656 0.0324863 0.254536 0.145119
internal_weight=0 78.1168 73.7987 68.997 7.16698 61.8301 4.31806
internal_count=730 379 358 351 33 318 21
is_linear=0
shrinkage=0.2


Tree=4
num_leaves=7
num_cat=0
split_feature=0 15 1 0 2 0
split_gain=128.275 10.3834 11.4153 6.98574 11.4905 3.24473
threshold=7.5000000000000009 0.13484848484848486 1.5000000000000002 11.500000000000002 8.7345814387627811 4.5000000000000009
decision_type=2 2 2 2 2 2
left_child=1 2 -1 4 -2 -3
right_child=3 5 -4 -5 -6 -7
leaf_value=0.15188362998070359 0.19690232221249515 -0.12294759145913368 -0.22199424787201061 0.25496249029709522 -0.184109126817319 0.25307608897437195
leaf_weight=3.380400449037551 12.638376489281656 1.3062727600336068 62.568654760718346 44.215398401021957 4.1501972973346701 2.6756180226802826
leaf_count=17 69 6 341 262 20 15
internal_value=0 -0.183577 -0.202578 0.213108 0.101854 0.127245
internal_weight=0 69.9309 65.9491 61.004 16.7886 3.98189
internal_count=730 379 358 351 89 21
is_linear=0
shrinkage=0.2


Tree=5
num_leaves=7
num_cat=0
split_feature=0 15 1 0 15 0
split_gain=95.9631 7.79474 8.56685 6.5464 11.1886 2.61101
threshold=7.5000000000000009 0.13484848484848486 1.5000000000000002 11.500000000000002 0.085144927536231887 3.5000000000000004
decision_type=2 2 2 2 2 2
left_child=1 2 -1 4 -2 -3
right_child=3 5 -4 -5 -6 -7
leaf_value=0.1321901163482142 -0.087516742941876724 -0.2447071260286304 -0.20379984530946327 0.24247122797176313 0.24751006870590278 0.1923752104879454
leaf_weight=3.1418459564447394 7.5294712930917731 0.60295777022838537 55.316080376505852 37.867299497127533 8.3087655603885633 3.0095871239900589
leaf_count=17 36 3 341 262 53 18
internal_value=0 -0.167785 -0.185473 0.197178 0.0878353 0.114348
internal_weight=0 62.0705 58.4579 53.7055 15.8382 3.61254
internal_count=730 379 358 351 89 21
is_linear=0
shrinkage=0.2


Tree=6
num_leaves=7
num_cat=0
split_feature=0 0 15 15 6 0
split_gain=72.5391 6.00605 8.65734 5.80563 6.57063 2.23899
threshold=7.5000000000000009 11.500000000000002 0.085144927536231887 0.13484848484848486 1.0000000180025095e-35 4.5000000000000009
decision_type=2 2 2 2 2 2
left_child=3 2 -2 4 -1 -5
right_child=1 -3 -4 5 -6 -7
leaf_value=0.092294954489821432 -0.068777789684376284 0.233154378713297 0.23624700049656067 -0.10670155845877088 -0.18971839966535842 0.22904019134150544
leaf_weight=3.4694937765598288 7.6612421125173551 32.111867070198059 7.0944689214229584 1.1952408999204629 48.165464773774147 2.0444160997867584
leaf_count=21 36 262 53 6 337 15
internal_value=0 0.184498 0.0775037 -0.154133 -0.170505 0.102393
internal_weight=0 46.8676 14.7557 54.8746 51.635 3.23966
internal_count=730 351 89 379 358 21
is_linear=0
shrinkage=0.2


Tree=7
num_leaves=8
num_cat=0
split_feature=0 4 5 15 6 1 1
split_gain=55.8294 13.19 6.63373 6.10388 5.32281 3.39357 1.91047
threshold=5.5000000000000009 13.954121676486745 0.22500000000000003 0.057189542483660136 3.5500000000000003 31.833333333333339 21.973684210526319
decision_type=2 2 2 2 2 2 2
left_child=2 4 5 -3 -2 -1 -4
right_child=1 3 6 -5 -6 -7 -8
leaf_value=0.015279647656937831 0.2015807931198158 -0.20857773502986304 -0.23436128430799841 0.22356154152868518 -0.25036468140190621 0.91470371717500731 -0.13510245898403755
leaf_weight=4.612957000732421 40.536140032112598 5.3816012889146796 23.103252083063126 1.6575626879930494 1.0095772594213475 0.12553222477436055 13.035739198327063
leaf_count=31 362 33 182 13 6 1 102
internal_value=0 0.147115 -0.16987 -0.104549 0.19007 0.0504978 -0.19907
internal_weight=0 48.5849 40.8775 7.03916 41.5457 4.73849 36.139
internal_count=730 414 316 46 368 32 284
is_linear=0
shrinkage=0.2


Tree=8
num_leaves=7
num_cat=0
split_feature=0 15 2 0 6 9
split_gain=43.9907 10.3387 5.85885 1.89644 1.8054 1.22783
threshold=9.5000000000000018 0.10818713450292398 6.3564671631248357 3.5000000000000004 3.7083333333333335 0.12250000000000001
decision_type=2 2 2 2 2 2
left_child=1 2 -1 -3 5 -2
right_child=4 3 -4 -5 -6 -7
leaf_value=-0.074415569423548572 0.20957758205561175 -0.20402205976285637 -0.21910868908341641 0.19692403372044454 -0.28209555023216853 -0.14476683536091545
leaf_weight=25.260397925972939 28.109188273549087 0.45957331359386344 20.605751268565655 4.6773651838302612 0.24921827018260856 0.33030143380165
leaf_count=206 301 3 175 42 1 2
internal_value=0 -0.10954 -0.139806 0.157505 0.199803 0.204864
internal_weight=0 51.0031 45.8661 5.13694 28.6887 28.4395
internal_count=730 426 381 45 304 303
is_linear=0
shrinkage=0.2


Tree=9
num_leaves=8
num_cat=0
split_feature=0 2 0 4 0 15 1
split_gain=33.4847 6.69309 10.7397 4.24085 5.32852 0.944624 0.689823
threshold=8.5000000000000018 7.3408239763777958 3.5000000000000004 12.912009541627148 11.500000000000002 0.12132352941176472 16.935416666666672
decision_type=2 2 2 2 2 2 2
left_child=1 2 -1 6 -5 -3 -2
right_child=3 5 -4 4 -6 -7 -8
leaf_value=-0.15467041348653404 0.070830365684692573 -0.23182547867792402 0.092167404116720489 -0.19607929585547793 0.21807421144887063 -0.025308313044687565 0.22001535659528285
leaf_weight=16.715903751552109 1.5955836549401343 13.581268474459646 12.074092321097849 2.5150329396128646 2.3588017597794533 1.0790084525942791 21.150898844003677
leaf_count=150 12 140 107 13 26 9 273
internal_value=0 -0.107457 -0.0508233 0.173956 0.00250774 -0.217443 0.210168
internal_weight=0 43.4503 28.79 27.6203 4.87383 14.6603 22.7465
internal_count=730 406 257 324 39 149 285
is_linear=0
shrinkage=0.2


Tree=10
num_leaves=7
num_cat=0
split_feature=0 15 6 0 0 2
split_gain=25.6431 6.18661 5.29199 1.70821 1.58496 3.47288
threshold=9.5000000000000018 0.10818713450292398 1.0000000180025095e-35 4.5000000000000009 11.500000000000002 8.7345814387627811
decision_type=2 2 2 2 2 2
left_child=1 2 -1 -3 5 -2
right_child=4 3 -4 -5 -6 -7
leaf_value=0.11963515155510435 0.18884808567529393 -0.070804897190819449 -0.13439649417636629 0.21481630024452314 0.21357927008237218 -0.18956056900759904
leaf_weight=3.5342101007699958 3.1696552187204388 1.0406380295753468 35.431436404585838 3.17624282091856 16.283967010676861 1.3211008533835409
leaf_count=21 34 6 360 39 262 8
internal_value=0 -0.0859065 -0.110976 0.141984 0.184239 0.0744632
internal_weight=0 43.1825 38.9656 4.21688 20.7747 4.49076
internal_count=730 426 381 45 304 42
is_linear=0
shrinkage=0.2


Tree=11
num_leaves=8
num_cat=0
split_feature=0 4 5 15 1 11 1
split_gain=20.9456 6.5163 6.1164 5.36387 4.89285 3.40612 2.82422
threshold=5.5000000000000009 12.343284456941506 0.22500000000000003 0.042572463768115944 13.125000000000002 0.19375000000000003 21.973684210526319
decision_type=2 2 2 2 2 2 2
left_child=2 4 5 -3 -2 -1 -4
right_child=1 3 6 -5 -6 -7 -8
leaf_value=0.050228421531138649 -0.24115930451971021 -0.16601603904398132 -0.21895788185848108 0.20962126285168736 0.19207136548897755 0.97777566924589687 -0.071088769479284705
leaf_weight=4.4428050220012691 1.0340423583984435 4.8308771550655356 14.484204538166525 2.1457820311188698 21.585958540439606 0.11672024428844441 8.489691346883772
leaf_count=31 7 44 182 32 331 1 102
internal_value=0 0.119211 -0.122928 -0.0483902 0.171337 0.0864908 -0.165022
internal_weight=0 29.5967 27.5334 6.97666 22.62 4.55953 22.9739
internal_count=730 414 316 76 338 32 284
is_linear=0
shrinkage=0.2


Tree=12
num_leaves=5
num_cat=0
split_feature=0 15 2 0
split_gain=16.0167 6.60253 6.24473 1.30038
threshold=11.500000000000002 0.085144927536231887 7.2079747773166281 4.5000000000000009
decision_type=2 2 2 2
left_child=1 2 -1 -3
right_child=-2 3 -4 -5
leaf_value=-0.027130647389569714 0.208918301061191 -0.034507584591870491 -0.2058313469110809 0.20971289726250034
leaf_weight=22.896193407475948 11.540543988347052 1.0178088545799244 11.974656283855436 3.8892768025398254
leaf_count=238 262 6 156 68
internal_value=0 -0.0582086 -0.0889897 0.157203
internal_weight=0 39.7779 34.8708 4.90709
internal_count=730 468 394 74
is_linear=0
shrinkage=0.2


Tree=13
num_leaves=7
num_cat=0
split_feature=0 5 15 4 1 1
split_gain=12.9718 4.75899 4.34784 6.07946 3.10917 1.77304
threshold=5.5000000000000009 0.22500000000000003 1.0000000180025095e-35 10.514315506452791 21.973684210526319 31.833333333333339
decision_type=2 2 2 2 2 2
left_child=1 5 3 -2 -3 -1
right_child=2 4 -4 -5 -6 -7
leaf_value=0.046088351053823667 0.1472545413927793 -0.21326647764649742 0.20681153728774362 -0.12306665833719384 -0.044271104855800311 0.62322862542926183
leaf_weight=4.4102002829313305 7.7681938856840151 11.419857025146486 10.00536462664604 5.719684511423111 7.3446181640028945 0.17957270145416249
leaf_count=31 91 182 264 59 102 1
internal_value=0 -0.103181 0.10707 0.031852 -0.147945 0.0772968
internal_weight=0 23.3542 23.4932 13.4879 18.7645 4.58977
internal_count=730 316 414 150 284 32
is_linear=0
shrinkage=0.2


Tree=14
num_leaves=5
num_cat=0
split_feature=0 2 1 15
split_gain=10.5891 4.56954 6.73324 2.24857
threshold=11.500000000000002 8.4988917792750787 22.055555555555561 0.085144927536231887
decision_type=2 2 2 2
left_child=1 2 -1 -3
right_child=-2 3 -4 -5
leaf_value=-0.068368758290348067 0.20569195402864185 -0.22533902069777048 0.15628561673234243 0.098750887513476215
leaf_weight=19.846281047910455 8.1925005409866554 6.5806798599660388 7.2366265393793574 0.90843338146805752
leaf_count=252 262 112 91 13
internal_value=0 -0.0465309 -0.00779456 -0.184306
internal_weight=0 34.572 27.0829 7.48911
internal_count=730 468 343 125
is_linear=0
shrinkage=0.2


Tree=15
num_leaves=8
num_cat=0
split_feature=0 2 0 7 6 4 15
split_gain=8.68489 5.03797 5.97124 2.51472 1.98361 1.18932 0.180875
threshold=8.5000000000000018 7.3408239763777958 3.5000000000000004 0.18465909090909094 1.7735042735042736 15.810190414384907 0.12132352941176472
decision_type=2 2 2 2 2 2 2
left_child=1 2 -1 5 -5 -2 -3
right_child=3 6 -4 4 -6 -7 -8
leaf_value=-0.1100445653818396 0.21000043289876522 -0.22069361951396305 0.10133378663061623 0.10201518225372391 -0.2424940314170988 -0.11553665025903637 -0.081872859708355394
leaf_weight=11.338041055947548 8.8027056381106341 6.0945027749985448 10.008505173027514 1.7932069618254893 0.99083405546843994 0.40200951322913248 0.74006491526961315
leaf_count=150 273 140 107 38 8 5 9
internal_value=0 -0.0589655 -0.0104655 0.143909 -0.0191814 0.194155 -0.207818
internal_weight=0 28.1811 21.3465 11.9888 2.78404 9.20472 6.83457
internal_count=730 406 257 324 46 278 149
is_linear=0
shrinkage=0.2


Tree=16
num_leaves=5
num_cat=0
split_feature=0 5 4 15
split_gain=6.81868 4.46317 5.29636 1.07135
threshold=11.500000000000002 0.97619047619047628 10.480387603409488 0.097619047619047633
decision_type=2 2 2 2
left_child=1 2 -1 -3
right_child=-2 3 -4 -5
leaf_value=0.07285646555140611 0.20205358822637601 -0.18084169274635081 -0.13590930637063137 0.050822293690307309
leaf_weight=16.252737542614344 5.6733648218214503 7.773974761366846 6.8665455207228652 0.79528518393635739
leaf_count=207 262 132 115 14
internal_value=0 -0.0351057 0.0102609 -0.158011
internal_weight=0 31.6885 23.1193 8.56926
internal_count=730 468 322 146
is_linear=0
shrinkage=0.2


Tree=17
num_leaves=8
num_cat=0
split_feature=0 6 4 1 0 1 1
split_gain=6.08266 6.34539 5.1311 4.99306 3.98892 1.62619 1.27031
threshold=3.5000000000000004 1.0000000180025095e-35 10.514315506452791 21.31666666666667 8.5000000000000018 1.5000000000000002 31.833333333333339
decision_type=2 2 2 2 2 2 2
left_child=1 5 3 -2 -4 -1 -3
right_child=2 6 4 -5 -6 -7 -8
leaf_value=0.18113584933643728 0.038014088710942411 -0.22056675595266625 -0.19426216965219958 0.28090959445506619 0.074062818307833567 -0.1907115242354307 0.072471651647712881
leaf_weight=2.8140113353729244 8.6848938930779713 8.3577095195651019 4.3345128092914802 5.6415590811520806 4.37417221814394 0.49550380930304516 0.55965609662234861
leaf_count=16 196 171 101 127 105 5 9
internal_value=0 -0.112857 0.0613721 0.135003 -0.0586935 0.120476 -0.200759
internal_weight=0 12.2269 23.0351 14.3265 8.70869 3.30952 8.91737
internal_count=730 201 529 323 206 21 180
is_linear=0
shrinkage=0.2


Tree=18
num_leaves=7
num_cat=0
split_feature=15 5 2 0 3 2
split_gain=5.24208 3.37368 3.22275 0.944728 0.835538 0.732128
threshold=1.0000000180025095e-35 0.97619047619047628 8.4988917792750787 4.5000000000000009 2.2678571428571432 8.4713475755524446
decision_type=2 2 2 2 2 2
left_child=1 2 -1 5 -3 -2
right_child=3 4 -4 -5 -6 -7
leaf_value=0.03675849527156471 0.14348223496820306 -0.20939843710611644 -0.17484425824809988 0.20189097535284017 -0.034885340857222218 -0.20889432937056487
leaf_weight=17.2094573089853 0.43293973058462043 4.6164422184228888 3.404614742845296 5.0750118605792522 1.6562218833714721 0.39868244528770447
leaf_count=239 3 90 86 266 43 3
internal_value=0 -0.0377275 0.000987808 0.169602 -0.165542 -0.016372
internal_weight=0 26.8867 20.6141 5.90663 6.27266 0.831622
internal_count=730 458 325 272 133 6
is_linear=0
shrinkage=0.2


Tree=19
num_leaves=7
num_cat=0
split_feature=0 0 4 1 0 1
split_gain=4.32236 4.73887 3.20508 3.61838 2.88654 0.621217
threshold=3.5000000000000004 1.5000000000000002 10.514315506452791 18.228758169934643 8.5000000000000018 31.833333333333339
decision_type=2 2 2 2 2 2
left_child=1 5 3 -2 -4 -1
right_child=2 -3 4 -5 -6 -7
leaf_value=0.048234008767361017 -0.034316483301240645 -0.2073711573993535 -0.18329142465339709 0.18378952116049907 0.063537318337289983 0.36276972036238986
leaf_weight=3.2568077929317973 4.4811185505241182 6.586972676217556 3.5248796744272104 8.9069790644571167 3.9156550914049149 0.24328127503395069
leaf_count=28 75 172 101 248 105 1
internal_value=0 -0.107568 0.0516044 0.110187 -0.0525033 0.0777147
internal_weight=0 10.0871 20.8286 13.3881 7.44053 3.50009
internal_count=730 201 529 323 206 29
is_linear=0
shrinkage=0.2


Tree=20
num_leaves=5
num_cat=0
split_feature=0 5 1 4
split_gain=3.8568 2.18101 2.31447 1.02155
threshold=11.500000000000002 0.97619047619047628 21.218253968253972 9.0011109739707624
decision_type=2 2 2 2
left_child=1 2 -1 -3
right_child=-2 3 -4 -5
leaf_value=-0.049112539972094277 0.19835196909754571 -0.1845120365112487 0.090820846787746393 0.006522798712581517
leaf_weight=12.546813255175957 3.3706753551959983 4.2850462757050982 7.5104874949902287 1.3711843313649295
leaf_count=196 262 101 126 45
internal_value=0 -0.0276596 0.00288395 -0.136798
internal_weight=0 25.7135 20.0573 5.65623
internal_count=730 468 322 146
is_linear=0
shrinkage=0.2


Tree=21
num_leaves=7
num_cat=0
split_feature=15 2 1 0 0 2
split_gain=3.30384 2.13644 2.55593 1.38506 0.623126 0.403658
threshold=1.0000000180025095e-35 8.4988917792750787 24.937500000000004 12.500000000000002 4.5000000000000009 8.4713475755524446
decision_type=2 2 2 2 2 2
left_child=1 2 -1 -3 5 -2
right_child=4 3 -4 -5 -6 -7
leaf_value=-0.03643823901041162 0.12056309013637589 -0.21619367872645245 0.15025267881105431 0.16363185950065495 0.1990083189528947 -0.17559249682939823
leaf_weight=16.913189256563793 0.34745848178863425 3.1550659509375687 3.4933613780885926 0.36884192563593377 3.400279856286943 0.28636281937360764
leaf_count=299 3 112 38 9 266 3
internal_value=0 -0.0291941 -0.00370098 -0.171907 0.165395 -0.0016729
internal_weight=0 23.9305 20.4066 3.52391 4.0341 0.633821
internal_count=730 458 337 121 272 6
is_linear=0
shrinkage=0.2


Tree=22
num_leaves=5
num_cat=0
split_feature=0 6 2 1
split_gain=2.63566 2.02403 2.66781 2.45733
threshold=11.500000000000002 3.0277777777777781 1.4571067811865477 21.218253968253972
decision_type=2 2 2 2
left_child=1 3 -3 -1
right_child=-2 2 -4 -5
leaf_value=-0.050039269181879342 0.19504704127239481 0.3171968082011703 -0.25688659758147753 0.090394447800249203
leaf_weight=13.978418578393766 2.4461273043416432 0.31522372923791353 2.3957263808697462 7.68051161058247
leaf_count=262 262 5 49 152
internal_value=0 -0.0207046 -0.181976 0
internal_weight=0 24.3699 2.71095 21.6589
internal_count=730 468 54 414
is_linear=0
shrinkage=0.2


Tree=23
num_leaves=7
num_cat=0
split_feature=15 2 5 0 0 2
split_gain=2.18565 1.92295 2.04552 0.95169 0.560484 0.289225
threshold=1.0000000180025095e-35 8.4988917792750787 0.97619047619047628 12.500000000000002 4.5000000000000009 8.4713475755524446
decision_type=2 2 2 2 2 2
left_child=1 2 -1 -3 5 -2
right_child=4 3 -4 -5 -6 -7
leaf_value=0.031142826407220027 0.098406564730851478 -0.21230306821636999 -0.13021227353640596 0.14462273852500263 0.1961448635066543 -0.1623681340863892
leaf_weight=16.264525187201809 0.31259977072477285 2.6001084088347848 3.8424755055457345 0.26731195580214251 2.5160020170733333 0.25667262077331543
leaf_count=239 3 112 98 9 266 3
internal_value=0 -0.0219551 0 -0.173693 0.15603 -0.00663951
internal_weight=0 22.9744 20.107 2.86742 3.08527 0.569272
internal_count=730 458 337 121 272 6
is_linear=0
shrinkage=0.2


Tree=24
num_leaves=8
num_cat=0
split_feature=0 6 2 6 7 1 1
split_gain=2.05743 4.64522 2.71596 4.33915 4.01056 1.09861 0.896361
threshold=3.5000000000000004 1.0000000180025095e-35 3.4069714915410754 2.535714285714286 0.48333333333333339 1.5000000000000002 31.833333333333339
decision_type=2 2 2 2 2 2 2
left_child=1 5 4 -4 -2 -1 -3
right_child=2 6 3 -5 -6 -7 -8
leaf_value=0.16509908658581102 0.044070281348607909 -0.21924619026569714 0.058780453608093898 -0.23326151518777172 0.67845503409417385 -0.17474822883416322 0.054212929730394079
leaf_weight=2.5653908252716087 1.2011556485667849 4.853706490714103 12.459788931999354 2.3768364265561095 0.58297879993915547 0.37577080354094494 0.44879813026636828
leaf_count=16 15 171 461 50 3 5 9
internal_value=0 -0.0820725 0.03982 0.0106971 0.269657 0.116141 -0.193942
internal_weight=0 8.24367 16.6208 14.8366 1.78413 2.94116 5.3025
internal_count=730 201 529 511 18 21 180
is_linear=0
shrinkage=0.2


Tree=25
num_leaves=5
num_cat=0
split_feature=0 4 0 13
split_gain=1.71942 1.71051 2.07013 1.08119
threshold=11.500000000000002 10.480387603409488 3.5000000000000004 0.080128205128205135
decision_type=2 2 2 2
left_child=1 2 -1 -3
right_child=-2 3 -4 -5
leaf_value=-0.072161320564063991 0.1905530867438873 -0.14462571019306328 0.069347594733371251 0.23967149959833992
leaf_weight=6.7840320658870139 1.6766190938651551 4.6272135325707486 10.341097919736056 0.24941626377403725
leaf_count=177 262 150 139 2
internal_value=0 -0.0166535 0.0126604 -0.120708
internal_weight=0 22.0018 17.1251 4.87663
internal_count=730 468 316 152
is_linear=0
shrinkage=0.2


Tree=26
num_leaves=7
num_cat=0
split_feature=15 5 6 2 0 2
split_gain=1.56829 1.44009 2.55544 1.14945 0.40615 0.184546
threshold=1.0000000180025095e-35 0.49000000000000005 1.0200000000000002 3.4069714915410754 4.5000000000000009 8.4713475755524446
decision_type=2 2 2 2 2 2
left_child=1 3 -3 -1 5 -2
right_child=4 2 -4 -5 -6 -7
leaf_value=0.12065685915291922 0.087736237110348572 -0.15265319969952315 0.013065150779169869 -0.10024070771082716 0.19322270881226325 -0.14103881754604056
leaf_weight=4.1138976663351121 0.2658559381961817 5.913955394178628 9.6297442154027504 1.1280075092799959 1.870513889705762 0.19886888563632965
leaf_count=31 3 164 228 35 266 3
internal_value=0 -0.0187003 -0.0496322 0.0707342 0.152479 0
internal_weight=0 20.7856 15.5437 5.24191 2.33524 0.464725
internal_count=730 458 392 66 272 6
is_linear=0
shrinkage=0.2


Tree=27
num_leaves=8
num_cat=0
split_feature=6 6 1 6 6 0 15
split_gain=1.52798 2.14001 2.13521 2.01846 1.60161 0.461933 0.161824
threshold=3.0277777777777781 1.0200000000000002 21.071428571428573 1.0000000180025095e-35 5.3750000000000009 3.5000000000000004 0.10818713450292398
decision_type=2 2 2 2 2 2 2
left_child=1 3 -3 -1 6 -6 -2
right_child=4 2 -4 -5 5 -7 -8
leaf_value=0.099672830198670737 -0.25705782029283547 -0.0060528819850967927 0.17411346062874766 -0.10420217208138226 -0.074350144056230569 0.32749768252518957 0
leaf_weight=2.5546047277748638 1.6462946808896952 5.3400129172950965 4.9418753052596003 7.2734222263097763 0.10511542577296484 0.24849584698677063 0.038440082222223171
leaf_count=21 48 203 187 264 5 1 1
internal_value=0 0.0160229 0.0799977 -0.0499602 -0.163677 0.188855 -0.246745
internal_weight=0 20.1099 10.2819 9.82803 2.03835 0.353611 1.68473
internal_count=730 675 390 285 55 6 49
is_linear=0
shrinkage=0.2


Tree=28
num_leaves=7
num_cat=0
split_feature=11 0 2 12 6 15
split_gain=1.39228 1.98948 1.30042 1.17576 1.04286 0.272376
threshold=1.0000000180025095e-35 4.5000000000000009 4.0294054326737339 1.0000000180025095e-35 1.0000000180025095e-35 0.34523809523809529
decision_type=2 2 2 2 2 2
left_child=3 5 -3 4 -1 -2
right_child=1 2 -4 -5 -6 -7
leaf_value=0.084490052799967227 -0.19904067928919406 0.36213833445281512 0.081730315937706965 0.32546017728494092 -0.054557205381797869 0.073699664400877204
leaf_weight=2.4342260360717871 0.76537941629066963 1.0010876022279265 2.276502045802772 0.31797097506932814 14.654185852035878 0.091796286404132843
leaf_count=21 24 9 210 8 457 1
internal_value=0 0.102501 0.174536 -0.0259256 -0.0339779 -0.156357
internal_weight=0 4.13477 3.27759 17.4064 17.0884 0.857176
internal_count=730 244 219 486 478 25
is_linear=0
shrinkage=0.2


Tree=29
num_leaves=8
num_cat=0
split_feature=0 6 3 2 5 1 1
split_gain=1.40928 2.37298 1.58107 2.65225 2.11192 0.794396 0.74531
threshold=3.5000000000000004 1.0000000180025095e-35 4.5833333333333348 7.875428316771206 0.73798627002288331 1.5000000000000002 31.833333333333339
decision_type=2 2 2 2 2 2 2
left_child=1 5 4 -4 -2 -1 -3
right_child=2 6 3 -5 -6 -7 -8
leaf_value=0.12423034566982732 0.11077135146607564 -0.21622589686844243 0.63011531177562519 -0.12374869575751275 -0.045226313651634396 -0.17472780606232108 0.045690263341576748
leaf_weight=1.9749132394790678 5.757316968054508 3.2057818875182424 0.39353810250759202 0.26572838332504034 8.495248915278351 0.36188247613608826 0.41335486341267813
leaf_count=16 217 171 2 18 292 5 9
internal_value=0 -0.082123 0.0325644 0.324856 0.0172566 0.0710527 -0.183371
internal_weight=0 5.95593 14.9118 0.659266 14.2526 2.3368 3.61914
internal_count=730 201 529 20 509 21 180
is_linear=0
shrinkage=0.2


Tree=30
num_leaves=7
num_cat=0
split_feature=15 2 6 0 0 2
split_gain=1.22689 1.28272 1.31177 0.639758 0.252521 0.129328
threshold=1.0000000180025095e-35 8.4988917792750787 1.0200000000000002 12.500000000000002 4.5000000000000009 8.4713475755524446
decision_type=2 2 2 2 2 2
left_child=1 2 -1 -3 5 -2
right_child=4 3 -4 -5 -6 -7
leaf_value=-0.061519959255153855 0.092740083894667591 -0.20817301277269926 0.052224365315169545 0.12331535213570149 0.18976953733850754 -0.11487407772937389
leaf_weight=7.2365070993546494 0.24076198041438956 1.7572016504127521 9.0852032280527037 0.19421157939359535 1.4502314953133462 0.15251291543245316
leaf_count=152 3 112 185 9 266 3
internal_value=0 -0.0167701 0.00114921 -0.167929 0.15231 0
internal_weight=0 18.2731 16.3217 1.95141 1.84351 0.393275
internal_count=730 458 337 121 272 6
is_linear=0
shrinkage=0.2


Tree=31
num_leaves=8
num_cat=0
split_feature=6 6 1 2 7 0 15
split_gain=1.11986 1.39787 1.23258 1.93715 1.38507 0.29488 0.129073
threshold=3.0277777777777781 5.3750000000000009 21.177083333333339 6.3564671631248357 0.48333333333333339 3.5000000000000004 0.10818713450292398
decision_type=2 2 2 2 2 2 2
left_child=2 6 4 -4 -1 -3 -2
right_child=1 5 3 -5 -6 -7 -8
leaf_value=-0.052144658096727907 -0.2584637157543434 -0.048769213749763646 0.16922280352753571 -0.046577777497798428 0.16417944728576123 0.28018036556054304 0
leaf_weight=9.9244843275519141 1.3027386893518258 0.080235184635966905 4.0292863460490471 2.6809132770868018 1.2798579812515516 0.2490338534116745 0.030589535832404979
leaf_count=366 48 5 97 176 36 1 1
internal_value=0 -0.155252 0.0139902 0.0818184 -0.0259261 0.177794 -0.248181
internal_weight=0 1.6626 17.9145 6.7102 11.2043 0.329269 1.33333
internal_count=730 55 675 273 402 6 49
is_linear=0
shrinkage=0.2


Tree=32
num_leaves=8
num_cat=0
split_feature=0 2 2 7 5 4 15
split_gain=1.22189 1.74005 1.33269 1.1116 1.0282 0.595852 0.237659
threshold=8.5000000000000018 7.3408239763777958 7.017811819867573 0.18465909090909094 0.63397129186602885 14.620191486349901 0.12132352941176472
decision_type=2 2 2 2 2 2 2
left_child=1 2 -1 5 -5 -2 -3
right_child=3 6 -4 4 -6 -7 -8
leaf_value=-0.012322472445397192 0.2129678850869744 -0.22404207057622744 0.32739608105935747 0.20678267561555572 -0.14770446403828416 -0.049812080749001446 0
leaf_weight=13.063513548346236 2.229358198819682 1.7419135685777281 0.42875075247138816 0.40756760165095318 1.0322249935707075 0.31766944937407959 0.25185298966243852
leaf_count=248 266 140 9 15 31 12 9
internal_value=0 -0.0264102 0 0.0970772 -0.0370739 0.176015 -0.198388
internal_weight=0 15.486 13.4923 3.98682 1.43979 2.54703 1.99377
internal_count=730 406 257 324 46 278 149
is_linear=0
shrinkage=0.2


Tree=33
num_leaves=8
num_cat=0
split_feature=0 2 1 7 5 4 15
split_gain=0.908304 1.4048 1.20919 0.868703 0.753363 0.524979 0.222013
threshold=8.5000000000000018 7.3408239763777958 24.937500000000004 0.18465909090909094 0.63397129186602885 14.620191486349901 0.12132352941176472
decision_type=2 2 2 2 2 2 2
left_child=1 2 -1 5 -5 -2 -3
right_child=3 6 -4 4 -6 -7 -8
leaf_value=-0.032090072861492444 0.20800151595631663 -0.21948134507097819 0.11134065426646261 0.19297174338164261 -0.12420020206817531 -0.04175646392374982 0
leaf_weight=10.476726282620804 1.8654772756271993 1.4538310585776333 2.9772152970544985 0.35829893965274073 0.99591361626517028 0.31333613977767516 0.25185298966243852
leaf_count=222 266 140 35 15 31 12 9
internal_value=0 -0.022013 0 0.0899067 -0.029278 0.167466 -0.190272
internal_weight=0 15.1596 13.4539 3.53303 1.35421 2.17881 1.70568
internal_count=730 406 257 324 46 278 149
is_linear=0
shrinkage=0.2


Tree=34
num_leaves=8
num_cat=0
split_feature=7 7 5 0 10 1 0
split_gain=0.88242 1.95934 1.63575 1.44841 1.40716 0.357352 0.0147111
threshold=0.51086956521739146 0.48333333333333339 0.22500000000000003 3.5000000000000004 0.12250000000000001 11.125000000000002 10.500000000000002
decision_type=2 2 2 2 2 2 2
left_child=1 4 5 -3 -1 -2 -4
right_child=2 3 6 -5 -6 -7 -8
leaf_value=0.015452793237081375 -0.095523813652682643 -0.14059418259147147 -0.25342596704759873 0.33124386972502984 -0.17508564278931438 0.21014240770441642 0
leaf_weight=12.95872381271329 0.1295570433139791 0.26736295409500677 1.3037238676333798 1.1620642646448684 1.7053568268311217 0.48089229874312878 0.03344983048737038
leaf_count=581 3 18 45 16 60 4 3
internal_value=0 0.0149009 -0.125996 0.234462 -0.00654588 0.127808 -0.249503
internal_weight=0 16.0935 1.94762 1.42943 14.6641 0.610449 1.33717
internal_count=730 675 55 34 641 7 48
is_linear=0
shrinkage=0.2


Tree=35
num_leaves=8
num_cat=0
split_feature=6 6 1 4 5 0 15
split_gain=0.774957 0.888417 0.859685 1.46357 1.03842 0.149158 0.0755956
threshold=3.0277777777777781 5.3750000000000009 21.177083333333339 6.0801732015543157 0.73798627002288331 3.5000000000000004 0.10818713450292398
decision_type=2 2 2 2 2 2 2
left_child=2 6 4 -4 -1 -3 -2
right_child=1 5 3 -5 -6 -7 -8
leaf_value=0.02671266427608996 -0.23711028102773413 -0.021411099893133834 -0.072716211620760626 0.13574511389855901 -0.10175722262328363 0.20833854224624082 0
leaf_weight=6.1972516421228701 1.0475580396596331 0.060934727545827516 1.8574811871512782 4.2388503613183275 4.0882481742883101 0.22234384715557098 0.020220633596181758
leaf_count=203 48 5 48 225 199 1 1
internal_value=0 -0.143997 0.0109099 0.0705275 -0.0236288 0.133115 -0.229127
internal_weight=0 1.35106 16.3818 6.09633 10.2855 0.283279 1.06778
internal_count=730 55 675 273 402 6 49
is_linear=0
shrinkage=0.2


Tree=36
num_leaves=6
num_cat=0
split_feature=3 4 0 3 15
split_gain=0.74458 0.718824 0.777719 0.755971 0.176817
threshold=-4.2499999999999991 10.480387603409488 8.5000000000000018 0.12916666666666668 0.23669467787114848
decision_type=2 2 2 2 2
left_child=4 3 -3 -2 -1
right_child=1 2 -4 -5 -6
leaf_value=-0.18787140127633184 0.069258308237138896 -0.17177131101338947 0.017210355814308808 -0.028440174987499636 0.012516523735098839
leaf_weight=0.95370020437985903 8.0026761761400866 1.5867194153834128 1.6639435953693462 5.0107471098308443 0.096944361925125122
leaf_count=74 244 111 106 193 2
internal_value=0 0.00932583 -0.0732107 0.0309097 -0.160567
internal_weight=0 16.2641 3.25066 13.0134 1.05064
internal_count=730 654 217 437 76
is_linear=0
shrinkage=0.2


Tree=37
num_leaves=7
num_cat=0
split_feature=15 4 0 0 0 2
split_gain=0.710189 0.6944 0.727583 0.661656 0.187732 0.0522041
threshold=1.0000000180025095e-35 10.480387603409488 4.5000000000000009 8.5000000000000018 4.5000000000000009 8.4713475755524446
decision_type=2 2 2 2 2 2
left_child=1 2 -1 -3 5 -2
right_child=4 3 -4 -5 -6 -7
leaf_value=-0.03773784424655624 0.061485415707459502 -0.2094070412701981 0.05661103711911173 -0.0037514462834778526 0.18251171466065591 -0.085601886055171744
leaf_weight=7.0067402801360021 0.18605238199233898 1.2428551425109611 5.9999782904051244 1.4157234367448834 0.94453864847309887 0.11318648606538773
leaf_count=212 3 117 101 28 266 3
internal_value=0 -0.0133655 0.00506937 -0.105676 0.140719 0
internal_weight=0 15.6653 13.0067 2.65858 1.24378 0.299239
internal_count=730 458 313 145 272 6
is_linear=0
shrinkage=0.2


Tree=38
num_leaves=8
num_cat=0
split_feature=3 3 10 1 2 5 10
split_gain=0.650119 1.13574 1.02213 0.891602 0.616211 0.561883 0.431907
threshold=-1.5954545454545452 -0.3397435897435897 0.20714285714285716 29.625000000000004 6.9437777315483871 0.97619047619047628 0.2678571428571429
decision_type=2 2 2 2 2 2 2
left_child=2 5 4 -3 -1 -2 -4
right_child=1 3 6 -5 -6 -7 -8
leaf_value=-0.16163421936115652 0.16840772977321347 -0.030027499305939422 0.28505808706061414 0.17248169574107697 0.0011036961480753659 -0.12338938176745702 -0.078517639829349756
leaf_weight=2.5236381608992846 2.3795450755278593 8.6999617628753132 0.37731788679957379 0.91003338736482042 1.268638302804902 0.2196124349720775 0.10854332300368696
leaf_count=75 159 379 6 13 79 10 9
internal_value=0 0.0219212 -0.0681981 -0.00902188 -0.105285 0.138114 0.185425
internal_weight=0 12.2092 4.27814 9.61 3.79228 2.59916 0.485861
internal_count=730 561 169 392 154 169 15
is_linear=0
shrinkage=0.2


Tree=39
num_leaves=8
num_cat=0
split_feature=6 6 6 1 6 0 0
split_gain=0.586806 0.688075 1.12957 0.975803 0.611762 0.0916755 0.0620817
threshold=3.0277777777777781 1.0200000000000002 1.0000000180025095e-35 21.071428571428573 5.3750000000000009 3.5000000000000004 8.5000000000000018
decision_type=2 2 2 2 2 2 2
left_child=1 2 -1 -3 6 -6 -2
right_child=4 3 -4 -5 5 -7 -8
leaf_value=0.081379018167858544 -0.2307284284489716 -0.017703813595029986 -0.08629365254804372 0.1226535206234628 -0.0026941026416890772 0.16831517277857957 0
leaf_weight=2.2396605871617812 0.81579587783198693 3.8158304236712866 5.0992447840981185 3.8254469298408367 0.050681782886385918 0.18739138543605804 0.047042645048350096
leaf_count=21 46 203 264 187 5 1 3
internal_value=0 0.0092401 -0.0335661 0.0516036 -0.138874 0.103048 -0.218568
internal_weight=0 14.9802 7.33891 7.64128 1.10091 0.238073 0.862839
internal_count=730 675 285 390 55 6 49
is_linear=0
shrinkage=0.2


Tree=40
num_leaves=5
num_cat=0
split_feature=0 2 0 15
split_gain=0.595003 0.659737 0.522538 0.335177
threshold=11.500000000000002 8.4988917792750787 8.5000000000000018 0.085144927536231887
decision_type=2 2 2 2
left_child=1 2 -1 -3
right_child=-2 3 -4 -5
leaf_value=-0.011253566700561312 0.17441671985791865 -0.19987094855765425 0.11144856369517518 0.043795338498374692
leaf_weight=12.341136713395825 0.68409655243158418 0.97056657433858962 1.5098961887415487 0.18955893069505692
leaf_count=297 262 112 46 13
internal_value=0 -0.00989873 0.00175553 -0.151629
internal_weight=0 15.0112 13.851 1.16013
internal_count=730 468 343 125
is_linear=0
shrinkage=0.2


Tree=41
num_leaves=5
num_cat=0
split_feature=0 4 0 15
split_gain=0.473813 0.56395 0.65336 0.342807
threshold=11.500000000000002 10.480387603409488 3.5000000000000004 0.085144927536231887
decision_type=2 2 2 2
left_child=1 2 -1 -3
right_child=-2 3 -4 -5
leaf_value=-0.052873755175694176 0.16944526715230318 -0.12752137383581771 0.042818598933011674 0.068487648030632772
leaf_weight=4.3151862762169904 0.57621788271353658 2.0770075791515406 8.0377851370722038 0.32476495625451196
leaf_count=177 262 130 139 22
internal_value=0 -0.00811012 0.00850634 -0.0960824
internal_weight=0 14.7547 12.353 2.40177
internal_count=730 468 316 152
is_linear=0
shrinkage=0.2


Tree=42
num_leaves=8
num_cat=0
split_feature=6 2 6 0 4 0 14
split_gain=0.467599 1.36712 1.20808 1.07645 0.804178 0.42561 0.104566
threshold=2.535714285714286 3.5077951388031545 2.2225274725274731 6.5000000000000009 6.8846352710066681 3.5000000000000004 1.0000000180025095e-35
decision_type=2 2 2 2 2 2 2
left_child=2 5 3 -1 -4 -2 -3
right_child=1 6 4 -5 -6 -7 -8
leaf_value=-0.043889954138391474 -0.088009922831461071 -0.21331461243365465 -0.10875720858617391 0.084402242179646897 0.30238608460112537 0.25667902660641068 0
leaf_weight=8.500005108886393 0.12513820827007371 1.2790558749693444 0.17444998165592629 3.7086885260359859 0.82351116021163762 0.41352401673793793 0.10016384837217618
leaf_count=275 12 64 11 342 19 2 5
internal_value=0 -0.0915118 0.0129527 -0.00391702 0.219213 0.158942 -0.198463
internal_weight=0 1.91788 13.2067 12.2087 0.997961 0.538662 1.37922
internal_count=730 83 647 617 30 14 69
is_linear=0
shrinkage=0.2


Tree=43
num_leaves=6
num_cat=0
split_feature=6 0 1 1 1
split_gain=0.509234 1.54486 0.707369 0.58309 0.487977
threshold=1.0000000180025095e-35 3.5000000000000004 16.935416666666672 1.5000000000000002 31.833333333333339
decision_type=2 2 2 2 2
left_child=3 4 -3 -1 -2
right_child=1 2 -4 -5 -6
leaf_value=0.12605581064457513 -0.21007483568399177 -0.080152209649880193 0.042978884581238649 -0.15472159497952032 0.053893216922446356
leaf_weight=1.9986301660537731 1.804025450284825 2.3426603063126086 8.0647159727232047 0.27248709276318539 0.24152410868555296
leaf_count=16 171 63 466 5 9
internal_value=0 -0.0165392 0.0140556 0.0854528 -0.173593
internal_weight=0 12.4529 10.4074 2.27112 2.04555
internal_count=730 709 529 21 180
is_linear=0
shrinkage=0.2


Tree=44
num_leaves=7
num_cat=0
split_feature=5 1 6 7 6 0
split_gain=0.449399 1.29867 1.16234 1.02397 0.793728 0.0676221
threshold=0.73798627002288331 17.236111111111114 2.6753246753246755 0.40833333333333338 2.1180555555555558 8.5000000000000018
decision_type=2 2 2 2 2 2
left_child=2 -2 3 -1 -3 -4
right_child=1 4 5 -5 -6 -7
leaf_value=0.012997345973318806 -0.20499521315234853 -0.035133333619890988 -0.22227079106132019 0.19684172495483954 0.14293985736855996 0
leaf_weight=5.0755925482953899 1.4162151511991394 4.1162557323114015 0.62297027400927607 1.6062949416227637 1.260877770691877 0.038778553658630699
leaf_count=270 70 250 18 44 74 4
internal_value=0 -0.0379295 0.0331645 0.0598119 0.00571245 -0.207153
internal_weight=0 6.79335 7.34364 6.68189 5.37713 0.661749
internal_count=730 394 336 314 324 22
is_linear=0
shrinkage=0.2


Tree=45
num_leaves=7
num_cat=0
split_feature=15 4 3 0 0 2
split_gain=0.377495 0.543836 0.481496 0.411758 0.134418 0.0500705
threshold=1.0000000180025095e-35 10.480387603409488 -4.2499999999999991 8.5000000000000018 4.5000000000000009 8.4713475755524446
decision_type=2 2 2 2 2 2
left_child=1 2 -1 -3 5 -2
right_child=4 3 -4 -5 -6 -7
leaf_value=-0.17136704207555417 0.066983133803166534 -0.20559484513068038 0.01755633012317567 -0.015037825405108136 0.17154304310995702 -0.082904918224039337
leaf_weight=0.51451955400989291 0.15364508144557554 0.86611946161428877 10.379575678554827 1.1674696179106829 0.60154632074409164 0.10845788940787315
leaf_count=60 3 117 253 28 266 3
internal_value=0 -0.0100397 0.00697774 -0.103983 0.122883 0
internal_weight=0 12.9277 10.8941 2.03359 0.863649 0.262103
internal_count=730 458 313 145 272 6
is_linear=0
shrinkage=0.2


Tree=46
num_leaves=7
num_cat=0
split_feature=2 0 1 2 0 15
split_gain=0.342182 0.632603 0.80877 0.50467 0.219475 0.221501
threshold=8.4988917792750787 8.5000000000000018 15.633333333333335 7.3408239763777958 11.500000000000002 0.085144927536231887
decision_type=2 2 2 2 2 2
left_child=1 3 -3 -1 5 -2
right_child=4 2 -4 -5 -6 -7
leaf_value=0.00069112500312115482 -0.19199533167533145 -0.11999188980262139 0.20237890051957322 -0.18617380195142147 0.078502602178233905 0.024346420787073754
leaf_weight=10.374219462741163 0.75034531543497074 0.33365008840337296 1.2201715464325387 0.55632030748529437 0.1121058564458508 0.13338664756156504
leaf_count=257 112 4 263 40 41 13
internal_value=0 0.00760665 0.125339 -0.00871328 -0.111367 -0.149077
internal_weight=0 12.4844 1.55382 10.9305 0.995838 0.883732
internal_count=730 564 267 297 166 125
is_linear=0
shrinkage=0.2


Tree=47
num_leaves=8
num_cat=0
split_feature=3 3 2 11 3 1 2
split_gain=0.36012 0.704757 0.676689 0.613955 0.800752 0.384101 0.281838
threshold=0.12916666666666668 -1.5954545454545452 5.0110865288865618 0.051315789473684217 2.2678571428571432 11.125000000000002 5.1693260110578825
decision_type=2 2 2 2 2 2 2
left_child=1 2 -1 4 -2 -3 -5
right_child=3 5 -4 6 -6 -7 -8
leaf_value=-0.19700809755139156 -0.14001042286018109 0.012580274413769002 0.0063186231952097466 0.19599567957369168 0.031641515545606548 0.13026699924599647 -0.01644317013742683
leaf_weight=0.82106155110523138 2.7050701172556728 2.4363857987336814 2.2848480380343972 0.50520861172117282 1.6364084786764577 2.394333676144015 0.29860367161745671
leaf_count=45 115 24 124 17 98 247 60
internal_value=0 0.0253977 -0.0465328 -0.0422097 -0.0734099 0.0736972 0.109024
internal_weight=0 7.93663 3.10591 5.14529 4.34148 4.83072 0.803812
internal_count=730 440 169 290 213 271 77
is_linear=0
shrinkage=0.2


Tree=48
num_leaves=8
num_cat=0
split_feature=6 0 10 6 6 15 0
split_gain=0.316822 0.388645 1.122 0.84283 0.250919 0.0375458 0.0280611
threshold=3.0277777777777781 4.5000000000000009 0.12250000000000001 1.0000000180025095e-35 5.3750000000000009 0.10818713450292398 3.5000000000000004
decision_type=2 2 2 2 2 2 2
left_child=1 3 -3 -1 5 -2 -6
right_child=4 2 -4 -5 6 -7 -8
leaf_value=0.069192466724783588 -0.19456388823534521 0.076333611069569318 -0.15536206975647079 -0.089999442590217804 0 0 0.098999589851615277
leaf_weight=2.0051844650879485 0.56100528161914631 5.5295426316733938 0.91421526740305115 3.5441960751195438 0.032129254192113876 0.013244727626442909 0.11395519971847534
leaf_count=21 48 397 45 212 5 1 1
internal_value=0 0.00704399 0.0409785 -0.0305877 -0.125203 -0.186135 0.0497063
internal_weight=0 11.9931 6.44376 5.54938 0.720334 0.57425 0.146084
internal_count=730 675 442 233 55 49 6
is_linear=0
shrinkage=0.2


Tree=49
num_leaves=7
num_cat=0
split_feature=2 0 1 1 0 15
split_gain=0.26048 0.409021 0.672613 0.414941 0.161398 0.170799
threshold=8.6858761434289828 8.5000000000000018 15.633333333333335 24.937500000000004 11.500000000000002 0.085144927536231887
decision_type=2 2 2 2 2 2
left_child=1 3 -3 -1 5 -2
right_child=4 2 -4 -5 -6 -7
leaf_value=-0.028782138375705424 -0.18393415528832938 -0.11299223993141423 0.19531631617845113 0.066166313723098155 0.059814590531512959 0.0095247337278365415
leaf_weight=7.84967677638633 0.61973810524068618 0.3099913503974665 0.96830263776064385 2.3270188922178932 0.09118495014263317 0.11648538522422314
leaf_count=262 104 4 267 43 38 12
internal_value=0 0.00679043 0.111583 -0.0058759 -0.106173 -0.141947
internal_weight=0 11.455 1.27829 10.1767 0.827408 0.736223
internal_count=730 576 271 305 154 116
is_linear=0
shrinkage=0.2


Tree=50
num_leaves=8
num_cat=0
split_feature=6 6 2 5 4 0 3
split_gain=0.254812 0.735731 0.635624 0.632003 0.357654 0.178861 0.0733957
threshold=2.535714285714286 2.2225274725274731 3.5077951388031545 0.73798627002288331 6.8846352710066681 3.5000000000000004 1.9166666666666667
decision_type=2 2 2 2 2 2 2
left_child=1 3 5 -1 -3 -2 -4
right_child=2 4 6 -5 -6 -7 -8
leaf_value=0.038798125105755074 -0.050815275477212651 -0.06910527700933064 -0.18616820520530203 -0.062724727907807365 0.23899825275161338 0.18827567059318523 0
leaf_weight=5.5024674835585721 0.082797444076277982 0.10617286001797843 0.87411657628399553 4.3106570842937799 0.71632047271123156 0.29752395302057266 0.090636020540841855
leaf_count=300 12 11 47 317 19 2 22
internal_value=0 0.00975715 -0.0810978 -0.00487631 0.186084 0.11313 -0.169322
internal_weight=0 10.6356 1.34507 9.81312 0.822493 0.380321 0.964753
internal_count=730 647 83 617 30 14 69
is_linear=0
shrinkage=0.2


Tree=51
num_leaves=7
num_cat=0
split_feature=15 4 0 5 0 4
split_gain=0.272628 0.313211 0.339603 0.280902 0.0749436 0.0733101
threshold=1.0000000180025095e-35 10.480387603409488 7.5000000000000009 0.88562091503267981 3.5000000000000004 14.508615570478989
decision_type=2 2 2 2 2 2
left_child=1 2 -1 -3 -2 -6
right_child=4 3 -4 -5 5 -7
leaf_value=-0.011069115201724218 0 -0.13819928993136293 0.09159593523109176 0.045940105371996415 0.16973059638425111 0
leaf_weight=8.040714696137 0.043271224014461818 1.1853987199210667 1.4706360618583847 0.3274845000123604 0.50688877142238198 0.11232733190990984
leaf_count=245 3 105 68 40 256 13
internal_value=0 -0.0084577 0.00415496 -0.0917468 0.119138 0.139968
internal_weight=0 11.0242 9.51135 1.51288 0.662487 0.619216
internal_count=730 458 313 145 272 269
is_linear=0
shrinkage=0.2


Tree=52
num_leaves=8
num_cat=0
split_feature=3 0 6 6 7 7 1
split_gain=0.238007 0.616523 1.42254 0.662409 0.443938 0.596802 0.462461
threshold=0.12916666666666668 7.5000000000000009 2.2426470588235299 1.9642857142857146 0.48333333333333339 0.51086956521739146 21.177083333333339
decision_type=2 2 2 2 2 2 2
left_child=4 2 -2 -3 6 -6 -1
right_child=1 3 -4 -5 5 -7 -8
leaf_value=-0.039412152987100789 -0.18022980455054463 0.14045811319060794 0.12745093689359707 -0.13446176747808072 0.22520224821826679 -0.006138435240347264 0.089981937122636163
leaf_weight=4.0627843078000296 2.0681758839054969 1.1476861689880022 0.75983587949303899 0.41872704692650575 0.83858521905494832 0.72973707430355716 1.4520281307195544
leaf_count=247 125 104 44 17 18 29 146
internal_value=0 -0.0367528 -0.0933089 0.0588951 0.0222044 0.114517 -0.00304382
internal_weight=0 4.39442 2.82801 1.56641 7.08313 1.56832 5.51481
internal_count=730 290 169 121 440 47 393
is_linear=0
shrinkage=0.2


Tree=53
num_leaves=6
num_cat=0
split_feature=6 0 1 1 1
split_gain=0.264732 1.0303 0.419152 0.418513 0.325241
threshold=1.0000000180025095e-35 3.5000000000000004 1.5000000000000002 11.125000000000002 31.833333333333339
decision_type=2 2 2 2 2
left_child=2 4 -1 -3 -2
right_child=1 3 -4 -5 -6
leaf_value=0.10361903586258858 -0.20424732400212497 -0.17634008509078977 -0.14673794589398209 0.025827751322973488 0.028952530214750496
leaf_weight=1.7285380363464362 1.2589205146177826 0.37626204499974836 0.24051983654499043 7.3030619724595454 0.19085344026098017
leaf_count=16 171 8 5 521 9
internal_value=0 -0.0147753 0.0652087 0.0135518 -0.166939
internal_weight=0 9.1291 1.96906 7.67932 1.44977
internal_count=730 709 21 529 180
is_linear=0
shrinkage=0.2


Tree=54
num_leaves=8
num_cat=0
split_feature=6 7 10 2 0 0 14
split_gain=0.256569 0.526472 0.451516 0.430737 0.373222 0.123825 0.0639612
threshold=2.535714285714286 0.43650793650793657 0.12250000000000001 3.5077951388031545 3.5000000000000004 3.5000000000000004 1.0000000180025095e-35
decision_type=2 2 2 2 2 2 2
left_child=1 2 -1 5 -3 -2 -5
right_child=3 4 -4 6 -6 -7 -8
leaf_value=0.0062182640044941249 -0.039975869015097781 -0.02682861392295658 -0.1450418285902704 -0.17723449532033597 0.181429921509599 0.16181199071883817 0
leaf_weight=7.2713123108478595 0.073903609532863568 0.37305519738583726 0.82476408351794805 0.79011044817161746 1.0442254665103972 0.23476666212081909 0.078993936709593982
leaf_count=534 12 33 54 64 26 2 5
internal_value=0 0.0100199 -0.00875901 -0.0870455 0.120751 0.0867803 -0.161024
internal_weight=0 9.51336 8.09608 1.17777 1.41728 0.30867 0.869104
internal_count=730 647 588 83 59 14 69
is_linear=0
shrinkage=0.2


Tree=55
num_leaves=8
num_cat=0
split_feature=15 4 3 0 6 0 0
split_gain=0.200448 0.258683 0.267215 0.229012 0.0582259 0.0284491 0.015845
threshold=1.0000000180025095e-35 10.480387603409488 -4.2499999999999991 8.5000000000000018 1.4907407407407409 3.5000000000000004 5.5000000000000009
decision_type=2 2 2 2 2 2 2
left_child=1 2 -1 -3 5 -2 -6
right_child=4 3 -4 -5 6 -7 -8
leaf_value=-0.15583212341775377 0 -0.18077463539021998 0.012797200150703202 -0.0037383903514623079 -0.046787824349956812 0.15841340579136753 0.051748343450150315
leaf_weight=0.34035578843031444 0.013320320285857501 0.56163729487889102 8.1844325993297371 0.80119258660124615 0.075581242330372334 0.38252717254363233 0.084019086651096586
leaf_count=60 1 117 253 28 3 210 58
internal_value=0 -0.00797001 0.00402899 -0.0875906 0.110459 0.147624 0
internal_weight=0 9.88762 8.52479 1.36283 0.555448 0.395847 0.1596
internal_count=730 458 313 145 272 211 61
is_linear=0
shrinkage=0.2


Tree=56
num_leaves=8
num_cat=0
split_feature=6 7 0 5 2 0 15
split_gain=0.192045 0.383031 0.433409 0.34279 0.320643 0.103817 0.0661517
threshold=2.535714285714286 0.43650793650793657 6.5000000000000009 0.73798627002288331 3.5077951388031545 3.5000000000000004 0.060661764705882359
decision_type=2 2 2 2 2 2 2
left_child=1 2 -1 -3 5 -2 -6
right_child=4 3 -4 -5 6 -7 -8
leaf_value=-0.039773810266887963 -0.037108039710591227 0.14753569914832929 0.061135717550281791 -0.11185916153822431 -0.16372873475185837 0.14885945848316337 0
leaf_weight=5.4992965394922049 0.071777838398703109 1.1657579836755756 2.3721336137095932 0.16187350248219434 0.72795854925061576 0.20768003910779953 0.04344822526036296
leaf_count=242 12 41 346 18 61 2 8
internal_value=0 0.00789593 -0.00790738 0.105738 -0.0803539 0.0723588 -0.148888
internal_weight=0 9.19906 7.87143 1.32763 1.05086 0.279458 0.771407
internal_count=730 647 588 59 83 14 69
is_linear=0
shrinkage=0.2


Tree=57
num_leaves=6
num_cat=0
split_feature=6 0 1 1 1
split_gain=0.212253 0.760749 0.410087 0.320324 0.269038
threshold=1.0000000180025095e-35 3.5000000000000004 16.935416666666672 1.5000000000000002 31.833333333333339
decision_type=2 2 2 2 2
left_child=3 4 -3 -1 -2
right_child=1 2 -4 -5 -6
leaf_value=0.09357620357889368 -0.19866057239913393 -0.079564918598401382 0.035663785433153815 -0.13564248510829638 0.022025124205356367
leaf_weight=1.6227275133132941 1.0245603606344937 1.5153756191575665 5.5046749248285778 0.20886624418199051 0.16837594006210554
leaf_count=16 171 63 466 5 9
internal_value=0 -0.0151412 0.00898887 0.0592127 -0.159834
internal_weight=0 8.21299 7.02005 1.83159 1.19294
internal_count=730 709 529 21 180
is_linear=0
shrinkage=0.2


Tree=58
num_leaves=8
num_cat=0
split_feature=4 6 1 6 5 3 5
split_gain=0.18295 0.25335 0.59801 0.514271 0.226169 0.17951 0.0976386
threshold=10.480387603409488 1.0200000000000002 25.964285714285719 2.535714285714286 0.83666666666666678 1.4722222222222225 0.97619047619047628
decision_type=2 2 2 2 2 2 2
left_child=1 2 -1 -3 5 -2 -6
right_child=4 3 -4 -5 6 -7 -8
leaf_value=0.002194663146447296 -0.1431582927280903 0.089368135266271423 -0.23018323840172236 -0.077555770437393715 0.13327836976782001 0.037374165521965395 -0.03372511663225769
leaf_weight=3.9442726911438495 0.98726185767918717 2.9545739773311657 0.43845532063278359 0.87515118461305963 0.22540909552481014 0.15465906565077603 0.11122981470907689
leaf_count=194 136 246 10 49 27 28 40
internal_value=0 0.0100568 -0.021131 0.048138 -0.0651431 -0.109775 0.0550089
internal_weight=0 8.21245 4.38273 3.82973 1.47856 1.14192 0.336639
internal_count=730 499 204 295 231 164 67
is_linear=0
shrinkage=0.2


Tree=59
num_leaves=5
num_cat=0
split_feature=12 6 1 1
split_gain=0.184681 0.178624 0.562998 0.243785
threshold=1.0000000180025095e-35 1.0000000180025095e-35 11.125000000000002 1.5000000000000002
decision_type=2 2 2 2
left_child=1 3 -3 -1
right_child=-2 2 -4 -5
leaf_value=0.081352775538411859 0.16440263942766475 -0.19924028411259453 -0.002506784881390744 -0.12637969142784664
leaf_weight=1.5058673620223979 0.20931345594726813 0.59707628231262777 6.986389002739088 0.18616528995335091
leaf_count=16 17 26 666 5
internal_value=0 -0.00641625 -0.02051 0.0497853
internal_weight=0 9.2755 7.58347 1.69203
internal_count=730 713 692 21
is_linear=0
shrinkage=0.2


Tree=60
num_leaves=8
num_cat=0
split_feature=1 5 0 4 7 0 0
split_gain=0.17099 0.544049 0.405796 0.346055 0.540538 0.522597 0.189249
threshold=20.609903381642514 0.77097902097902116 4.5000000000000009 6.0801732015543157 0.51086956521739146 7.5000000000000009 10.500000000000002
decision_type=2 2 2 2 2 2 2
left_child=1 2 -1 5 -5 -2 -3
right_child=3 6 -4 4 -6 -7 -8
leaf_value=-0.034431042243479898 -0.1028525842843256 -0.15481692237373712 0.10173080425161128 0.10460178677837417 -0.15826071213339191 0.18378486805204186 0.059188349423365275
leaf_weight=2.3716816060514252 1.2575012405941377 1.2829758570514966 1.2887435930606441 2.4379965860935049 0.28569810113913252 0.25051118754345214 0.089722361153690033
leaf_count=106 65 106 108 263 25 9 48
internal_value=0 -0.0266149 0.0115379 0.0275289 0.071068 -0.044448 -0.132212
internal_weight=0 5.03312 3.66043 4.23171 2.72369 1.50801 1.3727
internal_count=730 368 214 362 288 74 154
is_linear=0
shrinkage=0.2


Tree=61
num_leaves=8
num_cat=0
split_feature=4 0 7 1 5 3 5
split_gain=0.181964 0.23949 0.525147 0.398205 0.160743 0.140988 0.0756323
threshold=10.480387603409488 7.5000000000000009 0.22474747474747478 21.690476190476193 0.83666666666666678 1.4722222222222225 0.97619047619047628
decision_type=2 2 2 2 2 2 2
left_child=1 3 -3 -1 5 -2 -6
right_child=4 2 -4 -5 6 -7 -8
leaf_value=-0.045043568307538431 -0.135684185388768 0.1749305514414678 -0.094625215964864479 0.055977305023712502 0.11707802564654624 0.023700161893274344 -0.034918431033545548
leaf_weight=3.8793470896125655 0.9258135386098727 0.86228074246901065 0.33232179730839562 2.516003747274226 0.18860839854460199 0.14152076342725195 0.10938935955891793
leaf_count=181 136 215 20 83 27 28 40
internal_value=0 0.0104784 0.0911202 -0.00362336 -0.0674705 -0.105486 0.0355467
internal_weight=0 7.58995 1.1946 6.39535 1.36533 1.06733 0.297998
internal_count=730 499 235 264 231 164 67
is_linear=0
shrinkage=0.2


Tree=62
num_leaves=8
num_cat=0
split_feature=3 6 0 1 3 2 1
split_gain=0.167949 0.300814 0.789985 0.540899 0.267394 0.307192 0.1884
threshold=0.12916666666666668 2.1622807017543866 7.5000000000000009 24.937500000000004 -1.5954545454545452 5.0110865288865618 20.683333333333337
decision_type=2 2 2 2 2 2 2
left_child=4 2 -2 -3 5 -1 -6
right_child=1 3 -4 -5 6 -7 -8
leaf_value=-0.17440296438260539 -0.16172274481321891 -0.13700180522909369 0.061979740657566118 0.17892751230307052 0.024562747234847415 0.0024059431016300835 0.14356789440558756
leaf_weight=0.43988273348077189 1.5254659923084553 0.26725806220565562 0.9381820976777816 0.53707062276953366 2.8267613410280323 1.4748314513080911 0.73156543247023353
leaf_count=45 124 38 108 20 153 124 118
internal_value=0 -0.0367583 -0.0730179 0.0603727 0.0201158 -0.0365286 0.0534511
internal_weight=0 3.26798 2.46365 0.804329 5.47304 1.91471 3.55833
internal_count=730 290 232 58 440 169 271
is_linear=0
shrinkage=0.2


Tree=63
num_leaves=7
num_cat=0
split_feature=5 1 0 6 7 0
split_gain=0.156703 0.473228 0.304093 0.196476 0.307492 0.0281801
threshold=0.73798627002288331 17.236111111111114 7.5000000000000009 2.6753246753246755 0.40833333333333338 8.5000000000000018
decision_type=2 2 2 2 2 2
left_child=3 -2 -3 4 -1 -5
right_child=1 2 -4 5 -6 -7
leaf_value=0.0040439570135999301 -0.17953742164821443 -0.042228529382443675 0.086049587534734753 -0.14230081638722875 0.13351264717695518 0
leaf_weight=3.3394240578236349 0.6493779877200726 2.076275060539047 1.0806639909023941 0.23849290159432701 0.96216000618005626 0.021346066874684766
leaf_count=270 70 143 181 18 44 4
internal_value=0 -0.0306149 0 0.0239888 0.0365023 -0.123355
internal_weight=0 3.80632 3.15694 4.56142 4.30158 0.259839
internal_count=730 394 324 336 314 22
is_linear=0
shrinkage=0.2


Tree=64
num_leaves=8
num_cat=0
split_feature=4 6 6 1 15 0 0
split_gain=0.171337 0.169554 0.351387 0.320336 0.126071 0.123677 0.0341066
threshold=10.480387603409488 1.0200000000000002 1.0000000180025095e-35 21.690476190476193 1.0000000180025095e-35 11.500000000000002 4.5000000000000009
decision_type=2 2 2 2 2 2 2
left_child=1 2 -1 -3 5 -2 -6
right_child=4 3 -4 -5 6 -7 -8
leaf_value=0.050884823614255094 -0.12141973885518952 -0.020548523962402743 -0.06932534773182393 0.10232460429125874 0 0.050187604694974346 0.09765869983681208
leaf_weight=1.622624834533781 0.97667053780332913 1.3569716378297019 2.1545684440716286 1.768315245517442 0.039976641535758861 0.082267983234487474 0.14200281272496795
leaf_count=21 130 178 183 117 1 15 85
internal_value=0 0.0114241 -0.0150819 0.0463414 -0.0678684 -0.0974083 0.0448633
internal_weight=0 6.90248 3.77719 3.12529 1.24092 1.05894 0.181979
internal_count=730 499 204 295 231 145 86
is_linear=0
shrinkage=0.2


Tree=65
num_leaves=7
num_cat=0
split_feature=2 0 2 1 0 15
split_gain=0.127874 0.186274 0.199634 0.198918 0.0987836 0.0992949
threshold=8.4988917792750787 8.5000000000000018 7.3408239763777958 15.633333333333335 11.500000000000002 0.085144927536231887
decision_type=2 2 2 2 2 2
left_child=1 2 -1 -3 5 -2
right_child=4 3 -4 -5 -6 -7
leaf_value=0.0043827933635222074 -0.16504051340872791 -0.037719826329440098 -0.14802820794853036 0.1695230324131928 0.033496773628648009 0
leaf_weight=6.4307338043145137 0.41230124528556178 0.15512359980493773 0.31023773965716817 0.4857041962313815 0.069179716330836527 0.070008535054512322
leaf_count=257 112 4 40 263 41 13
internal_value=0 0.00647963 -0.00219727 0.105782 -0.089359 -0.127258
internal_weight=0 7.3818 6.74097 0.640828 0.551489 0.48231
internal_count=730 564 297 267 166 125
is_linear=0
shrinkage=0.2


Tree=66
num_leaves=8
num_cat=0
split_feature=15 4 0 5 6 0 0
split_gain=0.128913 0.150246 0.165962 0.098105 0.030062 0.0120849 0.000349476
threshold=1.0000000180025095e-35 10.480387603409488 4.5000000000000009 0.84807692307692317 1.4907407407407409 3.5000000000000004 5.5000000000000009
decision_type=2 2 2 2 2 2 2
left_child=1 2 -1 -3 5 -2 -6
right_child=4 3 -4 -5 6 -7 -8
leaf_value=-0.024742448191838715 0 -0.11696743209164435 0.038695242895163129 0.0015145990457307076 -0.00023180188712630602 0.14198061304285875 0.011494632408209325
leaf_weight=3.543901272212679 0.0064440895803271605 0.69762439375972451 2.9433753205375979 0.19464219053224951 0.048707978799939156 0.27262439273181371 0.0557601911459642
leaf_count=212 1 100 101 45 3 210 58
internal_value=0 -0.00675273 0.00258632 -0.0817997 0.105417 0.135258 0
internal_weight=0 7.37954 6.48728 0.892267 0.383537 0.279068 0.104468
internal_count=730 458 313 145 272 211 61
is_linear=0
shrinkage=0.2


Tree=67
num_leaves=6
num_cat=0
split_feature=6 0 1 1 7
split_gain=0.110255 0.494272 0.205793 0.178197 0.160737
threshold=1.0000000180025095e-35 3.5000000000000004 11.125000000000002 1.5000000000000002 0.77500000000000013
decision_type=2 2 2 2 2
left_child=3 4 -3 -1 -2
right_child=1 2 -4 -5 -6
leaf_value=0.073178715861061491 -0.18556129369099839 -0.14994689903884897 0.020372632634329913 -0.11280040888471408 0
leaf_weight=1.4345457553863523 0.72560347781381995 0.243067220551893 4.9908214426850463 0.15688351728022087 0.12773102677419956
leaf_count=16 166 8 521 5 14
internal_value=0 -0.0124795 0.00922621 0.045875 -0.149822
internal_weight=0 6.08722 5.23389 1.59143 0.853335
internal_count=730 709 529 21 180
is_linear=0
shrinkage=0.2


Tree=68
num_leaves=8
num_cat=0
split_feature=5 1 0 6 7 0 0
split_gain=0.102748 0.353357 0.254966 0.182368 0.243349 0.0588709 0.0241817
threshold=0.73798627002288331 17.516666666666669 7.5000000000000009 2.6753246753246755 0.34523809523809529 10.500000000000002 8.5000000000000018
decision_type=2 2 2 2 2 2 2
left_child=3 5 -3 4 -1 -2 -5
right_child=1 2 -4 6 -6 -7 -8
leaf_value=0.0017434117638070524 -0.17535298895303422 -0.037476146916336835 0.08886453884020358 -0.14076958907840206 0.12234511783705054 0 0
leaf_weight=2.9330063467659788 0.56458053621827309 1.8774554101873948 0.89887313285180415 0.23036643126806655 0.89406341569701897 0.024376411092816852 0.017407079503755085
leaf_count=264 70 139 178 18 50 7 4
internal_value=0 -0.0265639 0.000738616 0.0203009 0.0337116 -0.160904 -0.124134
internal_weight=0 3.36529 2.77633 4.07484 3.82707 0.588957 0.247774
internal_count=730 394 317 336 314 77 22
is_linear=0
shrinkage=0.2


Tree=69
num_leaves=7
num_cat=0
split_feature=15 2 6 1 4 0
split_gain=0.0967889 0.133883 0.195309 0.160735 0.0246043 0.0276946
threshold=1.0000000180025095e-35 6.3564671631248357 1.0444664031620554 23.480769230769234 14.508615570478989 3.5000000000000004
decision_type=2 2 2 2 2 2
left_child=1 2 -1 -3 5 -2
right_child=4 3 -4 -5 -6 -7
leaf_value=-0.023198329619175527 0 0 0.051528492710244712 -0.15090930318911111 0 0.13711059410236198
leaf_weight=3.293198116516578 0.016264861915260442 0.86055845498412942 2.2869214109960012 0.47116691174414882 0.064106869685929269 0.25253952773891797
leaf_count=119 3 155 119 65 13 256
internal_value=0 -0.00629612 0.00583672 -0.0627433 0.0969026 0.119856
internal_weight=0 6.91184 5.58012 1.33173 0.332911 0.268804
internal_count=730 458 238 220 272 259
is_linear=0
shrinkage=0.2


Tree=70
num_leaves=6
num_cat=0
split_feature=6 0 3 1 1
split_gain=0.0906261 0.401825 0.171 0.136798 0.127668
threshold=1.0000000180025095e-35 3.5000000000000004 4.5833333333333348 1.5000000000000002 31.833333333333339
decision_type=2 2 2 2 2
left_child=3 4 -3 -1 -2
right_child=1 2 -4 -5 -6
leaf_value=0.065989274471831144 -0.17979382500334942 -0.0015435389678557917 0.14210593401283589 -0.10189515200574345 0
leaf_weight=1.3760107755661009 0.62749744870052371 4.6130331560016202 0.29860103624378087 0.13834708929061879 0.11316708626691252
leaf_count=16 171 509 20 5 9
internal_value=0 -0.0127828 0.00651816 0.0414929 -0.14574
internal_weight=0 5.6523 4.91163 1.51436 0.740665
internal_count=730 709 529 21 180
is_linear=0
shrinkage=0.2


Tree=71
num_leaves=5
num_cat=0
split_feature=12 6 1 2
split_gain=0.0903878 0.0940295 0.318283 0.23914
threshold=1.0000000180025095e-35 1.0200000000000002 20.968750000000004 4.122061202969669
decision_type=2 2 2 2
left_child=1 2 -1 -3
right_child=-2 3 -4 -5
leaf_value=0.0014159542617478618 0.1288102333232537 0.10582769585544845 -0.13553489349079037 -0.01141509899686516
leaf_weight=2.6231304699158504 0.15678633629067906 0.85794597880158141 0.80649492328666372 2.5221174252937999
leaf_count=188 17 51 92 382
internal_value=0 -0.0051861 -0.0293997 0.0165376
internal_weight=0 6.80969 3.42963 3.38006
internal_count=730 713 280 433
is_linear=0
shrinkage=0.2


Tree=72
num_leaves=6
num_cat=0
split_feature=15 3 4 6 0
split_gain=0.0839751 0.10217 0.107055 0.0230727 0.00624819
threshold=1.0000000180025095e-35 -4.2499999999999991 10.824039958044636 1.4907407407407409 3.5000000000000004
decision_type=2 2 2 2 2
left_child=1 -1 -3 4 -2
right_child=3 2 -4 -5 -6
leaf_value=-0.12838571379718169 0 0.0090656610528766692 -0.068735427840257199 0 0.12774026361463658
leaf_weight=0.21112979999179504 0.0037818180862813069 5.593559632103279 0.75819906395190617 0.089840095559338806 0.2144056729539443
leaf_count=74 1 264 120 61 210
internal_value=0 -0.00573345 0 0.0936739 0.123108
internal_weight=0 6.56289 6.35176 0.308028 0.218187
internal_count=730 458 384 272 211
is_linear=0
shrinkage=0.2


Tree=73
num_leaves=8
num_cat=0
split_feature=0 7 1 5 4 10 3
split_gain=0.0826663 0.311171 0.245496 0.510108 0.43849 0.164282 0.0986718
threshold=7.5000000000000009 0.18465909090909094 21.690476190476193 0.40833333333333338 6.2617108179812213 0.10818713450292398 1.6969696969696972
decision_type=2 2 2 2 2 2 2
left_child=2 5 3 -1 -4 -2 -3
right_child=1 6 4 -5 -6 -7 -8
leaf_value=0.0099437401470257869 0.15445934765294356 -0.10931516609109654 -0.071588161515493631 -0.14696085282146987 0.11267563485559709 -0.0013898024065906783 0.050624463681884294
leaf_weight=2.0390813852664 0.74215169005947224 0.46764014427753864 0.74458452508588413 1.2311417909986628 1.2613825652697412 0.22486826549720718 0.087757089255319443
leaf_count=56 271 50 53 190 80 26 4
internal_value=0 0.0396594 -0.0125092 -0.0474379 0.0393382 0.110099 -0.0654315
internal_weight=0 1.52242 5.27619 3.27022 2.00597 0.96702 0.555397
internal_count=730 351 379 246 133 297 54
is_linear=0
shrinkage=0.2


Tree=74
num_leaves=8
num_cat=0
split_feature=6 1 4 0 6 0 0
split_gain=0.0672997 0.0969889 0.263539 0.20745 0.0603971 0.0196079 9.61808e-05
threshold=3.0277777777777781 21.690476190476193 6.0801732015543157 7.5000000000000009 5.3750000000000009 8.5000000000000018 3.5000000000000004
decision_type=2 2 2 2 2 2 2
left_child=1 3 -3 -1 5 -2 -6
right_child=4 2 -4 -5 6 -7 -8
leaf_value=-0.038875756760546651 -0.14008479380344255 -0.055742469221282911 0.08747044384305086 0.064394697849554802 0 0 0.0061937700296258056
leaf_weight=3.1172501090550213 0.2443957646551097 0.64269902480555208 1.4909659158365682 0.93994565416141984 0.011293379793642089 0.013619355508126318 0.050285506993532181
leaf_count=229 46 44 188 214 5 3 1
internal_value=0 0.00429335 0.039464 -0.0120233 -0.0835008 -0.127317 0
internal_weight=0 6.19086 2.13366 4.0572 0.319594 0.258015 0.0615789
internal_count=730 675 232 443 55 49 6
is_linear=0
shrinkage=0.2


end of trees

feature_importances:
sentence_count=123
mean_words_per_sentence=70
captials_per_sentence=58
ai_words1=48
std_words_per_sentence=44
neighbor_sentences_diff_std=33
abbrev_per_sentence=27
neighbor_sentences_diff=20
avg_dash_quest_semicolon_per_sentence=19
human_fillers=6
ai_fillers=3
ai_fillers2=3
fake_news=2
avg_excl_per_sentence=1
woke=1

parameters:
[boosting: gbdt]
[objective: binary]
[metric: binary_logloss]
[tree_learner: serial]
[device_type: cpu]
[data: ]
[valid: ]
[num_iterations: 75]
[learning_rate: 0.2]
[num_leaves: 8]
[num_threads: 8]
[deterministic: 0]
[force_col_wise: 0]
[force_row_wise: 0]
[histogram_pool_size: -1]
[max_depth: 3]
[min_data_in_leaf: 1]
[min_sum_hessian_in_leaf: 0.001]
[bagging_fraction: 0.95]
[pos_bagging_fraction: 1]
[neg_bagging_fraction: 1]
[bagging_freq: 0]
[bagging_seed: 3]
[feature_fraction: 1]
[feature_fraction_bynode: 1]
[feature_fraction_seed: 2]
[extra_trees: 0]
[extra_seed: 6]
[early_stopping_round: 0]
[first_metric_only: 0]
[max_delta_step: 0]
[lambda_l1: 0.05]
[lambda_l2: 0.05]
[linear_lambda: 0]
[min_gain_to_split: 0]
[drop_rate: 0.1]
[max_drop: 50]
[skip_drop: 0.5]
[xgboost_dart_mode: 0]
[uniform_drop: 0]
[drop_seed: 4]
[top_rate: 0.2]
[other_rate: 0.1]
[min_data_per_group: 100]
[max_cat_threshold: 32]
[cat_l2: 10]
[cat_smooth: 10]
[max_cat_to_onehot: 4]
[top_k: 20]
[monotone_constraints: ]
[monotone_constraints_method: basic]
[monotone_penalty: 0]
[feature_contri: ]
[forcedsplits_filename: ]
[refit_decay_rate: 0.9]
[cegb_tradeoff: 1]
[cegb_penalty_split: 0]
[cegb_penalty_feature_lazy: ]
[cegb_penalty_feature_coupled: ]
[path_smooth: 0]
[interaction_constraints: ]
[verbosity: 1]
[saved_feature_importance_type: 0]
[linear_tree: 0]
[max_bin: 255]
[max_bin_by_feature: ]
[min_data_in_bin: 3]
[bin_construct_sample_cnt: 200000]
[data_random_seed: 1]
[is_enable_sparse: 1]
[enable_bundle: 1]
[use_missing: 1]
[zero_as_missing: 0]
[feature_pre_filter: 1]
[pre_partition: 0]
[two_round: 0]
[header: 0]
[label_column: ]
[weight_column: ]
[group_column: ]
[ignore_column: ]
[categorical_feature: ]
[forcedbins_filename: ]
[precise_float_parser: 0]
[parser_config_file: ]
[objective_seed: 5]
[num_class: 1]
[is_unbalance: 0]
[scale_pos_weight: 1]
[sigmoid: 1]
[boost_from_average: 1]
[reg_sqrt: 0]
[alpha: 0.9]
[fair_c: 1]
[poisson_max_delta_step: 0.7]
[tweedie_variance_power: 1.5]
[lambdarank_truncation_level: 30]
[lambdarank_norm: 1]
[label_gain: ]
[lambdarank_position_bias_regularization: 0]
[eval_at: ]
[multi_error_top_k: 1]
[auc_mu_weights: ]
[num_machines: 1]
[local_listen_port: 12400]
[time_out: 120]
[machine_list_filename: ]
[machines: ]
[gpu_platform_id: -1]
[gpu_device_id: -1]
[gpu_use_dp: 0]
[num_gpu: 1]

end of parameters

pandas_categorical:[]
